{"learner":{"attributes":{"scikit_learn":"{\"_estimator_type\": \"regressor\"}"},"feature_names":["age","sex","bmi","children","smoker","region"],"feature_types":["int","int","float","int","int","int"],"gradient_booster":{"model":{"gbtree_model_param":{"num_parallel_tree":"1","num_trees":"100"},"iteration_indptr":[0,1,2,3,4,5,6,7,8,9,10,11,12,13,14,15,16,17,18,19,20,21,22,23,24,25,26,27,28,29,30,31,32,33,34,35,36,37,38,39,40,41,42,43,44,45,46,47,48,49,50,51,52,53,54,55,56,57,58,59,60,61,62,63,64,65,66,67,68,69,70,71,72,73,74,75,76,77,78,79,80,81,82,83,84,85,86,87,88,89,90,91,92,93,94,95,96,97,98,99,100],"tree_info":[0,0,0,0,0,0,0,0,0,0,0,0,0,0,0,0,0,0,0,0,0,0,0,0,0,0,0,0,0,0,0,0,0,0,0,0,0,0,0,0,0,0,0,0,0,0,0,0,0,0,0,0,0,0,0,0,0,0,0,0,0,0,0,0,0,0,0,0,0,0,0,0,0,0,0,0,0,0,0,0,0,0,0,0,0,0,0,0,0,0,0,0,0,0,0,0,0,0,0,0],"trees":[{"base_weights":[1.1933448E-4,-4.650095E3,1.918482E4,-7.7246885E3,-6.022339E2,7.9816626E3,2.8403623E4,-9.635407E3,-6.889269E3,-2.7257124E3,1.00211206E3,5.564111E3,1.1050507E3,2.2776548E3,3.0601636E3,-1.0244102E3,-6.04615E3,-7.6148154E3,-6.0618716E3,-1.6813004E3,-3.4144048E3,-5.2172096E1,2.6492432E3,3.1861353E3,6.4242686E3,-8.019721E2,-3.8976611E3,-8.503551E3,-6.6759575E3,-6.251638E3,-3.16459E3,-2.1661497E3,5.4056997E3,-4.177574E3,-7.633842E2,-7.6904144E2,1.6782826E3,1.3169565E3,4.743384E3,4.1797497E1,3.579854E2,6.43209E1,6.575382E3,4.9979703E2,-6.1765845E2,-5.397815E2,-8.8352246E2,-8.307736E2,-5.2537836E2,-3.968782E2,-6.522946E2,-4.132351E2,7.93556E1,-3.9681924E2,-1.3911787E2,9.469718E2,8.944544E1,-4.279756E2,-1.5493672E2,6.3675037E1,-3.4545984E2,1.0493422E2,-1.2607625E2,-1.5584198E2,3.514594E2,2.4639561E2,4.9160137E1,5.8075287E2,1.3570811E2,5.0210748E2,7.2984735E2],"categories":[],"categories_nodes":[],"categories_segments":[],"categories_sizes":[],"default_left":[0,0,0,0,0,0,0,0,0,0,0,0,0,0,0,0,0,0,0,0,0,0,0,0,0,0,0,0,0,0,0,0,0,0,0,0,0,0,0,0,0,0,0,0,0,0,0,0,0,0,0,0,0,0,0,0,0,0,0,0,0,0,0,0,0,0,0,0,0,0,0],"id":0,"left_children":[1,3,5,7,9,11,13,15,17,19,21,23,-1,-1,-1,-1,25,27,29,31,33,35,37,39,41,-1,43,45,47,49,51,53,55,57,59,61,63,65,67,-1,-1,-1,69,-1,-1,-1,-1,-1,-1,-1,-1,-1,-1,-1,-1,-1,-1,-1,-1,-1,-1,-1,-1,-1,-1,-1,-1,-1,-1,-1,-1],"loss_changes":[8.368015E10,9.391718E9,1.867348E10,6.18412E8,1.1167532E9,5.6171674E8,5.398364E8,2.1771264E8,1.351342E8,9.567763E7,3.24872E8,7.97577E7,0E0,0E0,0E0,0E0,5.778592E7,7.423078E7,6.048768E7,2.1100483E8,1.6675795E8,1.4394931E8,1.9742288E8,1.4851856E7,2.6346496E7,0E0,2.741399E8,3.1625728E7,1.4432742E8,5.834445E7,4.5415184E7,7.128872E7,6.486489E7,1.0825088E7,7.756096E7,7.464222E7,2.075594E8,4.233609E7,9.301715E7,0E0,0E0,0E0,1.566592E6,0E0,0E0,0E0,0E0,0E0,0E0,0E0,0E0,0E0,0E0,0E0,0E0,0E0,0E0,0E0,0E0,0E0,0E0,0E0,0E0,0E0,0E0,0E0,0E0,0E0,0E0,0E0,0E0],"parents":[2147483647,0,0,1,1,2,2,3,3,4,4,5,5,6,6,7,7,8,8,9,9,10,10,11,11,16,16,17,17,18,18,19,19,20,20,21,21,22,22,23,23,24,24,26,26,27,27,28,28,29,29,30,30,31,31,32,32,33,33,34,34,35,35,36,36,37,37,38,38,42,42],"right_children":[2,4,6,8,10,12,14,16,18,20,22,24,-1,-1,-1,-1,26,28,30,32,34,36,38,40,42,-1,44,46,48,50,52,54,56,58,60,62,64,66,68,-1,-1,-1,70,-1,-1,-1,-1,-1,-1,-1,-1,-1,-1,-1,-1,-1,-1,-1,-1,-1,-1,-1,-1,-1,-1,-1,-1,-1,-1,-1,-1],"split_conditions":[1E0,4.3E1,3.002E1,2.3E1,5.2E1,4.1E1,2.8E1,2E0,3.3E1,2.98E1,5.9E1,2.2E1,1.1050507E3,2.2776548E3,3.0601636E3,-1.0244102E3,2.629E1,2E0,4E0,2.96E1,3E0,2E0,1E0,2.178E1,1.729E1,-8.019721E2,2.8E1,2.3655E1,1E0,2.33E1,3E0,2.41E1,4.5E1,4E0,3.652E1,2.6885E1,1E0,2.86E1,3.663E1,4.1797497E1,3.579854E2,6.43209E1,2.486E1,4.9979703E2,-6.1765845E2,-5.397815E2,-8.8352246E2,-8.307736E2,-5.2537836E2,-3.968782E2,-6.522946E2,-4.132351E2,7.93556E1,-3.9681924E2,-1.3911787E2,9.469718E2,8.944544E1,-4.279756E2,-1.5493672E2,6.3675037E1,-3.4545984E2,1.0493422E2,-1.2607625E2,-1.5584198E2,3.514594E2,2.4639561E2,4.9160137E1,5.8075287E2,1.3570811E2,5.0210748E2,7.2984735E2],"split_indices":[4,0,2,0,0,0,0,3,0,2,0,0,0,0,0,0,2,5,3,2,5,3,3,2,2,0,2,2,3,2,5,2,0,3,2,2,5,2,2,0,0,0,2,0,0,0,0,0,0,0,0,0,0,0,0,0,0,0,0,0,0,0,0,0,0,0,0,0,0,0,0],"split_type":[0,0,0,0,0,0,0,0,0,0,0,0,0,0,0,0,0,0,0,0,0,0,0,0,0,0,0,0,0,0,0,0,0,0,0,0,0,0,0,0,0,0,0,0,0,0,0,0,0,0,0,0,0,0,0,0,0,0,0,0,0,0,0,0,0,0,0,0,0,0,0],"sum_hessian":[9.36E2,7.54E2,1.82E2,4.28E2,3.26E2,8.3E1,9.9E1,1.27E2,3.01E2,1.4E2,1.86E2,4.8E1,3.5E1,3.1E1,6.8E1,1.07E2,2E1,1.56E2,1.45E2,5.7E1,8.3E1,1.14E2,7.2E1,1.4E1,3.4E1,9E0,1.1E1,7.6E1,8E1,1.35E2,1E1,5.4E1,3E0,6.4E1,1.9E1,8.1E1,3.3E1,4.5E1,2.7E1,2E0,1.2E1,1E0,3.3E1,2E0,9E0,9E0,6.7E1,3.5E1,4.5E1,1.6E1,1.19E2,8E0,2E0,1.5E1,3.9E1,1E0,2E0,6.1E1,3E0,1.3E1,6E0,1.7E1,6.4E1,1.2E1,2.1E1,1.8E1,2.7E1,2E1,7E0,1.3E1,2E1],"tree_param":{"num_deleted":"0","num_feature":"6","num_nodes":"71","size_leaf_vector":"1"}},{"base_weights":[3.0464628E0,-4.192085E3,1.7310812E4,-6.8723003E3,-4.059474E2,7.216843E3,2.5616639E4,-8.687056E3,-6.1130586E3,-2.32273E3,9.082457E2,4.82493E3,9.727323E3,2.216764E3,2.8754014E3,-9.229177E3,-5.4853364E3,-6.558017E3,-4.6274917E3,-1.3405541E3,-2.9989268E3,-4.5437737E1,2.3981821E3,2.971719E3,5.6524785E3,5.065261E2,1.0104628E3,-1.00610284E3,-8.1398555E3,-7.297947E2,-3.5177168E3,-6.9887275E3,-5.118232E3,-4.854936E3,6.8023975E2,-1.8213109E3,5.1242344E3,-3.5962305E3,-1.0491775E3,-6.9239526E2,1.516208E3,2.1144026E3,1.141515E3,3.901097E1,3.3126553E3,6.1104836E1,5.8052505E3,-2.471045E1,-8.450623E2,4.664772E2,-5.620692E2,-4.8450626E2,-7.268346E2,-5.504636E2,3.9295282E2,-5.8932043E2,-3.6854532E2,7.979902E2,-4.4129477E2,-3.596174E2,-9.818909E1,8.996232E2,8.348242E1,-3.8291733E2,-2.1184827E2,-3.1293967E2,4.2506664E1,3.656414E1,-1.5283727E2,-1.4145659E2,3.1791104E2,1.191686E2,3.608127E2,3.42656E2,9.159463E1,5.935818E2,1.0746826E2],"categories":[],"categories_nodes":[],"categories_segments":[],"categories_sizes":[],"default_left":[0,0,0,0,0,0,0,0,0,0,0,0,0,0,0,0,0,0,0,0,0,0,0,0,0,0,0,0,0,0,0,0,0,0,0,0,0,0,0,0,0,0,0,0,0,0,0,0,0,0,0,0,0,0,0,0,0,0,0,0,0,0,0,0,0,0,0,0,0,0,0,0,0,0,0,0,0],"id":1,"left_children":[1,3,5,7,9,11,13,15,17,19,21,23,25,-1,-1,27,29,31,33,35,37,39,41,43,45,-1,-1,-1,47,-1,49,51,53,55,57,59,61,63,65,67,69,71,-1,-1,73,-1,75,-1,-1,-1,-1,-1,-1,-1,-1,-1,-1,-1,-1,-1,-1,-1,-1,-1,-1,-1,-1,-1,-1,-1,-1,-1,-1,-1,-1,-1,-1],"loss_changes":[6.8106596E10,7.6586967E9,1.5157621E10,5.558989E8,7.930826E8,4.5747354E8,4.4467405E8,1.7154662E8,1.778729E8,8.099034E7,2.6582248E8,5.221549E7,1.917824E7,0E0,0E0,1.596928E7,4.922496E7,1.1306189E8,9.505075E7,1.7716435E8,8.357126E7,1.1723644E8,1.6265837E8,1.2790352E7,1.9558336E7,0E0,0E0,0E0,1.2545818E8,0E0,2.3271006E8,7.387648E7,2.2790016E8,6.6920064E7,1.8392906E8,7.245162E7,5.892409E7,1.150912E7,5.9598456E7,7.308741E7,1.7019915E8,9.49367E7,0E0,0E0,6.83408E5,0E0,1.1532992E7,0E0,0E0,0E0,0E0,0E0,0E0,0E0,0E0,0E0,0E0,0E0,0E0,0E0,0E0,0E0,0E0,0E0,0E0,0E0,0E0,0E0,0E0,0E0,0E0,0E0,0E0,0E0,0E0,0E0,0E0],"parents":[2147483647,0,0,1,1,2,2,3,3,4,4,5,5,6,6,7,7,8,8,9,9,10,10,11,11,12,12,15,15,16,16,17,17,18,18,19,19,20,20,21,21,22,22,23,23,24,24,28,28,30,30,31,31,32,32,33,33,34,34,35,35,36,36,37,37,38,38,39,39,40,40,41,41,44,44,46,46],"right_children":[2,4,6,8,10,12,14,16,18,20,22,24,26,-1,-1,28,30,32,34,36,38,40,42,44,46,-1,-1,-1,48,-1,50,52,54,56,58,60,62,64,66,68,70,72,-1,-1,74,-1,76,-1,-1,-1,-1,-1,-1,-1,-1,-1,-1,-1,-1,-1,-1,-1,-1,-1,-1,-1,-1,-1,-1,-1,-1,-1,-1,-1,-1,-1,-1],"split_conditions":[1E0,4.4E1,3.002E1,2.3E1,5.2E1,3.9E1,4.2E1,2E0,3.9E1,2.98E1,5.9E1,2.4E1,2.242E1,2.216764E3,2.8754014E3,3.01E1,2.629E1,3E0,4.142E1,2.96E1,3E0,2E0,4E0,2.178E1,1.729E1,5.065261E2,1.0104628E3,-1.00610284E3,3.014E1,-7.297947E2,2.8E1,2.3655E1,3.762E1,2E0,1E0,2.41E1,4.5E1,3E0,4.7E1,1E0,1E0,1E0,1.141515E3,3.901097E1,3E0,6.1104836E1,3.8E1,-2.471045E1,-8.450623E2,4.664772E2,-5.620692E2,-4.8450626E2,-7.268346E2,-5.504636E2,3.9295282E2,-5.8932043E2,-3.6854532E2,7.979902E2,-4.4129477E2,-3.596174E2,-9.818909E1,8.996232E2,8.348242E1,-3.8291733E2,-2.1184827E2,-3.1293967E2,4.2506664E1,3.656414E1,-1.5283727E2,-1.4145659E2,3.1791104E2,1.191686E2,3.608127E2,3.42656E2,9.159463E1,5.935818E2,1.0746826E2],"split_indices":[4,0,2,0,0,0,0,3,0,2,0,0,2,0,0,2,2,5,2,2,5,3,3,2,2,0,0,0,2,0,2,2,2,3,1,2,0,3,0,1,5,3,0,0,5,0,0,0,0,0,0,0,0,0,0,0,0,0,0,0,0,0,0,0,0,0,0,0,0,0,0,0,0,0,0,0,0],"split_type":[0,0,0,0,0,0,0,0,0,0,0,0,0,0,0,0,0,0,0,0,0,0,0,0,0,0,0,0,0,0,0,0,0,0,0,0,0,0,0,0,0,0,0,0,0,0,0,0,0,0,0,0,0,0,0,0,0,0,0,0,0,0,0,0,0,0,0,0,0,0,0,0,0,0,0,0,0],"sum_hessian":[9.36E2,7.54E2,1.82E2,4.41E2,3.13E2,8.3E1,9.9E1,1.27E2,3.14E2,1.27E2,1.86E2,4.4E1,3.9E1,5.1E1,4.8E1,1.07E2,2E1,2.39E2,7.5E1,5.3E1,7.4E1,1.14E2,7.2E1,1.5E1,2.9E1,4E0,3.5E1,5.6E1,5.1E1,9E0,1.1E1,1.81E2,5.8E1,7.2E1,3E0,5E1,3E0,5.6E1,1.8E1,8.1E1,3.3E1,7.1E1,1E0,2E0,1.3E1,1E0,2.8E1,2E0,4.9E1,2E0,9E0,2.3E1,1.58E2,5.6E1,2E0,3.6E1,3.6E1,1E0,2E0,1.5E1,3.5E1,1E0,2E0,4.7E1,9E0,7E0,1.1E1,3.6E1,4.5E1,1.2E1,2.1E1,4.5E1,2.6E1,1.2E1,1E0,2.7E1,1E0],"tree_param":{"num_deleted":"0","num_feature":"6","num_nodes":"77","size_leaf_vector":"1"}},{"base_weights":[7.560405E0,-3.7772864E3,1.5622598E4,-6.283544E3,-4.7770923E2,6.527925E3,2.3105896E4,-7.839454E3,-5.603279E3,-2.2039028E3,8.264139E2,4.5522173E3,9.035751E3,1.842258E3,2.4943003E3,-8.323628E3,-4.976107E3,-6.2253125E3,-4.896001E3,-1.3376442E3,-2.775797E3,-4.037088E1,2.180576E3,2.7041257E3,5.2880186E3,7.2252676E3,1.0634218E3,-9.072576E2,-7.342596E3,-6.6411316E2,-3.1739111E3,-4.545555E3,-6.6025103E3,-5.05522E3,-2.4823826E3,-1.7638856E3,4.857587E3,-3.4036277E3,-5.9655756E2,-6.2457404E2,1.3697771E3,1.9096287E3,1.0844393E3,3.6410255E1,3.0124075E3,4.191602E3,6.5549274E2,3.2244354E2,7.741624E2,-2.3063055E1,-7.622462E2,4.3537872E2,-5.1148297E2,6.2362494E2,-5.875957E2,-7.0730426E2,-5.0621304E2,-3.0391483E2,-5.280029E2,-3.2781952E2,7.325163E1,-3.7202484E2,-1.2464662E2,8.54642E2,7.791692E1,-4.3261716E2,-3.0403415E2,6.43681E1,-2.9918124E2,9.998825E1,-1.0648147E2,-1.2839902E2,2.8756497E2,1.0751078E2,3.260678E2,3.110262E2,8.701489E1,1.18728165E2,4.8286612E2],"categories":[],"categories_nodes":[],"categories_segments":[],"categories_sizes":[],"default_left":[0,0,0,0,0,0,0,0,0,0,0,0,0,0,0,0,0,0,0,0,0,0,0,0,0,0,0,0,0,0,0,0,0,0,0,0,0,0,0,0,0,0,0,0,0,0,0,0,0,0,0,0,0,0,0,0,0,0,0,0,0,0,0,0,0,0,0,0,0,0,0,0,0,0,0,0,0,0,0],"id":2,"left_children":[1,3,5,7,9,11,13,15,17,19,21,23,25,-1,-1,27,29,31,33,35,37,39,41,43,45,47,-1,-1,49,-1,51,53,55,57,59,61,63,65,67,69,71,73,-1,-1,75,77,-1,-1,-1,-1,-1,-1,-1,-1,-1,-1,-1,-1,-1,-1,-1,-1,-1,-1,-1,-1,-1,-1,-1,-1,-1,-1,-1,-1,-1,-1,-1,-1,-1],"loss_changes":[5.54362E10,6.2405376E9,1.2303806E10,4.101417E8,7.3795366E8,3.7506458E8,4.0086323E8,1.360343E8,1.0238566E8,6.613965E7,2.195825E8,5.233216E7,2.7348992E7,0E0,0E0,1.2735488E7,4.193629E7,6.946304E7,4.3558144E7,1.6172677E8,1.1289773E8,9.559402E7,1.5065424E8,1.0445352E7,1.9752384E7,1.6354688E7,0E0,0E0,1.0174285E8,0E0,1.9759667E8,4.9565626E8,5.5520256E7,4.5592576E7,3.0544368E7,5.1037136E7,5.3519304E7,8.631552E6,6.1339516E7,5.9707136E7,1.395643E8,7.767286E7,0E0,0E0,2.28424E5,3.445952E7,0E0,0E0,0E0,0E0,0E0,0E0,0E0,0E0,0E0,0E0,0E0,0E0,0E0,0E0,0E0,0E0,0E0,0E0,0E0,0E0,0E0,0E0,0E0,0E0,0E0,0E0,0E0,0E0,0E0,0E0,0E0,0E0,0E0],"parents":[2147483647,0,0,1,1,2,2,3,3,4,4,5,5,6,6,7,7,8,8,9,9,10,10,11,11,12,12,15,15,16,16,17,17,18,18,19,19,20,20,21,21,22,22,23,23,24,24,25,25,28,28,30,30,31,31,32,32,33,33,34,34,35,35,36,36,37,37,38,38,39,39,40,40,41,41,44,44,45,45],"right_children":[2,4,6,8,10,12,14,16,18,20,22,24,26,-1,-1,28,30,32,34,36,38,40,42,44,46,48,-1,-1,50,-1,52,54,56,58,60,62,64,66,68,70,72,74,-1,-1,76,78,-1,-1,-1,-1,-1,-1,-1,-1,-1,-1,-1,-1,-1,-1,-1,-1,-1,-1,-1,-1,-1,-1,-1,-1,-1,-1,-1,-1,-1,-1,-1,-1,-1],"split_conditions":[1E0,4.3E1,3.002E1,2.3E1,5.2E1,4.1E1,2.8E1,2E0,3.3E1,2.98E1,5.9E1,2.4E1,2.59E1,1.842258E3,2.4943003E3,3.01E1,2.629E1,2.5E1,4E0,2.96E1,3E0,2E0,4E0,2.178E1,2.8E1,4.4E1,1.0634218E3,-9.072576E2,3.014E1,-6.6411316E2,2.8E1,2.33E1,3E0,2.288E1,3E0,4.5E1,4.5E1,4.5E1,3.652E1,2.6885E1,1E0,1E0,1.0844393E3,3.6410255E1,3E0,2.8E1,6.5549274E2,3.2244354E2,7.741624E2,-2.3063055E1,-7.622462E2,4.3537872E2,-5.1148297E2,6.2362494E2,-5.875957E2,-7.0730426E2,-5.0621304E2,-3.0391483E2,-5.280029E2,-3.2781952E2,7.325163E1,-3.7202484E2,-1.2464662E2,8.54642E2,7.791692E1,-4.3261716E2,-3.0403415E2,6.43681E1,-2.9918124E2,9.998825E1,-1.0648147E2,-1.2839902E2,2.8756497E2,1.0751078E2,3.260678E2,3.110262E2,8.701489E1,1.18728165E2,4.8286612E2],"split_indices":[4,0,2,0,0,0,0,3,0,2,0,0,2,0,0,2,2,0,3,2,5,3,3,2,2,0,0,0,2,0,2,2,5,2,5,0,0,0,2,2,5,3,0,0,5,0,0,0,0,0,0,0,0,0,0,0,0,0,0,0,0,0,0,0,0,0,0,0,0,0,0,0,0,0,0,0,0,0,0],"split_type":[0,0,0,0,0,0,0,0,0,0,0,0,0,0,0,0,0,0,0,0,0,0,0,0,0,0,0,0,0,0,0,0,0,0,0,0,0,0,0,0,0,0,0,0,0,0,0,0,0,0,0,0,0,0,0,0,0,0,0,0,0,0,0,0,0,0,0,0,0,0,0,0,0,0,0,0,0,0,0],"sum_hessian":[9.36E2,7.54E2,1.82E2,4.28E2,3.26E2,8.3E1,9.9E1,1.27E2,3.01E2,1.4E2,1.86E2,4.8E1,3.5E1,3.1E1,6.8E1,1.07E2,2E1,1.56E2,1.45E2,5.7E1,8.3E1,1.14E2,7.2E1,1.5E1,3.3E1,1.9E1,1.6E1,5.6E1,5.1E1,9E0,1.1E1,3.1E1,1.25E2,1.35E2,1E1,5.4E1,3E0,6.4E1,1.9E1,8.1E1,3.3E1,7.1E1,1E0,2E0,1.3E1,2E1,1.3E1,3E0,1.6E1,2E0,4.9E1,2E0,9E0,3E0,2.8E1,9.3E1,3.2E1,1.5E1,1.2E2,8E0,2E0,1E1,4.4E1,1E0,2E0,1.5E1,4.9E1,1.3E1,6E0,1.7E1,6.4E1,1.2E1,2.1E1,4.5E1,2.6E1,1.2E1,1E0,4E0,1.6E1],"tree_param":{"num_deleted":"0","num_feature":"6","num_nodes":"79","size_leaf_vector":"1"}},{"base_weights":[1.1741907E1,-3.4042751E3,1.4105081E4,-5.6661377E3,-4.2646698E2,5.9209844E3,2.0838672E4,-6.7502583E3,-4.8164956E3,-1.987311E3,7.527067E2,4.1315166E3,8.192177E3,1.8161888E3,2.3832717E3,-7.6691614E2,-5.828077E3,-5.6852725E3,-3.9156243E3,-1.1963645E3,-2.5097825E3,-3.500626E1,1.9833134E3,2.4608662E3,4.7961895E3,6.5575713E3,9.6333496E2,-3.3297073E3,-6.1750903E3,-6.1687593E3,-3.3359685E3,-4.069508E3,3.5962385E3,-1.5965276E3,4.6049683E3,-3.074598E3,-5.486424E2,-5.6219586E2,1.2374806E3,1.7246879E3,1.0302174E3,3.398291E1,2.739598E2,3.801089E3,5.9462555E2,3.3940128E2,7.1363354E2,7.143671E2,-5.670576E2,-4.1027423E2,-6.7177344E2,-6.6730975E2,-5.086794E2,-3.6675784E2,9.729004E0,-2.9284543E2,-4.7066E2,-2.4505501E2,7.844908E2,-3.0957938E2,-9.5690796E1,8.1191E2,7.2722466E1,-3.920593E2,-2.7423877E2,5.839106E1,-2.7353708E2,3.834463E1,-1.3105995E2,-1.38877E1,4.1279443E2,9.699342E1,2.9466873E2,1.0922988E2,4.374199E2],"categories":[],"categories_nodes":[],"categories_segments":[],"categories_sizes":[],"default_left":[0,0,0,0,0,0,0,0,0,0,0,0,0,0,0,0,0,0,0,0,0,0,0,0,0,0,0,0,0,0,0,0,0,0,0,0,0,0,0,0,0,0,0,0,0,0,0,0,0,0,0,0,0,0,0,0,0,0,0,0,0,0,0,0,0,0,0,0,0,0,0,0,0,0,0],"id":3,"left_children":[1,3,5,7,9,11,13,15,17,19,21,23,25,-1,-1,-1,27,29,31,33,35,37,39,41,43,45,-1,47,49,51,53,55,57,59,61,63,65,67,69,71,-1,-1,-1,73,-1,-1,-1,-1,-1,-1,-1,-1,-1,-1,-1,-1,-1,-1,-1,-1,-1,-1,-1,-1,-1,-1,-1,-1,-1,-1,-1,-1,-1,-1,-1],"loss_changes":[4.515809E10,5.082805E9,9.961439E9,3.626455E8,6.033414E8,3.075492E8,3.6859904E8,1.1291853E8,1.6870707E8,5.5265216E7,1.8134067E8,4.2608576E7,2.1635584E7,0E0,0E0,0E0,6.353485E7,1.1799603E8,1.5681754E8,1.4199773E8,9.13585E7,7.784251E7,1.3928922E8,8.528208E6,1.6308416E7,1.2398208E7,0E0,3.8374406E8,6.690099E7,2.0623104E7,2.6542336E7,7.417856E7,9.6296744E7,4.97804E7,4.86032E7,7.516288E6,5.112893E7,5.8535744E7,1.3583587E8,6.354813E7,0E0,0E0,0E0,2.7823168E7,0E0,0E0,0E0,0E0,0E0,0E0,0E0,0E0,0E0,0E0,0E0,0E0,0E0,0E0,0E0,0E0,0E0,0E0,0E0,0E0,0E0,0E0,0E0,0E0,0E0,0E0,0E0,0E0,0E0,0E0,0E0],"parents":[2147483647,0,0,1,1,2,2,3,3,4,4,5,5,6,6,7,7,8,8,9,9,10,10,11,11,12,12,16,16,17,17,18,18,19,19,20,20,21,21,22,22,23,23,24,24,25,25,27,27,28,28,29,29,30,30,31,31,32,32,33,33,34,34,35,35,36,36,37,37,38,38,39,39,43,43],"right_children":[2,4,6,8,10,12,14,16,18,20,22,24,26,-1,-1,-1,28,30,32,34,36,38,40,42,44,46,-1,48,50,52,54,56,58,60,62,64,66,68,70,72,-1,-1,-1,74,-1,-1,-1,-1,-1,-1,-1,-1,-1,-1,-1,-1,-1,-1,-1,-1,-1,-1,-1,-1,-1,-1,-1,-1,-1,-1,-1,-1,-1,-1,-1],"split_conditions":[1E0,4.3E1,3.002E1,1E0,5.2E1,4.1E1,4.4E1,2.3E1,2E0,2.98E1,5.9E1,2.4E1,2.59E1,1.8161888E3,2.3832717E3,-7.6691614E2,2.33E1,3.9E1,4.142E1,2.96E1,3E0,2E0,4E0,2.178E1,2.8E1,4.6E1,9.6333496E2,2.5E1,1E0,3.2E1,4E0,3E1,3.4E1,2.41E1,4.5E1,4.5E1,3.652E1,1E0,3.663E1,1E0,1.0302174E3,3.398291E1,2.739598E2,2.8E1,5.9462555E2,3.3940128E2,7.1363354E2,7.143671E2,-5.670576E2,-4.1027423E2,-6.7177344E2,-6.6730975E2,-5.086794E2,-3.6675784E2,9.729004E0,-2.9284543E2,-4.7066E2,-2.4505501E2,7.844908E2,-3.0957938E2,-9.5690796E1,8.1191E2,7.2722466E1,-3.920593E2,-2.7423877E2,5.839106E1,-2.7353708E2,3.834463E1,-1.3105995E2,-1.38877E1,4.1279443E2,9.699342E1,2.9466873E2,1.0922988E2,4.374199E2],"split_indices":[4,0,2,3,0,0,0,0,5,2,0,0,2,0,0,0,2,0,2,2,5,3,3,2,2,0,0,0,5,0,3,0,0,2,0,0,2,1,2,3,0,0,0,0,0,0,0,0,0,0,0,0,0,0,0,0,0,0,0,0,0,0,0,0,0,0,0,0,0,0,0,0,0,0,0],"split_type":[0,0,0,0,0,0,0,0,0,0,0,0,0,0,0,0,0,0,0,0,0,0,0,0,0,0,0,0,0,0,0,0,0,0,0,0,0,0,0,0,0,0,0,0,0,0,0,0,0,0,0,0,0,0,0,0,0,0,0,0,0,0,0,0,0,0,0,0,0,0,0,0,0,0,0],"sum_hessian":[9.36E2,7.54E2,1.82E2,4.28E2,3.26E2,8.3E1,9.9E1,1.85E2,2.43E2,1.4E2,1.86E2,4.8E1,3.5E1,5.6E1,4.3E1,8.9E1,9.6E1,1.21E2,1.22E2,5.7E1,8.3E1,1.14E2,7.2E1,1.5E1,3.3E1,1.9E1,1.6E1,1.3E1,8.3E1,9.9E1,2.2E1,1.2E2,2E0,5.4E1,3E0,6.4E1,1.9E1,8.1E1,3.3E1,7.1E1,1E0,2E0,1.3E1,2E1,1.3E1,4E0,1.5E1,2E0,1.1E1,1.9E1,6.4E1,6.4E1,3.5E1,2E1,2E0,4.5E1,7.5E1,1E0,1E0,1.5E1,3.9E1,1E0,2E0,1.5E1,4.9E1,1.3E1,6E0,3.6E1,4.5E1,2.3E1,1E1,4.5E1,2.6E1,4E0,1.6E1],"tree_param":{"num_deleted":"0","num_feature":"6","num_nodes":"75","size_leaf_vector":"1"}},{"base_weights":[1.6471985E1,-3.0666724E3,1.2736459E4,-5.107586E3,-3.797653E2,5.370143E3,1.8796799E4,-6.084381E3,-4.3420474E3,-1.7914315E3,6.86677E2,3.7479407E3,7.42897E3,1.6377562E3,2.150361E3,-6.9107666E2,-5.254906E3,-5.1293105E3,-3.5258833E3,-1.0684636E3,-2.269297E3,-2.8843275E1,1.80446E3,2.234026E3,4.3501377E3,6.389113E2,9.8386395E2,-2.9862144E3,-5.570463E3,-5.5636436E3,-3.0178945E3,-3.6688672E3,3.4164263E3,-1.4442438E3,4.3656294E3,-2.7773884E3,-5.0453516E2,-1.1765974E3,4.67456E2,1.5576589E3,9.7870654E2,3.1717417E1,2.4852068E3,3.4470112E3,5.394103E2,6.667426E2,-5.1507733E2,-3.712982E2,-6.056296E2,-6.0160547E2,-4.5922443E2,-3.3182852E2,9.080436E0,-4.693986E2,-2.9775412E2,-2.3280228E2,7.4526624E2,-2.0419026E2,-1.022837E1,7.7131445E2,6.787429E1,-2.9683798E2,-1.6864781E2,5.2969074E1,-2.5009105E2,1.2291499E2,-1.8219325E2,5.672379E2,-1.0155538E1,8.750496E1,2.6629318E2,2.5702747E2,6.896616E1,1.4559897E2,4.146354E2],"categories":[],"categories_nodes":[],"categories_segments":[],"categories_sizes":[],"default_left":[0,0,0,0,0,0,0,0,0,0,0,0,0,0,0,0,0,0,0,0,0,0,0,0,0,0,0,0,0,0,0,0,0,0,0,0,0,0,0,0,0,0,0,0,0,0,0,0,0,0,0,0,0,0,0,0,0,0,0,0,0,0,0,0,0,0,0,0,0,0,0,0,0,0,0],"id":4,"left_children":[1,3,5,7,9,11,13,15,17,19,21,23,25,-1,-1,-1,27,29,31,33,35,37,39,41,43,-1,-1,45,47,49,51,53,55,57,59,61,63,65,67,69,-1,-1,71,73,-1,-1,-1,-1,-1,-1,-1,-1,-1,-1,-1,-1,-1,-1,-1,-1,-1,-1,-1,-1,-1,-1,-1,-1,-1,-1,-1,-1,-1,-1,-1],"loss_changes":[3.678591E10,4.138288E9,8.068612E9,2.9437645E8,4.9351574E8,2.5270272E8,3.0266573E8,9.118157E7,1.3869363E8,4.6288224E7,1.4961398E8,3.495373E7,2.7345408E7,0E0,0E0,0E0,5.280768E7,9.509043E7,1.3462886E8,1.2474245E8,7.391814E7,6.605741E7,1.2857349E8,6.915376E6,1.3462784E7,0E0,0E0,3.2688464E8,5.331712E7,1.632E7,2.1779264E7,7.17751E7,8.690781E7,4.390304E7,4.413239E7,8.536992E6,4.2618764E7,5.657738E7,2.4047054E8,5.1991616E7,0E0,0E0,3.65792E5,2.3203488E7,0E0,0E0,0E0,0E0,0E0,0E0,0E0,0E0,0E0,0E0,0E0,0E0,0E0,0E0,0E0,0E0,0E0,0E0,0E0,0E0,0E0,0E0,0E0,0E0,0E0,0E0,0E0,0E0,0E0,0E0,0E0],"parents":[2147483647,0,0,1,1,2,2,3,3,4,4,5,5,6,6,7,7,8,8,9,9,10,10,11,11,12,12,16,16,17,17,18,18,19,19,20,20,21,21,22,22,23,23,24,24,27,27,28,28,29,29,30,30,31,31,32,32,33,33,34,34,35,35,36,36,37,37,38,38,39,39,42,42,43,43],"right_children":[2,4,6,8,10,12,14,16,18,20,22,24,26,-1,-1,-1,28,30,32,34,36,38,40,42,44,-1,-1,46,48,50,52,54,56,58,60,62,64,66,68,70,-1,-1,72,74,-1,-1,-1,-1,-1,-1,-1,-1,-1,-1,-1,-1,-1,-1,-1,-1,-1,-1,-1,-1,-1,-1,-1,-1,-1,-1,-1,-1,-1,-1,-1],"split_conditions":[1E0,4.3E1,3.002E1,1E0,5.2E1,4.1E1,4.4E1,2.3E1,2E0,2.98E1,5.9E1,2.4E1,5.7E1,1.6377562E3,2.150361E3,-6.9107666E2,2.33E1,3.9E1,4.142E1,2.96E1,3E0,1E0,4E0,2.178E1,2.8E1,6.389113E2,9.8386395E2,2.5E1,1E0,3.2E1,4E0,2E0,3.4E1,5E1,4.5E1,3E0,3.652E1,2.6885E1,5.3E1,1E0,9.7870654E2,3.1717417E1,3E0,3E1,5.394103E2,6.667426E2,-5.1507733E2,-3.712982E2,-6.056296E2,-6.0160547E2,-4.5922443E2,-3.3182852E2,9.080436E0,-4.693986E2,-2.9775412E2,-2.3280228E2,7.4526624E2,-2.0419026E2,-1.022837E1,7.7131445E2,6.787429E1,-2.9683798E2,-1.6864781E2,5.2969074E1,-2.5009105E2,1.2291499E2,-1.8219325E2,5.672379E2,-1.0155538E1,8.750496E1,2.6629318E2,2.5702747E2,6.896616E1,1.4559897E2,4.146354E2],"split_indices":[4,0,2,3,0,0,0,0,5,2,0,0,0,0,0,0,2,0,2,2,5,5,3,2,2,0,0,0,5,0,3,3,0,0,0,3,2,2,0,3,0,0,5,0,0,0,0,0,0,0,0,0,0,0,0,0,0,0,0,0,0,0,0,0,0,0,0,0,0,0,0,0,0,0,0],"split_type":[0,0,0,0,0,0,0,0,0,0,0,0,0,0,0,0,0,0,0,0,0,0,0,0,0,0,0,0,0,0,0,0,0,0,0,0,0,0,0,0,0,0,0,0,0,0,0,0,0,0,0,0,0,0,0,0,0,0,0,0,0,0,0,0,0,0,0,0,0,0,0,0,0,0,0],"sum_hessian":[9.36E2,7.54E2,1.82E2,4.28E2,3.26E2,8.3E1,9.9E1,1.85E2,2.43E2,1.4E2,1.86E2,4.8E1,3.5E1,5.6E1,4.3E1,8.9E1,9.6E1,1.21E2,1.22E2,5.7E1,8.3E1,1.14E2,7.2E1,1.5E1,3.3E1,2.7E1,8E0,1.3E1,8.3E1,9.9E1,2.2E1,1.2E2,2E0,5.4E1,3E0,6.4E1,1.9E1,3.4E1,8E1,7.1E1,1E0,2E0,1.3E1,2E1,1.3E1,2E0,1.1E1,1.9E1,6.4E1,6.4E1,3.5E1,2E1,2E0,4.6E1,7.4E1,1E0,1E0,3.7E1,1.7E1,1E0,2E0,5.3E1,1.1E1,1.3E1,6E0,7E0,2.7E1,7E0,7.3E1,4.5E1,2.6E1,1.2E1,1E0,6E0,1.4E1],"tree_param":{"num_deleted":"0","num_feature":"6","num_nodes":"75","size_leaf_vector":"1"}},{"base_weights":[2.0701086E1,-2.7618093E3,1.1500344E4,-4.6041807E3,-3.3630722E2,4.9412207E3,1.701575E4,-5.484095E3,-3.914557E3,-1.6125566E3,6.27797E2,3.5536467E3,6.73115E3,1.3367723E3,1.8408114E3,-5.8374995E3,-3.8494236E3,-4.6277207E3,-3.1753657E3,-9.5084515E2,-2.0502556E3,-2.1630375E1,1.6422676E3,2.977795E3,5.559275E3,5.7730195E3,8.964095E2,-6.227369E2,-5.1774077E3,1.9016298E3,-4.2436514E3,-5.017887E3,-2.730138E3,-3.381858E3,1.4148738E3,-1.3037177E3,4.138864E3,-2.506811E3,-4.639376E2,-5.0140973E2,1.1361207E3,1.406807E3,9.297712E2,1.8480667E3,3.9657234E3,9.432671E2,4.0808232E3,3.8695624E2,6.3409247E2,-3.440859E2,-5.809613E2,5.541339E2,-2.6888943E2,-5.012036E2,-3.529316E2,-5.423705E2,-4.145776E2,-3.0022583E2,8.475098E0,-2.2947227E2,-4.0205753E2,-2.2116214E2,2.5824973E2,-3.0510922E2,-8.4761024E1,7.327487E2,6.3349346E1,-3.2907755E2,-2.2058064E2,-3.202795E2,2.0778992E1,3.2990818E1,-1.1591782E2,-9.526071E0,3.7194873E2,7.8944695E1,2.4065018E2,6.7398254E1,2.2727681E2,8.567174E2,3.3072922E2,2.8605185E2,5.567927E2],"categories":[],"categories_nodes":[],"categories_segments":[],"categories_sizes":[],"default_left":[0,0,0,0,0,0,0,0,0,0,0,0,0,0,0,0,0,0,0,0,0,0,0,0,0,0,0,0,0,0,0,0,0,0,0,0,0,0,0,0,0,0,0,0,0,0,0,0,0,0,0,0,0,0,0,0,0,0,0,0,0,0,0,0,0,0,0,0,0,0,0,0,0,0,0,0,0,0,0,0,0,0,0],"id":5,"left_children":[1,3,5,7,9,11,13,15,17,19,21,23,25,-1,-1,27,29,31,33,35,37,39,41,43,45,47,-1,-1,49,51,53,55,57,59,61,63,65,67,69,71,73,75,-1,77,79,-1,81,-1,-1,-1,-1,-1,-1,-1,-1,-1,-1,-1,-1,-1,-1,-1,-1,-1,-1,-1,-1,-1,-1,-1,-1,-1,-1,-1,-1,-1,-1,-1,-1,-1,-1,-1,-1],"loss_changes":[2.9961626E10,3.3723028E9,6.5361715E9,2.3885312E8,4.033654E8,1.8719078E8,2.5678438E8,8.498176E7,1.1393357E8,3.8888416E7,1.2323579E8,4.119283E7,2.52704E7,0E0,0E0,6.618112E6,8.968992E7,7.662592E7,1.2137024E8,1.0956499E8,5.9673344E7,6.4448148E7,1.1850642E8,3.8430816E7,1.8773216E7,5.730944E6,0E0,0E0,4.807693E7,6.5024588E7,9.73056E5,1.290624E7,1.7872176E7,7.270989E7,3.1117784E7,4.1248344E7,4.006731E7,8.07968E6,3.746083E7,4.522123E7,1.0851206E8,4.2536544E7,0E0,8.939536E6,3.529037E7,0E0,4.05328E5,0E0,0E0,0E0,0E0,0E0,0E0,0E0,0E0,0E0,0E0,0E0,0E0,0E0,0E0,0E0,0E0,0E0,0E0,0E0,0E0,0E0,0E0,0E0,0E0,0E0,0E0,0E0,0E0,0E0,0E0,0E0,0E0,0E0,0E0,0E0,0E0],"parents":[2147483647,0,0,1,1,2,2,3,3,4,4,5,5,6,6,7,7,8,8,9,9,10,10,11,11,12,12,15,15,16,16,17,17,18,18,19,19,20,20,21,21,22,22,23,23,24,24,25,25,28,28,29,29,30,30,31,31,32,32,33,33,34,34,35,35,36,36,37,37,38,38,39,39,40,40,41,41,43,43,44,44,46,46],"right_children":[2,4,6,8,10,12,14,16,18,20,22,24,26,-1,-1,28,30,32,34,36,38,40,42,44,46,48,-1,-1,50,52,54,56,58,60,62,64,66,68,70,72,74,76,-1,78,80,-1,82,-1,-1,-1,-1,-1,-1,-1,-1,-1,-1,-1,-1,-1,-1,-1,-1,-1,-1,-1,-1,-1,-1,-1,-1,-1,-1,-1,-1,-1,-1,-1,-1,-1,-1,-1,-1],"split_conditions":[1E0,4.3E1,3.021E1,1E0,5.2E1,4.1E1,2.8E1,3.3E1,2E0,2.98E1,5.9E1,2.8405E1,5.7E1,1.3367723E3,1.8408114E3,2.3E1,2.288E1,3.9E1,3.97E1,2.96E1,3E0,2E0,4E0,3E1,2.8595E1,2.375E1,8.964095E2,-6.227369E2,2.5E1,3.4E1,3.7E1,3.2E1,4E0,3E1,3.4E1,4.5E1,4.5E1,4.5E1,3.146E1,1E0,3.663E1,1E0,9.297712E2,2.178E1,1.78E1,9.432671E2,2.992E1,3.8695624E2,6.3409247E2,-3.440859E2,-5.809613E2,5.541339E2,-2.6888943E2,-5.012036E2,-3.529316E2,-5.423705E2,-4.145776E2,-3.0022583E2,8.475098E0,-2.2947227E2,-4.0205753E2,-2.2116214E2,2.5824973E2,-3.0510922E2,-8.4761024E1,7.327487E2,6.3349346E1,-3.2907755E2,-2.2058064E2,-3.202795E2,2.0778992E1,3.2990818E1,-1.1591782E2,-9.526071E0,3.7194873E2,7.8944695E1,2.4065018E2,6.7398254E1,2.2727681E2,8.567174E2,3.3072922E2,2.8605185E2,5.567927E2],"split_indices":[4,0,2,3,0,0,0,0,5,2,0,2,0,0,0,0,2,0,2,2,5,3,3,0,2,2,0,0,0,0,0,0,3,0,0,0,0,0,2,1,2,3,0,2,2,0,2,0,0,0,0,0,0,0,0,0,0,0,0,0,0,0,0,0,0,0,0,0,0,0,0,0,0,0,0,0,0,0,0,0,0,0,0],"split_type":[0,0,0,0,0,0,0,0,0,0,0,0,0,0,0,0,0,0,0,0,0,0,0,0,0,0,0,0,0,0,0,0,0,0,0,0,0,0,0,0,0,0,0,0,0,0,0,0,0,0,0,0,0,0,0,0,0,0,0,0,0,0,0,0,0,0,0,0,0,0,0,0,0,0,0,0,0,0,0,0,0,0,0],"sum_hessian":[9.36E2,7.54E2,1.82E2,4.28E2,3.26E2,8.4E1,9.8E1,1.85E2,2.43E2,1.4E2,1.86E2,4.9E1,3.5E1,3E1,6.8E1,1.5E2,3.5E1,1.21E2,1.22E2,5.7E1,8.3E1,1.14E2,7.2E1,4E1,9E0,2.7E1,8E0,8.9E1,6.1E1,2E0,3.3E1,9.9E1,2.2E1,1.17E2,5E0,5.4E1,3E0,6.4E1,1.9E1,8.1E1,3.3E1,7.1E1,1E0,2E1,2E1,1E0,8E0,8E0,1.9E1,1.8E1,4.3E1,1E0,1E0,1.3E1,2E1,6.4E1,3.5E1,2E1,2E0,4.5E1,7.2E1,1E0,4E0,1E1,4.4E1,1E0,2E0,1.5E1,4.9E1,3E0,1.6E1,3.6E1,4.5E1,2.3E1,1E1,4.5E1,2.6E1,6E0,1.4E1,1E0,1.9E1,6E0,2E0],"tree_param":{"num_deleted":"0","num_feature":"6","num_nodes":"83","size_leaf_vector":"1"}},{"base_weights":[2.4489534E1,-2.4894348E3,1.0396011E4,-4.152993E3,-2.993556E2,4.4381553E3,1.5296649E4,-4.653278E3,-3.1090847E3,-1.4544424E3,5.7319305E2,3.1183333E3,6.111298E3,1.3247833E4,1.7603147E3,-5.315766E3,-3.8300662E3,-3.8794114E3,-2.3890718E3,-8.487569E2,-1.855339E3,-1.7036964E1,1.4951555E3,1.7771049E3,3.60405E3,4.7832397E3,7.3142305E3,1.1123336E3,1.4670853E3,-5.8846543E3,-4.932654E3,-3.9850134E3,8.79974E1,-4.42266E3,-1.7013047E3,-5.644525E2,-2.945601E3,-1.1804347E3,3.924002E3,-2.2645862E3,-4.3251913E2,-1.9987463E2,2.332471E2,1.2705653E3,8.8328265E2,2.5109669E1,1.9925603E3,2.6223455E3,4.292731E3,2.7248386E2,5.4707806E2,3.7034088E2,7.823449E2,-3.8280225E2,-6.091878E2,-3.191489E2,-5.2508264E2,-4.4226743E2,-3.438976E2,-2.6747647E2,6.950904E2,1.3609937E2,-4.560057E2,-7.7297935E1,-2.964963E2,-4.3227853E2,1.5026845E2,-3.088123E2,6.966717E1,-2.5418468E2,-6.0635902E1,6.961113E2,5.9126045E1,-2.4344234E2,-1.3116026E2,5.342944E1,-2.3043578E2,4.8119968E2,4.776466E0,7.1221886E1,2.1747643E2,2.06835E2,5.4154053E1,1.8812256E1,2.7627267E2,3.6001858E1,4.491214E2],"categories":[],"categories_nodes":[],"categories_segments":[],"categories_sizes":[],"default_left":[0,0,0,0,0,0,0,0,0,0,0,0,0,0,0,0,0,0,0,0,0,0,0,0,0,0,0,0,0,0,0,0,0,0,0,0,0,0,0,0,0,0,0,0,0,0,0,0,0,0,0,0,0,0,0,0,0,0,0,0,0,0,0,0,0,0,0,0,0,0,0,0,0,0,0,0,0,0,0,0,0,0,0,0,0,0,0],"id":6,"left_children":[1,3,5,7,9,11,13,15,17,19,21,23,25,27,-1,29,31,33,35,37,39,41,43,45,47,49,51,-1,-1,53,55,57,59,61,63,65,67,69,71,73,75,-1,77,79,-1,-1,81,83,85,-1,-1,-1,-1,-1,-1,-1,-1,-1,-1,-1,-1,-1,-1,-1,-1,-1,-1,-1,-1,-1,-1,-1,-1,-1,-1,-1,-1,-1,-1,-1,-1,-1,-1,-1,-1,-1,-1],"loss_changes":[2.4456489E10,2.7494671E9,5.275216E9,2.095785E8,3.3040698E8,1.664361E8,2.3935795E8,1.3670605E8,6.949133E7,3.2662496E7,1.0178525E8,2.551664E7,2.2526592E7,9.13408E6,0E0,5.190656E6,8.048704E7,7.175366E7,7.551184E7,9.644708E7,4.793248E7,5.7505084E7,1.0907906E8,4.431472E6,1.2405792E7,1.3397664E7,2.284416E6,0E0,0E0,1.398784E6,3.864115E7,1.5140992E7,1.32355496E8,4.832301E7,1.5304436E7,1.5410658E8,3.2259424E7,4.144416E7,3.6371804E7,7.327424E6,3.7425584E7,0E0,8.724576E7,3.4800744E7,0E0,0E0,3.09548E5,5.289504E6,1.3214048E7,0E0,0E0,0E0,0E0,0E0,0E0,0E0,0E0,0E0,0E0,0E0,0E0,0E0,0E0,0E0,0E0,0E0,0E0,0E0,0E0,0E0,0E0,0E0,0E0,0E0,0E0,0E0,0E0,0E0,0E0,0E0,0E0,0E0,0E0,0E0,0E0,0E0,0E0],"parents":[2147483647,0,0,1,1,2,2,3,3,4,4,5,5,6,6,7,7,8,8,9,9,10,10,11,11,12,12,13,13,15,15,16,16,17,17,18,18,19,19,20,20,21,21,22,22,23,23,24,24,25,25,26,26,29,29,30,30,31,31,32,32,33,33,34,34,35,35,36,36,37,37,38,38,39,39,40,40,42,42,43,43,46,46,47,47,48,48],"right_children":[2,4,6,8,10,12,14,16,18,20,22,24,26,28,-1,30,32,34,36,38,40,42,44,46,48,50,52,-1,-1,54,56,58,60,62,64,66,68,70,72,74,76,-1,78,80,-1,-1,82,84,86,-1,-1,-1,-1,-1,-1,-1,-1,-1,-1,-1,-1,-1,-1,-1,-1,-1,-1,-1,-1,-1,-1,-1,-1,-1,-1,-1,-1,-1,-1,-1,-1,-1,-1,-1,-1,-1,-1],"split_conditions":[1E0,4.3E1,3.002E1,2E0,5.2E1,4.1E1,4.4E1,2.7E1,2E0,2.98E1,5.9E1,2.2E1,2.59E1,3.496E1,1.7603147E3,2.679E1,4.142E1,3.9E1,2.6E1,2.96E1,3E0,2.3845E1,4E0,2.178E1,2E0,4.8E1,1E0,1.1123336E3,1.4670853E3,1.9095E1,1E0,2E0,2E0,2.185E1,3.4105E1,2.3845E1,3.762E1,2.41E1,4.5E1,3E0,3.652E1,-1.9987463E2,2.4985E1,1E0,8.8328265E2,2.5109669E1,3E0,1.957E1,1.729E1,2.7248386E2,5.4707806E2,3.7034088E2,7.823449E2,-3.8280225E2,-6.091878E2,-3.191489E2,-5.2508264E2,-4.4226743E2,-3.438976E2,-2.6747647E2,6.950904E2,1.3609937E2,-4.560057E2,-7.7297935E1,-2.964963E2,-4.3227853E2,1.5026845E2,-3.088123E2,6.966717E1,-2.5418468E2,-6.0635902E1,6.961113E2,5.9126045E1,-2.4344234E2,-1.3116026E2,5.342944E1,-2.3043578E2,4.8119968E2,4.776466E0,7.1221886E1,2.1747643E2,2.06835E2,5.4154053E1,1.8812256E1,2.7627267E2,3.6001858E1,4.491214E2],"split_indices":[4,0,2,3,0,0,0,0,5,2,0,0,2,2,0,2,2,0,0,2,5,2,3,2,5,0,5,0,0,2,5,5,5,2,2,2,2,2,0,3,2,0,2,3,0,0,5,2,2,0,0,0,0,0,0,0,0,0,0,0,0,0,0,0,0,0,0,0,0,0,0,0,0,0,0,0,0,0,0,0,0,0,0,0,0,0,0],"split_type":[0,0,0,0,0,0,0,0,0,0,0,0,0,0,0,0,0,0,0,0,0,0,0,0,0,0,0,0,0,0,0,0,0,0,0,0,0,0,0,0,0,0,0,0,0,0,0,0,0,0,0,0,0,0,0,0,0,0,0,0,0,0,0,0,0,0,0,0,0,0,0,0,0,0,0,0,0,0,0,0,0,0,0,0,0,0,0],"sum_hessian":[9.36E2,7.54E2,1.82E2,4.28E2,3.26E2,8.3E1,9.9E1,2.87E2,1.41E2,1.4E2,1.86E2,4.8E1,3.5E1,5.6E1,4.3E1,1.56E2,1.31E2,6.6E1,7.5E1,5.7E1,8.3E1,1.14E2,7.2E1,1.4E1,3.4E1,1.9E1,1.6E1,2.6E1,3E1,5.7E1,9.9E1,1.26E2,5E0,5.2E1,1.4E1,1.8E1,5.7E1,5.4E1,3E0,6.4E1,1.9E1,1.2E1,1.02E2,7.1E1,1E0,2E0,1.2E1,1.6E1,1.8E1,6E0,1.3E1,3E0,1.3E1,7E0,5E1,1.7E1,8.2E1,6.6E1,6E1,4E0,1E0,1E0,5.1E1,9E0,5E0,6E0,1.2E1,5.5E1,2E0,1.5E1,3.9E1,1E0,2E0,5.3E1,1.1E1,1.3E1,6E0,3E0,9.9E1,4.5E1,2.6E1,1.1E1,1E0,1E0,1.5E1,1E0,1.7E1],"tree_param":{"num_deleted":"0","num_feature":"6","num_nodes":"87","size_leaf_vector":"1"}},{"base_weights":[2.7713522E1,-2.2432234E3,9.396729E3,-3.6359072E3,-1.0710391E2,4.030513E3,1.3810382E4,-4.158365E3,-2.6110933E3,-5.78977E2,1.3616946E3,2.7083225E3,5.4172144E3,1.0788483E3,1.5011693E3,-4.7958853E3,-3.4394067E3,-3.3683738E3,-1.8953447E3,-1.4628627E3,-1.5895998E2,1.1475186E3,8.3911847E2,5.5041816E3,2.4502783E3,4.6553506E3,7.524149E2,-5.313292E2,-4.4478306E3,-3.5686914E3,1.5046663E2,-3.98643E3,-1.7977067E3,-2.072475E3,2.1210967E3,3.2595877E2,-1.9707065E3,-7.825922E2,1.3357902E3,1.5528564E3,1.5571165E2,3.420176E1,7.914255E2,3.6873962E2,2.8447793E3,3.1776636E2,5.095417E3,-2.8900708E2,-4.73207E2,-3.7617972E2,-2.7994034E2,-2.4607835E2,6.603359E2,1.2929439E2,-4.1128207E2,-2.2296785E2,8.115791E1,-5.2285004E1,-2.5139331E2,-1.5805762E2,6.613058E2,-1.5118633E2,9.406416E2,-3.0452036E2,-1.6475615E2,-1.8164434E0,-1.3963431E2,-3.283215E1,3.5155515E2,7.886907E1,6.243513E2,1.7845128E2,-9.639409E0,2.9992433E0,5.6598946E1,2.4154222E2,4.5889948E2,2.6312595E2,5.4757E2],"categories":[],"categories_nodes":[],"categories_segments":[],"categories_sizes":[],"default_left":[0,0,0,0,0,0,0,0,0,0,0,0,0,0,0,0,0,0,0,0,0,0,0,0,0,0,0,0,0,0,0,0,0,0,0,0,0,0,0,0,0,0,0,0,0,0,0,0,0,0,0,0,0,0,0,0,0,0,0,0,0,0,0,0,0,0,0,0,0,0,0,0,0,0,0,0,0,0,0],"id":7,"left_children":[1,3,5,7,9,11,13,15,17,19,21,23,25,-1,-1,27,29,31,33,35,37,39,-1,41,43,45,-1,-1,47,49,51,53,55,57,59,61,63,65,67,69,71,-1,-1,73,75,-1,77,-1,-1,-1,-1,-1,-1,-1,-1,-1,-1,-1,-1,-1,-1,-1,-1,-1,-1,-1,-1,-1,-1,-1,-1,-1,-1,-1,-1,-1,-1,-1,-1],"loss_changes":[1.9957107E10,2.2456893E9,4.2786212E9,2.338304E8,2.0802123E8,1.3934093E8,2.0106854E8,1.2146893E8,7.871328E7,8.4040536E7,1.0027597E8,1.8978688E7,2.9180416E7,0E0,0E0,4.640768E6,6.78336E7,6.564064E7,6.3444896E7,6.695864E7,1.4553242E8,2.8703432E7,0E0,3.4616776E7,3.4261264E7,4.617472E6,0E0,0E0,3.0601728E7,1.0266752E7,1.1735012E8,4.0682624E7,2.7733728E7,5.341315E7,7.696352E7,2.979217E8,1.4774288E7,5.1583136E7,1.6801307E8,1.7788218E8,9.205878E6,0E0,0E0,5.1756712E5,1.5875744E7,0E0,7.144704E6,0E0,0E0,0E0,0E0,0E0,0E0,0E0,0E0,0E0,0E0,0E0,0E0,0E0,0E0,0E0,0E0,0E0,0E0,0E0,0E0,0E0,0E0,0E0,0E0,0E0,0E0,0E0,0E0,0E0,0E0,0E0,0E0],"parents":[2147483647,0,0,1,1,2,2,3,3,4,4,5,5,6,6,7,7,8,8,9,9,10,10,11,11,12,12,15,15,16,16,17,17,18,18,19,19,20,20,21,21,23,23,24,24,25,25,28,28,29,29,30,30,31,31,32,32,33,33,34,34,35,35,36,36,37,37,38,38,39,39,40,40,43,43,44,44,46,46],"right_children":[2,4,6,8,10,12,14,16,18,20,22,24,26,-1,-1,28,30,32,34,36,38,40,-1,42,44,46,-1,-1,48,50,52,54,56,58,60,62,64,66,68,70,72,-1,-1,74,76,-1,78,-1,-1,-1,-1,-1,-1,-1,-1,-1,-1,-1,-1,-1,-1,-1,-1,-1,-1,-1,-1,-1,-1,-1,-1,-1,-1,-1,-1,-1,-1,-1,-1],"split_conditions":[1E0,4.5E1,3.002E1,2E0,5.9E1,3.9E1,2.8E1,2.7E1,2E0,5E1,4E0,1.78E1,5.7E1,1.0788483E3,1.5011693E3,2.679E1,4.142E1,3.9E1,4.4E1,2.77E1,2E0,3.663E1,8.3911847E2,2.7E1,2.178E1,2.375E1,7.524149E2,-5.313292E2,1E0,3E0,2E0,2.185E1,4E0,2.6E1,2.222E1,2.755E1,2.96E1,1E0,2E0,3.458E1,6E1,3.420176E1,7.914255E2,2.5E1,3E0,3.1776636E2,1E0,-2.8900708E2,-4.73207E2,-3.7617972E2,-2.7994034E2,-2.4607835E2,6.603359E2,1.2929439E2,-4.1128207E2,-2.2296785E2,8.115791E1,-5.2285004E1,-2.5139331E2,-1.5805762E2,6.613058E2,-1.5118633E2,9.406416E2,-3.0452036E2,-1.6475615E2,-1.8164434E0,-1.3963431E2,-3.283215E1,3.5155515E2,7.886907E1,6.243513E2,1.7845128E2,-9.639409E0,2.9992433E0,5.6598946E1,2.4154222E2,4.5889948E2,2.6312595E2,5.4757E2],"split_indices":[4,0,2,3,0,0,0,0,5,0,3,2,0,0,0,2,2,0,0,2,3,2,0,0,2,2,0,0,5,5,5,2,3,0,2,2,2,1,5,2,0,0,0,0,5,0,3,0,0,0,0,0,0,0,0,0,0,0,0,0,0,0,0,0,0,0,0,0,0,0,0,0,0,0,0,0,0,0,0],"split_type":[0,0,0,0,0,0,0,0,0,0,0,0,0,0,0,0,0,0,0,0,0,0,0,0,0,0,0,0,0,0,0,0,0,0,0,0,0,0,0,0,0,0,0,0,0,0,0,0,0,0,0,0,0,0,0,0,0,0,0,0,0,0,0,0,0,0,0,0,0,0,0,0,0,0,0,0,0,0,0],"sum_hessian":[9.36E2,7.54E2,1.82E2,4.56E2,2.98E2,8.3E1,9.9E1,3E2,1.56E2,2.26E2,7.2E1,4.4E1,3.9E1,3.1E1,6.8E1,1.56E2,1.44E2,7.4E1,8.2E1,7.2E1,1.54E2,7.1E1,1E0,2E0,4.2E1,3.1E1,8E0,5.7E1,9.9E1,1.39E2,5E0,5.2E1,2.2E1,7.9E1,3E0,1.6E1,5.6E1,1.09E2,4.5E1,5E1,2.1E1,1E0,1E0,7E0,3.5E1,9E0,2.2E1,1.7E1,8.2E1,1.08E2,3.1E1,4E0,1E0,1E0,5.1E1,1.9E1,3E0,1.8E1,6.1E1,2E0,1E0,1.4E1,2E0,1.1E1,4.5E1,4.9E1,6E1,2.6E1,1.9E1,4.4E1,6E0,2E0,1.9E1,3E0,4E0,3E1,5E0,4E0,1.8E1],"tree_param":{"num_deleted":"0","num_feature":"6","num_nodes":"79","size_leaf_vector":"1"}},{"base_weights":[3.1874449E1,-2.0183064E3,8.490097E3,-3.3781365E3,-2.2813701E2,3.66873E3,1.2455144E4,-4.332247E3,-2.9625593E3,-1.1797806E3,4.9063245E2,2.5718884E3,5.059744E3,1.0723152E4,1.4415787E3,-5.118737E2,-3.796369E3,-3.061832E3,-9.966937E2,-6.633826E2,-1.5222961E3,4.100516E2,5.2962417E3,1.4492151E3,3.0245615E3,3.9113618E3,6.11315E3,8.973664E2,1.2102878E3,4.3224347E2,-3.953853E3,-2.1687366E3,-3.3084211E3,-1.9757002E3,1.5522605E3,-9.6410986E2,3.6374624E3,-1.8805781E3,-2.8176505E2,-1.3759181E3,5.989647E2,-2.7262695E0,7.9716254E2,2.3235775E1,1.6064548E3,2.1385278E3,3.6933398E3,1.4678398E2,4.256228E2,3.0149747E2,6.5616895E2,-4.3310617E2,-2.5347176E2,1.9115329E2,-2.540618E2,-3.7429022E2,-2.2844652E2,-2.528022E2,5.239393E1,-1.6857484E2,4.272849E2,-5.7438465E1,-2.660435E2,6.282404E2,6.616804E1,-1.9483678E2,-3.596958E1,-2.8790912E2,3.4594494E1,-1.8115416E2,-2.0274755E1,4.005492E2,3.8095066E1,1.6861801E2,2.8501368E1,1.5041699E1,2.2533838E2,3.249165E1,3.8723697E2],"categories":[],"categories_nodes":[],"categories_segments":[],"categories_sizes":[],"default_left":[0,0,0,0,0,0,0,0,0,0,0,0,0,0,0,0,0,0,0,0,0,0,0,0,0,0,0,0,0,0,0,0,0,0,0,0,0,0,0,0,0,0,0,0,0,0,0,0,0,0,0,0,0,0,0,0,0,0,0,0,0,0,0,0,0,0,0,0,0,0,0,0,0,0,0,0,0,0,0],"id":8,"left_children":[1,3,5,7,9,11,13,15,17,19,21,23,25,27,-1,-1,29,31,33,35,37,39,41,43,45,47,49,-1,-1,-1,51,53,55,57,59,61,63,65,67,69,71,-1,-1,-1,73,75,77,-1,-1,-1,-1,-1,-1,-1,-1,-1,-1,-1,-1,-1,-1,-1,-1,-1,-1,-1,-1,-1,-1,-1,-1,-1,-1,-1,-1,-1,-1,-1,-1],"loss_changes":[1.6265544E10,1.8371456E9,3.4527068E9,1.5726643E8,2.2425091E8,1.1514752E8,1.8499891E8,3.451469E7,5.588557E7,2.3929408E7,7.024217E7,2.051872E7,1.9638912E7,2.8979712E7,0E0,0E0,1.1937677E8,5.603021E7,4.299388E7,7.852302E7,3.6804736E7,6.324185E7,4.2944576E7,2.688148E6,1.2248704E7,1.0606336E7,3.840704E6,0E0,0E0,0E0,3.1311616E7,1.0348589E8,9.065958E7,1.7891796E7,5.1249404E7,3.483242E7,2.732614E7,6.000672E6,3.360335E7,8.831808E6,1.2324281E8,0E0,0E0,0E0,9.9434E5,3.542936E6,9.596672E6,0E0,0E0,0E0,0E0,0E0,0E0,0E0,0E0,0E0,0E0,0E0,0E0,0E0,0E0,0E0,0E0,0E0,0E0,0E0,0E0,0E0,0E0,0E0,0E0,0E0,0E0,0E0,0E0,0E0,0E0,0E0,0E0],"parents":[2147483647,0,0,1,1,2,2,3,3,4,4,5,5,6,6,7,7,8,8,9,9,10,10,11,11,12,12,13,13,16,16,17,17,18,18,19,19,20,20,21,21,22,22,23,23,24,24,25,25,26,26,30,30,31,31,32,32,33,33,34,34,35,35,36,36,37,37,38,38,39,39,40,40,44,44,45,45,46,46],"right_children":[2,4,6,8,10,12,14,16,18,20,22,24,26,28,-1,-1,30,32,34,36,38,40,42,44,46,48,50,-1,-1,-1,52,54,56,58,60,62,64,66,68,70,72,-1,-1,-1,74,76,78,-1,-1,-1,-1,-1,-1,-1,-1,-1,-1,-1,-1,-1,-1,-1,-1,-1,-1,-1,-1,-1,-1,-1,-1,-1,-1,-1,-1,-1,-1,-1,-1],"split_conditions":[1E0,4.3E1,3.002E1,2.3E1,5.2E1,4.1E1,4.4E1,2.717E1,4E0,2.98E1,4E0,2.4E1,2.59E1,3.53E1,1.4415787E3,-5.118737E2,2.736E1,2.508E1,3E0,2.96E1,3E0,2.3845E1,5.8E1,2.178E1,2E0,4.4E1,1E0,8.973664E2,1.2102878E3,4.3224347E2,1E0,2.4E1,3.7E1,4E1,2.97E1,2.8E1,4.5E1,4E0,3.146E1,5.9E1,2.5175E1,-2.7262695E0,7.9716254E2,2.3235775E1,3E0,1.957E1,1.729E1,1.4678398E2,4.256228E2,3.0149747E2,6.5616895E2,-4.3310617E2,-2.5347176E2,1.9115329E2,-2.540618E2,-3.7429022E2,-2.2844652E2,-2.528022E2,5.239393E1,-1.6857484E2,4.272849E2,-5.7438465E1,-2.660435E2,6.282404E2,6.616804E1,-1.9483678E2,-3.596958E1,-2.8790912E2,3.4594494E1,-1.8115416E2,-2.0274755E1,4.005492E2,3.8095066E1,1.6861801E2,2.8501368E1,1.5041699E1,2.2533838E2,3.249165E1,3.8723697E2],"split_indices":[4,0,2,0,0,0,0,2,3,2,3,0,2,2,0,0,2,2,5,2,5,2,0,2,5,0,5,0,0,0,3,0,0,0,2,2,0,3,2,0,2,0,0,0,5,2,2,0,0,0,0,0,0,0,0,0,0,0,0,0,0,0,0,0,0,0,0,0,0,0,0,0,0,0,0,0,0,0,0],"split_type":[0,0,0,0,0,0,0,0,0,0,0,0,0,0,0,0,0,0,0,0,0,0,0,0,0,0,0,0,0,0,0,0,0,0,0,0,0,0,0,0,0,0,0,0,0,0,0,0,0,0,0,0,0,0,0,0,0,0,0,0,0,0,0,0,0,0,0,0,0,0,0,0,0,0,0,0,0,0,0],"sum_hessian":[9.36E2,7.54E2,1.82E2,4.28E2,3.26E2,8.3E1,9.9E1,1.27E2,3.01E2,1.4E2,1.86E2,4.8E1,3.5E1,5.6E1,4.3E1,4.8E1,7.9E1,2.86E2,1.5E1,5.7E1,8.3E1,1.84E2,2E0,1.5E1,3.3E1,1.9E1,1.6E1,2.8E1,2.8E1,1E0,7.8E1,6.4E1,2.22E2,1.1E1,4E0,5.4E1,3E0,6.4E1,1.9E1,1.7E1,1.67E2,1E0,1E0,2E0,1.3E1,1.6E1,1.7E1,3E0,1.6E1,3E0,1.3E1,6E1,1.8E1,5E0,5.9E1,1.54E2,6.8E1,9E0,2E0,2E0,2E0,4.5E1,9E0,1E0,2E0,6.1E1,3E0,3E0,1.6E1,1.2E1,5E0,9E0,1.58E2,1.2E1,1E0,1E0,1.5E1,1E0,1.6E1],"tree_param":{"num_deleted":"0","num_feature":"6","num_nodes":"79","size_leaf_vector":"1"}},{"base_weights":[3.4561817E1,-1.8170785E3,7.6736543E3,-2.9559307E3,-7.034762E1,3.3771997E3,1.1285018E4,-3.398064E3,-2.0894465E3,-4.7058878E2,1.1752017E3,2.4319243E3,4.5962715E3,9.730534E3,1.3006973E3,-3.898204E3,-2.770902E3,-2.7458596E3,-1.4711279E3,-1.9182275E3,-2.9797153E2,9.811615E2,7.573044E2,1.9698533E3,4.0832231E3,3.8770002E3,6.323307E2,8.136233E2,1.0934325E3,-4.289648E3,-3.3461152E3,-2.897122E3,4.677565E2,-3.3543767E3,-1.6046215E3,-3.7535333E2,-1.1428147E3,-2.1503905E2,-1.0472051E2,3.0175369E3,-5.0257324E2,4.9420343E2,1.7744545E3,5.089063E3,1.679405E3,8.313408E2,2.6894905E3,2.335295E2,4.2796973E3,-4.7526324E2,-3.4604654E2,-3.8960986E2,-1.1432932E2,-1.4606314E2,-3.111124E2,-1.9936577E2,6.387414E2,1.4842339E2,-3.4889053E2,-1.9264641E2,2.6114729E1,1.1005824E2,-1.6846172E2,5.561515E2,-1.6563347E2,-1.06832054E2,6.8355193E0,1.507899E2,-2.1131155E1,7.115627E2,1.2953468E2,3.086709E1,7.324924E2,1.3800806E1,2.0122728E2,9.728343E1,3.0409875E2,8.837504E2,3.609932E2],"categories":[],"categories_nodes":[],"categories_segments":[],"categories_sizes":[],"default_left":[0,0,0,0,0,0,0,0,0,0,0,0,0,0,0,0,0,0,0,0,0,0,0,0,0,0,0,0,0,0,0,0,0,0,0,0,0,0,0,0,0,0,0,0,0,0,0,0,0,0,0,0,0,0,0,0,0,0,0,0,0,0,0,0,0,0,0,0,0,0,0,0,0,0,0,0,0,0,0],"id":9,"left_children":[1,3,5,7,9,11,13,15,17,19,21,23,25,27,-1,29,31,33,35,37,39,41,-1,43,45,47,-1,-1,-1,49,51,53,55,57,59,-1,61,-1,-1,63,65,67,69,71,73,-1,75,-1,77,-1,-1,-1,-1,-1,-1,-1,-1,-1,-1,-1,-1,-1,-1,-1,-1,-1,-1,-1,-1,-1,-1,-1,-1,-1,-1,-1,-1,-1,-1],"loss_changes":[1.326767E10,1.5016896E9,2.801327E9,1.6797722E8,1.4961056E8,8.677267E7,1.3843354E8,8.361267E7,5.968243E7,5.6152864E7,8.3194584E7,3.010752E7,2.0203968E7,1.8510848E7,0E0,2.1304832E7,5.735853E7,4.670221E7,5.790595E7,2.601368E6,1.399017E8,2.6936688E7,0E0,2.8598128E7,3.6598624E7,7.389184E6,0E0,0E0,0E0,1.9256192E7,8.398624E7,3.603405E7,1.0015868E8,3.642304E7,1.731664E7,0E0,9.1799416E7,0E0,0E0,1.5189443E8,6.2412256E7,3.32168E7,5.9875696E7,2.980388E7,1.9732464E7,0E0,2.472216E6,0E0,3.2203104E7,0E0,0E0,0E0,0E0,0E0,0E0,0E0,0E0,0E0,0E0,0E0,0E0,0E0,0E0,0E0,0E0,0E0,0E0,0E0,0E0,0E0,0E0,0E0,0E0,0E0,0E0,0E0,0E0,0E0,0E0],"parents":[2147483647,0,0,1,1,2,2,3,3,4,4,5,5,6,6,7,7,8,8,9,9,10,10,11,11,12,12,13,13,15,15,16,16,17,17,18,18,19,19,20,20,21,21,23,23,24,24,25,25,29,29,30,30,31,31,32,32,33,33,34,34,36,36,39,39,40,40,41,41,42,42,43,43,44,44,46,46,48,48],"right_children":[2,4,6,8,10,12,14,16,18,20,22,24,26,28,-1,30,32,34,36,38,40,42,-1,44,46,48,-1,-1,-1,50,52,54,56,58,60,-1,62,-1,-1,64,66,68,70,72,74,-1,76,-1,78,-1,-1,-1,-1,-1,-1,-1,-1,-1,-1,-1,-1,-1,-1,-1,-1,-1,-1,-1,-1,-1,-1,-1,-1,-1,-1,-1,-1,-1,-1],"split_conditions":[1E0,4.5E1,3.021E1,2E0,5.9E1,4.1E1,4.4E1,2.8E1,2E0,2.3845E1,4E0,2.8405E1,5.7E1,3.53E1,1.3006973E3,3.01E1,4.142E1,3.6E1,2.147E1,5.7E1,2.546E1,1E0,7.573044E2,1.78E1,2.8595E1,1E0,6.323307E2,8.136233E2,1.0934325E3,2.3E1,3E0,2.4415E1,2E0,2.185E1,4E0,-3.7535333E2,2.6E1,-2.1503905E2,-1.0472051E2,3E0,5.2E1,2.86E1,2.486E1,2.7E1,2.178E1,8.313408E2,2.5E1,2.335295E2,4.3E1,-4.7526324E2,-3.4604654E2,-3.8960986E2,-1.1432932E2,-1.4606314E2,-3.111124E2,-1.9936577E2,6.387414E2,1.4842339E2,-3.4889053E2,-1.9264641E2,2.6114729E1,1.1005824E2,-1.6846172E2,5.561515E2,-1.6563347E2,-1.06832054E2,6.8355193E0,1.507899E2,-2.1131155E1,7.115627E2,1.2953468E2,3.086709E1,7.324924E2,1.3800806E1,2.0122728E2,9.728343E1,3.0409875E2,8.837504E2,3.609932E2],"split_indices":[4,0,2,3,0,0,0,0,5,2,3,2,0,2,0,2,2,0,2,0,2,3,0,2,2,3,0,0,0,0,5,2,5,2,3,0,0,0,0,5,0,2,2,0,2,0,0,0,0,0,0,0,0,0,0,0,0,0,0,0,0,0,0,0,0,0,0,0,0,0,0,0,0,0,0,0,0,0,0],"split_type":[0,0,0,0,0,0,0,0,0,0,0,0,0,0,0,0,0,0,0,0,0,0,0,0,0,0,0,0,0,0,0,0,0,0,0,0,0,0,0,0,0,0,0,0,0,0,0,0,0,0,0,0,0,0,0,0,0,0,0,0,0,0,0,0,0,0,0,0,0,0,0,0,0,0,0,0,0,0,0],"sum_hessian":[9.36E2,7.54E2,1.82E2,4.56E2,2.98E2,8.4E1,9.8E1,3E2,1.56E2,2.26E2,7.2E1,4.9E1,3.5E1,5.5E1,4.3E1,1.64E2,1.36E2,7.4E1,8.2E1,2.3E1,2.03E2,7.1E1,1E0,4E1,9E0,2.7E1,8E0,2.7E1,2.8E1,9.2E1,7.2E1,1.31E2,5E0,4.7E1,2.7E1,9E0,7.3E1,1.7E1,6E0,1.1E1,1.92E2,4.5E1,2.6E1,2E0,3.8E1,1E0,8E0,7E0,2E1,5.6E1,3.6E1,5.7E1,1.5E1,1.8E1,1.13E2,4E0,1E0,1E0,4.6E1,2.3E1,4E0,1.4E1,5.9E1,7E0,4E0,9.6E1,9.6E1,1.8E1,2.7E1,1E0,2.5E1,1E0,1E0,7E0,3.1E1,2E0,6E0,1E0,1.9E1],"tree_param":{"num_deleted":"0","num_feature":"6","num_nodes":"79","size_leaf_vector":"1"}},{"base_weights":[3.8666416E1,-1.6359601E3,6.9474336E3,-2.748895E3,-1.708683E2,3.0438826E3,1.0156942E4,-3.5427312E3,-2.4033323E3,-5.286773E2,1.0813531E3,2.0453215E3,4.0911665E3,9.1198955E3,1.2497924E3,-4.1923126E2,-3.1005784E3,-2.4887092E3,-7.2167737E2,-1.1629147E3,-1.1198924E2,8.965278E2,7.1943915E2,4.83461E3,1.8031544E3,3.4936106E3,5.761236E2,6.674882E2,9.491457E2,4.051284E2,-3.2423904E3,-1.7272999E3,-2.6994844E3,-1.5988373E3,1.527842E3,-6.5088074E2,-1.6721718E3,-6.766446E2,1.2407081E3,4.4760153E2,1.6281603E3,2.932373E1,6.958678E2,1.1584269E3,2.8187305E3,2.1309569E2,3.7899155E3,-2.719081E2,-4.3283456E2,-1.9578534E2,3.6900912E2,-3.0741714E2,-1.8186739E2,-2.0795425E2,5.3645947E1,-1.461057E2,4.0074603E2,1.19146706E2,-1.064197E2,-9.166593E1,-2.3343118E2,-1.2264218E0,-1.2101263E2,-2.4319162E1,3.1819376E2,1.3650453E2,-1.9093538E1,2.9166803E1,3.27447E2,1.2593238E1,1.4965948E2,1.9963338E2,4.786837E2,2.1634355E2,4.189676E2],"categories":[],"categories_nodes":[],"categories_segments":[],"categories_sizes":[],"default_left":[0,0,0,0,0,0,0,0,0,0,0,0,0,0,0,0,0,0,0,0,0,0,0,0,0,0,0,0,0,0,0,0,0,0,0,0,0,0,0,0,0,0,0,0,0,0,0,0,0,0,0,0,0,0,0,0,0,0,0,0,0,0,0,0,0,0,0,0,0,0,0,0,0,0,0],"id":10,"left_children":[1,3,5,7,9,11,13,15,17,19,21,23,25,27,-1,-1,29,31,33,35,37,39,-1,41,43,45,-1,-1,-1,-1,47,49,51,53,55,57,59,61,63,65,67,-1,-1,69,71,-1,73,-1,-1,-1,-1,-1,-1,-1,-1,-1,-1,-1,-1,-1,-1,-1,-1,-1,-1,-1,-1,-1,-1,-1,-1,-1,-1,-1,-1],"loss_changes":[1.0852086E10,1.2305967E9,2.2617948E9,1.091689E8,1.4708605E8,7.94775E7,1.2879155E8,2.3764736E7,4.156339E7,6.726096E7,7.60287E7,2.1678784E7,1.9790912E7,2.963968E6,0E0,0E0,9.427347E7,4.1396864E7,3.401378E7,2.5248064E7,1.1922975E8,2.2919568E7,0E0,2.6898008E7,2.4889808E7,4.844224E6,0E0,0E0,0E0,0E0,3.312576E7,8.840955E7,6.800525E7,1.3432972E7,4.2911776E7,4.086451E7,2.2872992E7,3.897298E7,1.3328094E8,2.7208436E7,5.8452504E7,0E0,0E0,9.587916E6,1.6340912E7,0E0,7.190944E6,0E0,0E0,0E0,0E0,0E0,0E0,0E0,0E0,0E0,0E0,0E0,0E0,0E0,0E0,0E0,0E0,0E0,0E0,0E0,0E0,0E0,0E0,0E0,0E0,0E0,0E0,0E0,0E0],"parents":[2147483647,0,0,1,1,2,2,3,3,4,4,5,5,6,6,7,7,8,8,9,9,10,10,11,11,12,12,13,13,16,16,17,17,18,18,19,19,20,20,21,21,23,23,24,24,25,25,30,30,31,31,32,32,33,33,34,34,35,35,36,36,37,37,38,38,39,39,40,40,43,43,44,44,46,46],"right_children":[2,4,6,8,10,12,14,16,18,20,22,24,26,28,-1,-1,30,32,34,36,38,40,-1,42,44,46,-1,-1,-1,-1,48,50,52,54,56,58,60,62,64,66,68,-1,-1,70,72,-1,74,-1,-1,-1,-1,-1,-1,-1,-1,-1,-1,-1,-1,-1,-1,-1,-1,-1,-1,-1,-1,-1,-1,-1,-1,-1,-1,-1,-1],"split_conditions":[1E0,4.3E1,3.002E1,2.3E1,5.9E1,3.9E1,5.1E1,2.717E1,4E0,5E1,4E0,1.78E1,5.7E1,2.1E1,1.2497924E3,-4.1923126E2,2.736E1,2.508E1,3E0,1E0,2E0,1E0,7.1943915E2,2.7E1,2.793E1,1E0,5.761236E2,6.674882E2,9.491457E2,4.051284E2,3.553E1,2.4985E1,3.7E1,4E1,2.97E1,2.77E1,2.98E1,1E0,2E0,2.86E1,3.37E1,2.932373E1,6.958678E2,2.178E1,3E0,2.1309569E2,2.375E1,-2.719081E2,-4.3283456E2,-1.9578534E2,3.6900912E2,-3.0741714E2,-1.8186739E2,-2.0795425E2,5.3645947E1,-1.461057E2,4.0074603E2,1.19146706E2,-1.064197E2,-9.166593E1,-2.3343118E2,-1.2264218E0,-1.2101263E2,-2.4319162E1,3.1819376E2,1.3650453E2,-1.9093538E1,2.9166803E1,3.27447E2,1.2593238E1,1.4965948E2,1.9963338E2,4.786837E2,2.1634355E2,4.189676E2],"split_indices":[4,0,2,0,0,0,0,2,3,0,3,2,0,0,0,0,2,2,5,1,3,3,0,0,2,3,0,0,0,0,2,2,0,0,2,2,2,1,5,2,2,0,0,2,5,0,2,0,0,0,0,0,0,0,0,0,0,0,0,0,0,0,0,0,0,0,0,0,0,0,0,0,0,0,0],"split_type":[0,0,0,0,0,0,0,0,0,0,0,0,0,0,0,0,0,0,0,0,0,0,0,0,0,0,0,0,0,0,0,0,0,0,0,0,0,0,0,0,0,0,0,0,0,0,0,0,0,0,0,0,0,0,0,0,0,0,0,0,0,0,0,0,0,0,0,0,0,0,0,0,0,0,0],"sum_hessian":[9.36E2,7.54E2,1.82E2,4.28E2,3.26E2,8.3E1,9.9E1,1.27E2,3.01E2,2.54E2,7.2E1,4.4E1,3.9E1,7.2E1,2.7E1,4.8E1,7.9E1,2.86E2,1.5E1,1E2,1.54E2,7.1E1,1E0,2E0,4.2E1,3.1E1,8E0,1.2E1,6E1,1E0,7.8E1,6.4E1,2.22E2,1.1E1,4E0,5.1E1,4.9E1,1.09E2,4.5E1,4.5E1,2.6E1,1E0,1E0,2.7E1,1.5E1,7E0,2.4E1,5.5E1,2.3E1,6.2E1,2E0,1.54E2,6.8E1,9E0,2E0,2E0,2E0,9E0,4.2E1,2.4E1,2.5E1,4.9E1,6E1,2.6E1,1.9E1,1.8E1,2.7E1,1.5E1,1.1E1,7E0,2E1,1.2E1,3E0,6E0,1.8E1],"tree_param":{"num_deleted":"0","num_feature":"6","num_nodes":"75","size_leaf_vector":"1"}},{"base_weights":[4.1176376E1,-1.4722076E3,6.284694E3,-2.4022998E3,-4.5704777E1,2.7750933E3,9.169912E3,-2.7788372E3,-1.665102E3,-3.7843213E2,9.895666E2,1.9498964E3,3.821192E3,7.028567E2,1.0030102E3,-3.1914397E3,-2.2616235E3,-2.2328809E3,-1.1319874E3,-1.7332734E3,-2.1718396E2,8.134586E2,6.834672E2,4.5928794E3,1.7397081E3,2.8823567E3,4.7009277E3,-3.7214333E3,-2.836284E3,-2.3794976E3,7.0854126E2,-2.662934E3,-1.1448073E3,-4.856119E2,-9.31631E2,-1.959065E2,-9.050562E1,2.6970479E3,-3.9725443E2,-8.128915E2,1.00111E3,2.785752E1,6.610744E2,1.0937384E3,2.6340984E3,1.4621088E2,3.3865982E2,8.1861456E2,3.9714675E3,-2.0058559E2,-3.900062E2,-2.9368625E2,3.872494E1,-6.584635E1,-2.5151688E2,-1.613341E2,6.1589764E2,1.6196378E2,-2.776438E2,-1.4879443E2,8.570801E1,1.1220696E2,-1.4228246E2,4.996027E2,-1.5207281E2,-8.68206E1,7.779256E0,-1.1265185E2,8.532618E0,4.0574274E2,5.622885E1,1.1491358E1,1.3999594E2,1.852838E2,4.0180228E2,1.927036E2,5.005423E2],"categories":[],"categories_nodes":[],"categories_segments":[],"categories_sizes":[],"default_left":[0,0,0,0,0,0,0,0,0,0,0,0,0,0,0,0,0,0,0,0,0,0,0,0,0,0,0,0,0,0,0,0,0,0,0,0,0,0,0,0,0,0,0,0,0,0,0,0,0,0,0,0,0,0,0,0,0,0,0,0,0,0,0,0,0,0,0,0,0,0,0,0,0,0,0,0,0],"id":11,"left_children":[1,3,5,7,9,11,13,15,17,19,21,23,25,-1,-1,27,29,31,33,35,37,39,-1,41,43,45,47,49,51,53,55,57,59,-1,61,-1,-1,63,65,67,69,-1,-1,71,73,-1,-1,-1,75,-1,-1,-1,-1,-1,-1,-1,-1,-1,-1,-1,-1,-1,-1,-1,-1,-1,-1,-1,-1,-1,-1,-1,-1,-1,-1,-1,-1],"loss_changes":[8.862816E9,1.0016083E9,1.8276035E9,1.2222822E8,1.0336894E8,6.506099E7,1.1369882E8,5.701683E7,4.499491E7,4.921526E7,6.958429E7,1.9230416E7,1.6183584E7,0E0,0E0,2.050304E7,4.965037E7,3.2046208E7,5.740664E7,2.715048E6,1.08123896E8,2.2787248E7,0E0,2.427546E7,2.4273184E7,9.371392E6,1.0708576E7,1.1483328E7,3.4531776E7,2.9165184E7,8.586815E7,3.0259552E7,1.7074488E7,0E0,8.229766E7,0E0,0E0,1.23956536E8,4.3246296E7,2.349763E6,8.48951E7,0E0,0E0,8.531488E6,1.3098136E7,0E0,0E0,0E0,2.4176E7,0E0,0E0,0E0,0E0,0E0,0E0,0E0,0E0,0E0,0E0,0E0,0E0,0E0,0E0,0E0,0E0,0E0,0E0,0E0,0E0,0E0,0E0,0E0,0E0,0E0,0E0,0E0,0E0],"parents":[2147483647,0,0,1,1,2,2,3,3,4,4,5,5,6,6,7,7,8,8,9,9,10,10,11,11,12,12,15,15,16,16,17,17,18,18,19,19,20,20,21,21,23,23,24,24,25,25,26,26,27,27,28,28,29,29,30,30,31,31,32,32,34,34,37,37,38,38,39,39,40,40,43,43,44,44,48,48],"right_children":[2,4,6,8,10,12,14,16,18,20,22,24,26,-1,-1,28,30,32,34,36,38,40,-1,42,44,46,48,50,52,54,56,58,60,-1,62,-1,-1,64,66,68,70,-1,-1,72,74,-1,-1,-1,76,-1,-1,-1,-1,-1,-1,-1,-1,-1,-1,-1,-1,-1,-1,-1,-1,-1,-1,-1,-1,-1,-1,-1,-1,-1,-1,-1,-1],"split_conditions":[1E0,4.5E1,3.002E1,2E0,5.9E1,4.1E1,2.8E1,2.8E1,2E0,2.3845E1,4E0,1.78E1,2.59E1,7.028567E2,1.0030102E3,2.679E1,4.142E1,3.9E1,1.9E1,5.7E1,2.546E1,2.4415E1,6.834672E2,2.7E1,2.793E1,4.8E1,4.3E1,1.9095E1,2.7E1,2.9E1,2E0,2.185E1,4E0,-4.856119E2,2.6E1,-1.959065E2,-9.050562E1,3E0,5.2E1,6.2E1,2.59E1,2.785752E1,6.610744E2,2.178E1,3E0,1.4621088E2,3.3865982E2,8.1861456E2,4.9E1,-2.0058559E2,-3.900062E2,-2.9368625E2,3.872494E1,-6.584635E1,-2.5151688E2,-1.613341E2,6.1589764E2,1.6196378E2,-2.776438E2,-1.4879443E2,8.570801E1,1.1220696E2,-1.4228246E2,4.996027E2,-1.5207281E2,-8.68206E1,7.779256E0,-1.1265185E2,8.532618E0,4.0574274E2,5.622885E1,1.1491358E1,1.3999594E2,1.852838E2,4.0180228E2,1.927036E2,5.005423E2],"split_indices":[4,0,2,3,0,0,0,0,5,2,3,2,2,0,0,2,2,0,0,0,2,2,0,0,2,0,0,2,0,0,5,2,3,0,0,0,0,5,0,0,2,0,0,2,5,0,0,0,0,0,0,0,0,0,0,0,0,0,0,0,0,0,0,0,0,0,0,0,0,0,0,0,0,0,0,0,0],"split_type":[0,0,0,0,0,0,0,0,0,0,0,0,0,0,0,0,0,0,0,0,0,0,0,0,0,0,0,0,0,0,0,0,0,0,0,0,0,0,0,0,0,0,0,0,0,0,0,0,0,0,0,0,0,0,0,0,0,0,0,0,0,0,0,0,0,0,0,0,0,0,0,0,0,0,0,0,0],"sum_hessian":[9.36E2,7.54E2,1.82E2,4.56E2,2.98E2,8.3E1,9.9E1,3E2,1.56E2,2.26E2,7.2E1,4.8E1,3.5E1,3.1E1,6.8E1,1.64E2,1.36E2,7.4E1,8.2E1,2.3E1,2.03E2,7.1E1,1E0,2E0,4.6E1,1.9E1,1.6E1,6.2E1,1.02E2,1.31E2,5E0,5.2E1,2.2E1,3E0,7.9E1,1.7E1,6E0,1.1E1,1.92E2,7E0,6.4E1,1E0,1E0,2.8E1,1.8E1,6E0,1.3E1,1E0,1.5E1,7E0,5.5E1,9.9E1,3E0,1E1,1.21E2,4E0,1E0,1E0,5.1E1,1.9E1,3E0,1.5E1,6.4E1,7E0,4E0,9.6E1,9.6E1,5E0,2E0,7E0,5.7E1,7E0,2.1E1,1.3E1,5E0,6E0,9E0],"tree_param":{"num_deleted":"0","num_feature":"6","num_nodes":"77","size_leaf_vector":"1"}},{"base_weights":[4.2128662E1,-1.3254894E3,5.6842573E3,-2.2357163E3,-1.2728524E2,2.5713015E3,8.29958E3,-2.910717E3,-1.9422201E3,-4.2226718E2,9.048748E2,1.8551459E3,3.494537E3,7.4553164E3,1.0500389E4,-3.49224E2,-2.5181504E3,-2.1232695E3,-1.3000786E3,-9.337253E2,-8.6270195E1,7.370831E2,6.492939E2,1.4861925E3,3.1823398E3,2.6183643E3,4.3197676E3,1.2698479E3,7.1377163E3,3.9476694E2,1.0898553E3,3.7926163E2,-2.6460413E3,-2.4032454E3,-1.4976772E3,-2.9994226E3,-3.852018E2,-4.743345E2,-1.3928173E3,-5.9566693E2,1.1337279E3,9.9147864E2,-2.9571857E2,4.363236E3,1.226774E3,7.457495E2,1.8787122E3,1.3367851E2,3.072128E2,7.776838E2,3.6176484E3,5.3668086E3,8.248424E2,-2.179336E2,-3.6247684E2,-7.903118E1,-2.6280194E2,-1.6368512E2,7.781286E1,-3.5472272E2,4.800042E2,4.8001266E2,-9.933313E1,1.17559364E2,-8.470077E1,-7.076211E1,-1.9980899E2,-4.933463E0,-1.2040889E2,-1.10884415E2,2.2546126E2,3.7310074E1,2.908302E2,-7.0163475E1,1.4716248E1,2.646465E1,6.280207E2,1.0485865E1,1.4689163E2,4.861774E1,2.2071252E2,2.1032442E2,4.8691476E2,2.6711548E2,5.560231E2],"categories":[],"categories_nodes":[],"categories_segments":[],"categories_sizes":[],"default_left":[0,0,0,0,0,0,0,0,0,0,0,0,0,0,0,0,0,0,0,0,0,0,0,0,0,0,0,0,0,0,0,0,0,0,0,0,0,0,0,0,0,0,0,0,0,0,0,0,0,0,0,0,0,0,0,0,0,0,0,0,0,0,0,0,0,0,0,0,0,0,0,0,0,0,0,0,0,0,0,0,0,0,0,0,0],"id":12,"left_children":[1,3,5,7,9,11,13,15,17,19,21,23,25,27,29,-1,31,33,35,37,39,41,-1,43,45,47,49,-1,51,-1,-1,-1,53,55,57,59,61,63,65,67,69,71,73,75,77,-1,79,-1,-1,-1,81,83,-1,-1,-1,-1,-1,-1,-1,-1,-1,-1,-1,-1,-1,-1,-1,-1,-1,-1,-1,-1,-1,-1,-1,-1,-1,-1,-1,-1,-1,-1,-1,-1,-1],"loss_changes":[7.2376863E9,8.2314675E8,1.4685327E9,7.933581E7,9.994333E7,4.9717504E7,1.05664E8,2.0426752E7,3.2349824E7,4.3740784E7,6.3661204E7,1.975408E7,1.471888E7,3.425357E7,2.2202624E7,0E0,7.460262E7,3.738605E7,1.0611825E8,2.0640496E7,9.70021E7,1.9210492E7,0E0,2.5247984E7,4.1721616E7,7.523904E6,1.3129792E7,0E0,9.932058E7,0E0,0E0,0E0,2.8185792E7,5.593037E7,2.502864E7,1.1956882E8,1.4982226E8,3.2969704E7,1.932264E7,3.6504652E7,1.1812859E8,6.7663544E7,2.799843E6,2.1908596E7,1.0440824E7,0E0,3.042886E6,0E0,0E0,0E0,2.0083392E7,1.311168E6,0E0,0E0,0E0,0E0,0E0,0E0,0E0,0E0,0E0,0E0,0E0,0E0,0E0,0E0,0E0,0E0,0E0,0E0,0E0,0E0,0E0,0E0,0E0,0E0,0E0,0E0,0E0,0E0,0E0,0E0,0E0,0E0,0E0],"parents":[2147483647,0,0,1,1,2,2,3,3,4,4,5,5,6,6,7,7,8,8,9,9,10,10,11,11,12,12,13,13,14,14,16,16,17,17,18,18,19,19,20,20,21,21,23,23,24,24,25,25,26,26,28,28,32,32,33,33,34,34,35,35,36,36,37,37,38,38,39,39,40,40,41,41,42,42,43,43,44,44,46,46,50,50,51,51],"right_children":[2,4,6,8,10,12,14,16,18,20,22,24,26,28,30,-1,32,34,36,38,40,42,-1,44,46,48,50,-1,52,-1,-1,-1,54,56,58,60,62,64,66,68,70,72,74,76,78,-1,80,-1,-1,-1,82,84,-1,-1,-1,-1,-1,-1,-1,-1,-1,-1,-1,-1,-1,-1,-1,-1,-1,-1,-1,-1,-1,-1,-1,-1,-1,-1,-1,-1,-1,-1,-1,-1,-1],"split_conditions":[1E0,4.3E1,3.021E1,2.3E1,5.9E1,4.1E1,5.2E1,2.717E1,3E0,5E1,4E0,2.8405E1,2.59E1,3.0495E1,3.0875E1,-3.49224E2,2.736E1,3.7E1,1E0,1E0,2E0,3.8E1,6.492939E2,1.78E1,2.8595E1,4.8E1,4.3E1,1.2698479E3,3.496E1,3.9476694E2,1.0898553E3,3.7926163E2,3.553E1,2.3655E1,4.081E1,3.487E1,2.6E1,2.77E1,2.98E1,3.14E1,1E0,3.458E1,6.3E1,2.7E1,2.178E1,7.457495E2,2.5E1,1.3367851E2,3.072128E2,7.776838E2,5.3E1,3.097E1,8.248424E2,-2.179336E2,-3.6247684E2,-7.903118E1,-2.6280194E2,-1.6368512E2,7.781286E1,-3.5472272E2,4.800042E2,4.8001266E2,-9.933313E1,1.17559364E2,-8.470077E1,-7.076211E1,-1.9980899E2,-4.933463E0,-1.2040889E2,-1.10884415E2,2.2546126E2,3.7310074E1,2.908302E2,-7.0163475E1,1.4716248E1,2.646465E1,6.280207E2,1.0485865E1,1.4689163E2,4.861774E1,2.2071252E2,2.1032442E2,4.8691476E2,2.6711548E2,5.560231E2],"split_indices":[4,0,2,0,0,0,0,2,5,0,3,2,2,2,2,0,2,0,3,1,3,2,0,2,2,0,0,0,2,0,0,0,2,2,2,2,0,2,2,2,5,2,0,0,2,0,0,0,0,0,0,2,0,0,0,0,0,0,0,0,0,0,0,0,0,0,0,0,0,0,0,0,0,0,0,0,0,0,0,0,0,0,0,0,0],"split_type":[0,0,0,0,0,0,0,0,0,0,0,0,0,0,0,0,0,0,0,0,0,0,0,0,0,0,0,0,0,0,0,0,0,0,0,0,0,0,0,0,0,0,0,0,0,0,0,0,0,0,0,0,0,0,0,0,0,0,0,0,0,0,0,0,0,0,0,0,0,0,0,0,0,0,0,0,0,0,0,0,0,0,0,0,0],"sum_hessian":[9.36E2,7.54E2,1.82E2,4.28E2,3.26E2,8.4E1,9.8E1,1.27E2,3.01E2,2.54E2,7.2E1,4.9E1,3.5E1,7.4E1,2.4E1,4.8E1,7.9E1,2.33E2,6.8E1,1E2,1.54E2,7.1E1,1E0,4E1,9E0,1.9E1,1.6E1,2E0,7.2E1,2E0,2.2E1,1E0,7.8E1,1.59E2,7.4E1,2.3E1,4.5E1,5.1E1,4.9E1,1.09E2,4.5E1,5.7E1,1.4E1,2E0,3.8E1,1E0,8E0,6E0,1.3E1,1E0,1.5E1,3E1,4.2E1,5.5E1,2.3E1,2E1,1.39E2,7E1,4E0,2.2E1,1E0,4E0,4.1E1,9E0,4.2E1,2.4E1,2.5E1,5.8E1,5.1E1,1.5E1,3E1,4.4E1,1.3E1,7E0,7E0,1E0,1E0,7E0,3.1E1,2E0,6E0,8E0,7E0,3E0,2.7E1],"tree_param":{"num_deleted":"0","num_feature":"6","num_nodes":"85","size_leaf_vector":"1"}},{"base_weights":[4.682355E1,-1.1926737E3,5.160341E3,-2.0132451E3,-1.1249701E2,2.3253413E3,7.4901367E3,-2.2990808E3,-1.4434463E3,-6.925092E2,3.2543997E2,1.2707194E3,2.8877104E3,6.7272407E3,9.509734E3,-2.6692332E3,-1.8648116E3,-1.5907083E2,-1.589298E3,-1.7588872E2,-5.5160004E2,-1.07108345E2,8.687187E2,7.5320233E2,2.9374631E3,2.519798E3,4.4472946E2,5.6897183E3,7.518769E2,3.6844922E2,9.856082E2,-2.4386711E3,-3.2480762E3,-3.2780146E3,-1.6172628E3,6.964044E3,-2.3385623E2,-1.6965519E3,-2.6502325E2,6.3953754E2,-6.583388E2,-1.0644601E3,2.7220297E2,1.2988475E3,-1.3439769E3,1.1371605E3,2.4248413E2,7.0846204E2,1.0655004E3,5.966196E2,2.3106294E3,1.0168596E4,4.995447E3,-2.6493683E2,6.099774E2,-3.87035E2,2.3840773E1,1.7132677E2,-3.6504895E2,7.168927E1,-1.9978966E2,-1.18371925E2,1.0074538E3,-2.2556969E2,-1.3593861E2,-8.550748E1,1.5934723E2,-1.1370453E2,-1.2078943E1,-1.7389032E2,-1.6946066E1,2.519104E2,-1.4679728E1,3.772242E1,3.752825E2,-2.0091135E2,-3.9182423E1,1.6262354E1,1.1996155E2,-9.715186E0,7.374049E1,1.3268925E2,-1.2073047E1,4.727637E0,2.4148022E2,2.5593233E2,1.1851913E3,3.4359814E2,5.419415E2],"categories":[],"categories_nodes":[],"categories_segments":[],"categories_sizes":[],"default_left":[0,0,0,0,0,0,0,0,0,0,0,0,0,0,0,0,0,0,0,0,0,0,0,0,0,0,0,0,0,0,0,0,0,0,0,0,0,0,0,0,0,0,0,0,0,0,0,0,0,0,0,0,0,0,0,0,0,0,0,0,0,0,0,0,0,0,0,0,0,0,0,0,0,0,0,0,0,0,0,0,0,0,0,0,0,0,0,0,0],"id":13,"left_children":[1,3,5,7,9,11,13,15,17,19,21,23,25,27,29,31,33,35,37,-1,39,41,43,45,47,49,-1,51,-1,-1,-1,53,55,57,59,61,-1,63,65,-1,67,69,71,73,75,77,79,-1,81,-1,83,85,87,-1,-1,-1,-1,-1,-1,-1,-1,-1,-1,-1,-1,-1,-1,-1,-1,-1,-1,-1,-1,-1,-1,-1,-1,-1,-1,-1,-1,-1,-1,-1,-1,-1,-1,-1,-1],"loss_changes":[5.945039E9,6.689769E8,1.1912924E9,6.655219E7,8.328625E7,4.6149856E7,9.010074E7,4.0674176E7,2.7097152E7,2.02168E7,4.403698E7,2.4527112E7,1.9778368E7,1.9633664E7,1.4124288E7,1.2231296E7,4.1576736E7,2.6468211E8,1.8156768E7,0E0,9.76408E7,3.841886E7,8.07404E7,4.626617E6,4.6794604E7,1.9374752E7,0E0,6.4257024E7,0E0,0E0,0E0,2.1765126E8,8.770461E7,4.1577696E7,1.0449347E8,1.132997E8,0E0,1.974512E7,1.3425227E7,0E0,3.20287E7,1.7814104E7,7.192016E7,1.5689934E8,8.079142E6,6.57018E5,2.0887548E6,0E0,2.0206255E6,0E0,1.0495936E7,2.0902368E7,3.85856E6,0E0,0E0,0E0,0E0,0E0,0E0,0E0,0E0,0E0,0E0,0E0,0E0,0E0,0E0,0E0,0E0,0E0,0E0,0E0,0E0,0E0,0E0,0E0,0E0,0E0,0E0,0E0,0E0,0E0,0E0,0E0,0E0,0E0,0E0,0E0,0E0],"parents":[2147483647,0,0,1,1,2,2,3,3,4,4,5,5,6,6,7,7,8,8,9,9,10,10,11,11,12,12,13,13,14,14,15,15,16,16,17,17,18,18,20,20,21,21,22,22,23,23,24,24,25,25,27,27,31,31,32,32,33,33,34,34,35,35,37,37,38,38,40,40,41,41,42,42,43,43,44,44,45,45,46,46,48,48,50,50,51,51,52,52],"right_children":[2,4,6,8,10,12,14,16,18,20,22,24,26,28,30,32,34,36,38,-1,40,42,44,46,48,50,-1,52,-1,-1,-1,54,56,58,60,62,-1,64,66,-1,68,70,72,74,76,78,80,-1,82,-1,84,86,88,-1,-1,-1,-1,-1,-1,-1,-1,-1,-1,-1,-1,-1,-1,-1,-1,-1,-1,-1,-1,-1,-1,-1,-1,-1,-1,-1,-1,-1,-1,-1,-1,-1,-1,-1,-1],"split_conditions":[1E0,4.3E1,3.002E1,3.3E1,5.2E1,3.2E1,5.2E1,1E0,2.288E1,2.41E1,1E0,2.8405E1,5.7E1,3.53E1,3.0875E1,3.399E1,2.299E1,3.5E1,4E0,-1.7588872E2,2.413E1,1E0,3.828E1,2E0,2.8595E1,1.78E1,4.4472946E2,3.0495E1,7.518769E2,3.6844922E2,9.856082E2,3.382E1,3E0,1.9E1,2.508E1,1E0,-2.3385623E2,3.7E1,3E0,6.3953754E2,2E0,5.9E1,5.5E1,3.432E1,5.6E1,2.178E1,2.2515E1,7.0846204E2,2.983E1,5.966196E2,1.957E1,2.6E1,3.173E1,-2.6493683E2,6.099774E2,-3.87035E2,2.3840773E1,1.7132677E2,-3.6504895E2,7.168927E1,-1.9978966E2,-1.18371925E2,1.0074538E3,-2.2556969E2,-1.3593861E2,-8.550748E1,1.5934723E2,-1.1370453E2,-1.2078943E1,-1.7389032E2,-1.6946066E1,2.519104E2,-1.4679728E1,3.772242E1,3.752825E2,-2.0091135E2,-3.9182423E1,1.6262354E1,1.1996155E2,-9.715186E0,7.374049E1,1.3268925E2,-1.2073047E1,4.727637E0,2.4148022E2,2.5593233E2,1.1851913E3,3.4359814E2,5.419415E2],"split_indices":[4,0,2,0,0,0,0,3,2,2,3,2,0,2,2,2,2,0,3,0,2,5,2,5,2,2,0,2,0,0,0,2,5,0,2,1,0,0,5,0,5,0,0,2,0,2,2,0,2,0,2,0,2,0,0,0,0,0,0,0,0,0,0,0,0,0,0,0,0,0,0,0,0,0,0,0,0,0,0,0,0,0,0,0,0,0,0,0,0],"split_type":[0,0,0,0,0,0,0,0,0,0,0,0,0,0,0,0,0,0,0,0,0,0,0,0,0,0,0,0,0,0,0,0,0,0,0,0,0,0,0,0,0,0,0,0,0,0,0,0,0,0,0,0,0,0,0,0,0,0,0,0,0,0,0,0,0,0,0,0,0,0,0,0,0,0,0,0,0,0,0,0,0,0,0,0,0,0,0,0,0],"sum_hessian":[9.36E2,7.54E2,1.82E2,4.28E2,3.26E2,8.3E1,9.9E1,2.83E2,1.45E2,1.4E2,1.86E2,3E1,5.3E1,7.5E1,2.4E1,1.5E2,1.33E2,1.5E1,1.3E2,1.5E1,1.25E2,1.04E2,8.2E1,2.4E1,6E0,4.5E1,8E0,3.6E1,3.9E1,2E0,2.2E1,1.11E2,3.9E1,1.8E1,1.15E2,3E0,1.2E1,1.2E2,1E1,1E0,1.24E2,2.9E1,7.5E1,6.9E1,1.3E1,1.3E1,1.1E1,1E0,5E0,1E0,4.4E1,3E0,3.3E1,1.09E2,2E0,3.3E1,6E0,1E0,1.7E1,1.6E1,9.9E1,1E0,2E0,4.3E1,7.7E1,8E0,2E0,6.5E1,5.9E1,1.6E1,1.3E1,1.1E1,6.4E1,5.1E1,1.8E1,7E0,6E0,1E0,1.2E1,7E0,4E0,4E0,1E0,2E0,4.2E1,1E0,2E0,9E0,2.4E1],"tree_param":{"num_deleted":"0","num_feature":"6","num_nodes":"89","size_leaf_vector":"1"}},{"base_weights":[4.996857E1,-1.0726318E3,4.681189E3,-1.7092552E3,6.412687E1,2.120389E3,6.785449E3,-2.0703699E3,-1.19052E3,-2.048022E2,8.000404E2,1.49085E3,2.9183618E3,6.2035903E3,9.261373E2,-2.40243E3,-1.6807322E3,-1.2600688E3,-8.7807655E1,-5.0129626E2,4.6322165E2,6.4033453E2,6.1494305E2,3.9494387E3,1.3021985E3,2.1288413E3,3.675541E3,4.4002374E2,6.893143E3,-2.7993928E3,-2.117428E3,-2.5970222E3,-1.3556372E3,-3.9993906E2,-1.34827E3,-5.1711774E2,1.5155985E3,2.1440305E2,-1.114885E3,-1.0301295E3,1.0502683E3,9.697343E2,-1.5238014E2,2.562715E1,5.667887E2,7.7287964E2,2.0415696E3,1.015221E3,2.5335916E2,7.267256E2,2.9968555E3,1.1061786E3,6.552808E3,-2.177675E2,-3.3485214E2,5.78347E2,-2.2678056E2,-2.8091147E2,-1.6957526E2,-3.3735498E2,-1.07151955E2,6.48991E2,-2.0974052E2,-2.1647318E2,-1.0987191E2,-1.2864891E2,3.3844006E1,-6.748626E1,2.9482602E2,1.9307964E2,-3.3913086E1,-1.7678902E2,-5.878141E1,-4.267323E1,-1.2293799E2,2.5399542E1,3.488385E2,3.3395866E1,4.91833E2,-1.149927E2,1.3318175E1,9.732569E0,9.834048E1,1.3871712E2,3.2282376E2,2.3174122E1,1.10717735E2,1.3746007E2,3.8327484E2,5.8602606E2,8.661509E2],"categories":[],"categories_nodes":[],"categories_segments":[],"categories_sizes":[],"default_left":[0,0,0,0,0,0,0,0,0,0,0,0,0,0,0,0,0,0,0,0,0,0,0,0,0,0,0,0,0,0,0,0,0,0,0,0,0,0,0,0,0,0,0,0,0,0,0,0,0,0,0,0,0,0,0,0,0,0,0,0,0,0,0,0,0,0,0,0,0,0,0,0,0,0,0,0,0,0,0,0,0,0,0,0,0,0,0,0,0,0,0],"id":14,"left_children":[1,3,5,7,9,11,13,15,17,19,21,23,25,27,-1,29,31,33,35,37,39,41,-1,43,45,47,49,-1,51,53,55,57,59,61,63,65,67,69,71,73,75,77,79,-1,-1,81,83,85,-1,-1,87,-1,89,-1,-1,-1,-1,-1,-1,-1,-1,-1,-1,-1,-1,-1,-1,-1,-1,-1,-1,-1,-1,-1,-1,-1,-1,-1,-1,-1,-1,-1,-1,-1,-1,-1,-1,-1,-1,-1,-1],"loss_changes":[4.876494E9,5.464936E8,9.71724E8,8.819942E7,5.3994972E7,3.784701E7,8.661043E7,3.2706816E7,1.5304544E7,3.9845236E7,5.8428316E7,1.758404E7,1.3696448E7,7.412301E7,0E0,1.1155968E7,3.6395456E7,1.3799168E7,9.732402E6,6.12802E7,5.5435256E7,1.8948408E7,0E0,1.7587028E7,1.6816176E7,6.4426E6,1.9661056E7,0E0,1.1219712E7,1.319216E7,1.2242269E8,1.735632E6,5.429096E7,2.358224E8,3.2462592E7,7.676059E6,1.140424E7,6.2410116E7,2.4774304E7,1.639472E6,8.647725E7,1.2638896E8,6.4200995E6,0E0,0E0,4.0287E6,1.02764E7,2.47743E5,0E0,0E0,1.6428E7,0E0,3.248256E7,0E0,0E0,0E0,0E0,0E0,0E0,0E0,0E0,0E0,0E0,0E0,0E0,0E0,0E0,0E0,0E0,0E0,0E0,0E0,0E0,0E0,0E0,0E0,0E0,0E0,0E0,0E0,0E0,0E0,0E0,0E0,0E0,0E0,0E0,0E0,0E0,0E0,0E0],"parents":[2147483647,0,0,1,1,2,2,3,3,4,4,5,5,6,6,7,7,8,8,9,9,10,10,11,11,12,12,13,13,15,15,16,16,17,17,18,18,19,19,20,20,21,21,23,23,24,24,25,25,26,26,28,28,29,29,30,30,31,31,32,32,33,33,34,34,35,35,36,36,37,37,38,38,39,39,40,40,41,41,42,42,45,45,46,46,47,47,50,50,52,52],"right_children":[2,4,6,8,10,12,14,16,18,20,22,24,26,28,-1,30,32,34,36,38,40,42,-1,44,46,48,50,-1,52,54,56,58,60,62,64,66,68,70,72,74,76,78,80,-1,-1,82,84,86,-1,-1,88,-1,90,-1,-1,-1,-1,-1,-1,-1,-1,-1,-1,-1,-1,-1,-1,-1,-1,-1,-1,-1,-1,-1,-1,-1,-1,-1,-1,-1,-1,-1,-1,-1,-1,-1,-1,-1,-1,-1,-1],"split_conditions":[1E0,4.7E1,3.002E1,3.3E1,5.9E1,4.1E1,3.916E1,1E0,4E0,2E0,4E0,1.78E1,2.59E1,2.8E1,9.261373E2,2.76E1,1E0,2.288E1,3.3535E1,1E0,1E0,3.663E1,6.1494305E2,2.7E1,2.793E1,4.8E1,4.3E1,4.4002374E2,3.0495E1,2.33E1,2.7645E1,2.9E1,1.9E1,3.5E1,2.76E1,4E1,3.4E1,2.6885E1,5.3E1,5.1E1,3.6765E1,3.458E1,3.7335E1,2.562715E1,5.667887E2,2.178E1,3E0,2.03E1,2.5335916E2,7.267256E2,4.9E1,1.1061786E3,5.8E1,-2.177675E2,-3.3485214E2,5.78347E2,-2.2678056E2,-2.8091147E2,-1.6957526E2,-3.3735498E2,-1.07151955E2,6.48991E2,-2.0974052E2,-2.1647318E2,-1.0987191E2,-1.2864891E2,3.3844006E1,-6.748626E1,2.9482602E2,1.9307964E2,-3.3913086E1,-1.7678902E2,-5.878141E1,-4.267323E1,-1.2293799E2,2.5399542E1,3.488385E2,3.3395866E1,4.91833E2,-1.149927E2,1.3318175E1,9.732569E0,9.834048E1,1.3871712E2,3.2282376E2,2.3174122E1,1.10717735E2,1.3746007E2,3.8327484E2,5.8602606E2,8.661509E2],"split_indices":[4,0,2,0,0,0,2,3,3,3,3,2,2,0,0,2,5,2,2,1,5,2,0,0,2,0,0,0,2,2,2,0,0,0,2,0,0,2,0,0,2,2,2,0,0,2,5,2,0,0,0,0,0,0,0,0,0,0,0,0,0,0,0,0,0,0,0,0,0,0,0,0,0,0,0,0,0,0,0,0,0,0,0,0,0,0,0,0,0,0,0],"split_type":[0,0,0,0,0,0,0,0,0,0,0,0,0,0,0,0,0,0,0,0,0,0,0,0,0,0,0,0,0,0,0,0,0,0,0,0,0,0,0,0,0,0,0,0,0,0,0,0,0,0,0,0,0,0,0,0,0,0,0,0,0,0,0,0,0,0,0,0,0,0,0,0,0,0,0,0,0,0,0,0,0,0,0,0,0,0,0,0,0,0,0],"sum_hessian":[9.36E2,7.54E2,1.82E2,4.83E2,2.71E2,8.3E1,9.9E1,2.83E2,2E2,1.99E2,7.2E1,4.8E1,3.5E1,8.3E1,1.6E1,1.5E2,1.33E2,1.88E2,1.2E1,1.38E2,6.1E1,7.1E1,1E0,2E0,4.6E1,1.9E1,1.6E1,2.5E1,5.8E1,5.9E1,9.1E1,3.3E1,1E2,1.8E1,1.7E2,1E1,2E0,6.4E1,7.4E1,1.7E1,4.4E1,5E1,2.1E1,1E0,1E0,2.8E1,1.8E1,6E0,1.3E1,1E0,1.5E1,2E0,5.6E1,3E1,2.9E1,1E0,9E1,2.5E1,8E0,1.1E1,8.9E1,3E0,1.5E1,3.8E1,1.32E2,5E0,5E0,1E0,1E0,1.5E1,4.9E1,3.2E1,4.2E1,5E0,1.2E1,3.4E1,1E1,4.4E1,6E0,4E0,1.7E1,7E0,2.1E1,1.3E1,5E0,1E0,5E0,6E0,9E0,4.5E1,1.1E1],"tree_param":{"num_deleted":"0","num_feature":"6","num_nodes":"91","size_leaf_vector":"1"}},{"base_weights":[5.2486485E1,-9.649446E2,4.249798E3,-1.6378478E3,-7.919418E1,1.9416445E3,6.146149E3,-2.1477324E3,-1.4163143E3,-3.1175555E2,7.342626E2,1.36548E3,2.671934E3,5.6483315E3,8.590558E2,-2.4470295E3,-1.4766235E3,-5.073866E2,-1.5184154E3,-1.5207428E3,-1.7373196E2,5.82184E2,5.841959E2,3.7519668E3,1.1840983E3,1.93532E3,3.3813665E3,4.008544E2,6.292097E3,-2.2856653E3,-3.460967E2,7.485713E2,-2.3579753E3,6.779213E3,-1.4949387E3,-2.7911824E3,-1.4003383E3,-1.7401971E2,-9.1286273E2,2.4385078E3,-2.6666553E2,-7.936405E2,7.425596E2,2.43458E1,5.384492E2,8.8428955E2,2.3517026E3,9.32827E2,2.2983293E2,6.903893E2,2.7297153E3,1.0324332E3,5.975049E3,-2.4611412E2,5.612985E2,-2.8078146E2,9.954952E0,8.09075E2,1.4223013E2,-4.6486015E1,-3.405602E2,-3.188108E2,-1.863611E2,8.196045E2,-1.4717937E2,-2.570044E1,-9.627195E1,5.446688E2,-1.9313443E2,-5.5012096E1,2.4688755E1,-1.079331E2,4.228711E0,3.6340112E2,3.3093594E1,8.880981E0,1.0555254E2,6.5689764E2,1.0034214E2,2.201543E1,1.0149134E2,1.5248271E2,3.744E2,5.2869727E2,7.9501605E2],"categories":[],"categories_nodes":[],"categories_segments":[],"categories_sizes":[],"default_left":[0,0,0,0,0,0,0,0,0,0,0,0,0,0,0,0,0,0,0,0,0,0,0,0,0,0,0,0,0,0,0,0,0,0,0,0,0,0,0,0,0,0,0,0,0,0,0,0,0,0,0,0,0,0,0,0,0,0,0,0,0,0,0,0,0,0,0,0,0,0,0,0,0,0,0,0,0,0,0,0,0,0,0,0,0],"id":15,"left_children":[1,3,5,7,9,11,13,15,17,19,21,23,25,27,-1,29,31,33,35,37,39,41,-1,43,45,47,49,-1,51,53,-1,-1,55,57,59,61,63,-1,65,67,69,71,73,-1,-1,75,77,79,-1,-1,81,-1,83,-1,-1,-1,-1,-1,-1,-1,-1,-1,-1,-1,-1,-1,-1,-1,-1,-1,-1,-1,-1,-1,-1,-1,-1,-1,-1,-1,-1,-1,-1,-1,-1],"loss_changes":[4.005536E9,4.4986854E8,7.890701E8,4.541645E7,6.2090316E7,3.1695968E7,7.316454E7,2.2096896E7,2.7255936E7,4.2287336E7,5.3303188E7,1.6767688E7,1.2268784E7,6.556288E7,0E0,6.323712E6,3.4940797E8,2.4040323E8,3.681856E7,1.879888E6,5.648617E7,1.6476022E7,0E0,1.5872292E7,1.437314E7,5.134336E6,2.0177136E7,0E0,1.5016448E7,1.2192406E8,0E0,0E0,4.339368E7,1.659568E7,5.5492748E7,2.158512E6,1.8349162E8,0E0,4.6867E4,1.15681864E8,3.2597792E7,1.956174E6,7.615973E7,0E0,0E0,5.21863E6,4.4583196E7,1.86068E5,0E0,0E0,1.3844648E7,0E0,3.6791424E7,0E0,0E0,0E0,0E0,0E0,0E0,0E0,0E0,0E0,0E0,0E0,0E0,0E0,0E0,0E0,0E0,0E0,0E0,0E0,0E0,0E0,0E0,0E0,0E0,0E0,0E0,0E0,0E0,0E0,0E0,0E0,0E0],"parents":[2147483647,0,0,1,1,2,2,3,3,4,4,5,5,6,6,7,7,8,8,9,9,10,10,11,11,12,12,13,13,15,15,16,16,17,17,18,18,19,19,20,20,21,21,23,23,24,24,25,25,26,26,28,28,29,29,32,32,33,33,34,34,35,35,36,36,38,38,39,39,40,40,41,41,42,42,45,45,46,46,47,47,50,50,52,52],"right_children":[2,4,6,8,10,12,14,16,18,20,22,24,26,28,-1,30,32,34,36,38,40,42,-1,44,46,48,50,-1,52,54,-1,-1,56,58,60,62,64,-1,66,68,70,72,74,-1,-1,76,78,80,-1,-1,82,-1,84,-1,-1,-1,-1,-1,-1,-1,-1,-1,-1,-1,-1,-1,-1,-1,-1,-1,-1,-1,-1,-1,-1,-1,-1,-1,-1,-1,-1,-1,-1,-1,-1],"split_conditions":[1E0,4.3E1,3.002E1,2.3E1,5.9E1,4.1E1,4.0185E1,3.23E1,2.5E1,2.3845E1,4E0,1.78E1,2.59E1,2.8E1,8.590558E2,3.1065E1,3.311E1,2.33E1,2.242E1,5.5E1,2.4985E1,2.4415E1,5.841959E2,2.7E1,2.8405E1,4.8E1,4.3E1,4.008544E2,3.0495E1,3.069E1,-3.460967E2,7.485713E2,1E0,1E0,3.37E1,3.6E1,2.2515E1,-1.7401971E2,1.9095E1,1E0,2E0,6.2E1,2.59E1,2.43458E1,5.384492E2,2.178E1,2.8595E1,2.03E1,2.2983293E2,6.903893E2,5.3E1,1.0324332E3,5.8E1,-2.4611412E2,5.612985E2,-2.8078146E2,9.954952E0,8.09075E2,1.4223013E2,-4.6486015E1,-3.405602E2,-3.188108E2,-1.863611E2,8.196045E2,-1.4717937E2,-2.570044E1,-9.627195E1,5.446688E2,-1.9313443E2,-5.5012096E1,2.4688755E1,-1.079331E2,4.228711E0,3.6340112E2,3.3093594E1,8.880981E0,1.0555254E2,6.5689764E2,1.0034214E2,2.201543E1,1.0149134E2,1.5248271E2,3.744E2,5.2869727E2,7.9501605E2],"split_indices":[4,0,2,0,0,0,2,2,0,2,3,2,2,0,0,2,2,2,2,0,2,2,0,0,2,0,0,0,2,2,0,0,3,3,2,0,2,0,2,1,3,0,2,0,0,2,2,2,0,0,0,0,0,0,0,0,0,0,0,0,0,0,0,0,0,0,0,0,0,0,0,0,0,0,0,0,0,0,0,0,0,0,0,0,0],"split_type":[0,0,0,0,0,0,0,0,0,0,0,0,0,0,0,0,0,0,0,0,0,0,0,0,0,0,0,0,0,0,0,0,0,0,0,0,0,0,0,0,0,0,0,0,0,0,0,0,0,0,0,0,0,0,0,0,0,0,0,0,0,0,0,0,0,0,0,0,0,0,0,0,0,0,0,0,0,0,0,0,0,0,0,0,0],"sum_hessian":[9.36E2,7.54E2,1.82E2,4.28E2,3.26E2,8.3E1,9.9E1,1.27E2,3.01E2,2.54E2,7.2E1,4.8E1,3.5E1,8.5E1,1.4E1,8.6E1,4.1E1,3.1E1,2.7E2,2.5E1,2.29E2,7.1E1,1E0,2E0,4.6E1,1.9E1,1.6E1,2.6E1,5.9E1,7.7E1,9E0,3E0,3.8E1,3E0,2.8E1,2.1E1,2.49E2,1.7E1,8E0,7E0,2.22E2,7E0,6.4E1,1E0,1E0,3.8E1,8E0,6E0,1.3E1,1E0,1.5E1,2E0,5.7E1,7.6E1,1E0,3.2E1,6E0,2E0,1E0,1.9E1,9E0,1.3E1,8E0,1E0,2.48E2,1E0,7E0,4E0,3E0,1.43E2,7.9E1,5E0,2E0,7E0,5.7E1,7E0,3.1E1,1E0,7E0,1E0,5E0,8E0,7E0,4.5E1,1.2E1],"tree_param":{"num_deleted":"0","num_feature":"6","num_nodes":"85","size_leaf_vector":"1"}},{"base_weights":[5.6524563E1,-8.656945E2,3.8609995E3,-1.3901505E3,7.07113E1,1.783255E3,5.567695E3,-1.6896884E3,-9.600067E2,-1.1770916E3,2.0737782E2,9.7123456E2,2.2163916E3,5.3341694E3,1.1340294E3,-2.4578396E3,-1.5386196E3,-1.0237511E3,4.0584846E1,-1.5208679E2,-6.206321E2,3.0411926E3,6.1789936E1,5.2529205E2,2.4251387E3,5.1152676E2,2.0651814E3,3.9635568E2,5.8805635E3,-1.891675E3,-3.2019937E2,-3.0373993E2,-1.706903E3,-2.0947513E2,-1.1082394E3,-3.7147375E2,1.5379381E3,-7.56599E1,3.9468098E0,5.7345522E3,2.9814243E2,-2.9300314E2,8.531527E2,8.4842755E2,1.0452628E2,6.2405273E2,7.4915265E2,1.7444272E3,3.439487E2,9.636043E2,5.6207607E3,-2.3061388E2,4.649422E2,1.485203E2,-2.1916963E2,-1.4339114E2,-2.2479301E2,5.914763E2,-1.7274425E2,-1.8684444E2,-8.8438835E1,-1.05663246E2,3.7559727E1,-5.675298E1,2.874437E2,7.304555E2,-1.0577305E2,-1.7543257E2,6.306476E2,-2.4619469E2,-2.0878376E1,-1.0483013E2,1.3629822E2,4.284834E1,1.0341206E2,-1.5517786E1,4.9914764E1,1.0294942E2,-3.2627735E1,9.020114E1,1.9904439E2,5.0674625E2,7.3139075E2],"categories":[],"categories_nodes":[],"categories_segments":[],"categories_sizes":[],"default_left":[0,0,0,0,0,0,0,0,0,0,0,0,0,0,0,0,0,0,0,0,0,0,0,0,0,0,0,0,0,0,0,0,0,0,0,0,0,0,0,0,0,0,0,0,0,0,0,0,0,0,0,0,0,0,0,0,0,0,0,0,0,0,0,0,0,0,0,0,0,0,0,0,0,0,0,0,0,0,0,0,0,0,0],"id":16,"left_children":[1,3,5,7,9,11,13,15,17,19,21,23,25,27,-1,29,31,33,35,-1,37,39,41,43,45,-1,47,-1,49,51,-1,53,55,57,59,61,63,-1,-1,65,67,69,71,73,75,-1,77,79,-1,-1,81,-1,-1,-1,-1,-1,-1,-1,-1,-1,-1,-1,-1,-1,-1,-1,-1,-1,-1,-1,-1,-1,-1,-1,-1,-1,-1,-1,-1,-1,-1,-1,-1],"loss_changes":[3.2908626E9,3.7088154E8,6.3900365E8,6.0738624E7,4.662905E7,2.7391504E7,7.431373E7,2.9174656E7,1.2861744E7,4.221136E6,1.013041E8,1.8825182E7,1.31064E7,5.0083584E7,0E0,1.2902016E7,4.935584E7,1.2770432E7,8.592269E6,0E0,1.106882E6,8.6946536E7,6.623094E7,3.310426E6,4.0086652E7,0E0,1.73632E7,0E0,1.2184576E7,8.663151E7,0E0,1.0457849E8,2.7940544E7,1.8684891E8,2.7447104E7,6.0273525E6,1.0073194E7,0E0,0E0,7.170968E7,9.7387E7,2.9260728E7,7.219628E7,6.48626E5,1.3072742E6,0E0,2.1448268E6,7.530768E6,0E0,0E0,2.4766848E7,0E0,0E0,0E0,0E0,0E0,0E0,0E0,0E0,0E0,0E0,0E0,0E0,0E0,0E0,0E0,0E0,0E0,0E0,0E0,0E0,0E0,0E0,0E0,0E0,0E0,0E0,0E0,0E0,0E0,0E0,0E0,0E0],"parents":[2147483647,0,0,1,1,2,2,3,3,4,4,5,5,6,6,7,7,8,8,9,9,10,10,11,11,12,12,13,13,15,15,16,16,17,17,18,18,20,20,21,21,22,22,23,23,24,24,26,26,28,28,29,29,31,31,32,32,33,33,34,34,35,35,36,36,39,39,40,40,41,41,42,42,43,43,44,44,46,46,47,47,50,50],"right_children":[2,4,6,8,10,12,14,16,18,20,22,24,26,28,-1,30,32,34,36,-1,38,40,42,44,46,-1,48,-1,50,52,-1,54,56,58,60,62,64,-1,-1,66,68,70,72,74,76,-1,78,80,-1,-1,82,-1,-1,-1,-1,-1,-1,-1,-1,-1,-1,-1,-1,-1,-1,-1,-1,-1,-1,-1,-1,-1,-1,-1,-1,-1,-1,-1,-1,-1,-1,-1,-1],"split_conditions":[1E0,4.7E1,3.002E1,3.3E1,2.3845E1,3.2E1,4.653E1,2.318E1,4E0,5.7E1,2.5175E1,2.8405E1,1.78E1,2.8E1,1.1340294E3,2.4E1,2.508E1,2.288E1,3.3535E1,-1.5208679E2,6.2E1,2E0,2E0,2E0,2.8595E1,5.1152676E2,5.7E1,3.9635568E2,3.0495E1,2.3E1,-3.2019937E2,1E0,3.399E1,3.5E1,2.755E1,4E1,3.4E1,-7.56599E1,3.9468098E0,6.2E1,6.4E1,2.574E1,5E1,2E1,2.2515E1,6.2405273E2,2.983E1,1E0,3.439487E2,9.636043E2,5.8E1,-2.3061388E2,4.649422E2,1.485203E2,-2.1916963E2,-1.4339114E2,-2.2479301E2,5.914763E2,-1.7274425E2,-1.8684444E2,-8.8438835E1,-1.05663246E2,3.7559727E1,-5.675298E1,2.874437E2,7.304555E2,-1.0577305E2,-1.7543257E2,6.306476E2,-2.4619469E2,-2.0878376E1,-1.0483013E2,1.3629822E2,4.284834E1,1.0341206E2,-1.5517786E1,4.9914764E1,1.0294942E2,-3.2627735E1,9.020114E1,1.9904439E2,5.0674625E2,7.3139075E2],"split_indices":[4,0,2,0,2,0,2,2,3,0,2,2,2,0,0,0,2,2,2,0,0,5,3,5,2,0,0,0,2,0,0,1,2,0,2,0,0,0,0,0,0,2,0,0,2,0,2,3,0,0,0,0,0,0,0,0,0,0,0,0,0,0,0,0,0,0,0,0,0,0,0,0,0,0,0,0,0,0,0,0,0,0,0],"split_type":[0,0,0,0,0,0,0,0,0,0,0,0,0,0,0,0,0,0,0,0,0,0,0,0,0,0,0,0,0,0,0,0,0,0,0,0,0,0,0,0,0,0,0,0,0,0,0,0,0,0,0,0,0,0,0,0,0,0,0,0,0,0,0,0,0,0,0,0,0,0,0,0,0,0,0,0,0,0,0,0,0,0,0],"sum_hessian":[9.36E2,7.54E2,1.82E2,4.83E2,2.71E2,8.3E1,9.9E1,2.83E2,2E2,2.6E1,2.45E2,3E1,5.3E1,9.7E1,2E0,4.4E1,2.39E2,1.88E2,1.2E1,1.5E1,1.1E1,1.1E1,2.34E2,2.4E1,6E0,1E0,5.2E1,3E1,6.7E1,2.7E1,1.7E1,2.9E1,2.1E2,1.8E1,1.7E2,1E1,2E0,9E0,2E0,5E0,6E0,1.62E2,7.2E1,1.3E1,1.1E1,1E0,5E0,4.4E1,8E0,2E0,6.5E1,2.6E1,1E0,1.5E1,1.4E1,1.42E2,6.8E1,3E0,1.5E1,3.7E1,1.33E2,5E0,5E0,1E0,1E0,4E0,1E0,5E0,1E0,5E0,1.57E2,1.5E1,5.7E1,5E0,8E0,7E0,4E0,4E0,1E0,1.1E1,3.3E1,5.2E1,1.3E1],"tree_param":{"num_deleted":"0","num_feature":"6","num_nodes":"83","size_leaf_vector":"1"}},{"base_weights":[5.743946E1,-7.7859296E2,3.5063303E3,-1.2515873E3,6.59212E1,1.6289739E3,5.0482466E3,-1.5225671E3,-8.624836E2,-1.0676711E3,1.9007191E2,1.1440087E3,2.2438162E3,4.7991357E3,9.827128E2,-1.8039851E3,-1.1940845E3,-1.9226274E2,-8.0277563E2,-1.4351921E3,-6.2388806E2,2.3968916E3,2.6132744E1,3.399032E3,9.757304E2,1.5776409E3,2.8955625E3,3.4474637E2,5.3248857E3,-2.1977764E3,-1.527556E3,-2.7372346E3,-1.0338252E3,1.6062979E3,-9.300322E2,-1.0862621E3,-1.8460136E2,-7.3707855E2,3.683659E0,1.4543448E2,5.592483E3,-2.2688733E2,5.9595074E2,2.3904394E1,4.859504E2,7.039643E2,2.044969E3,7.176758E2,1.8949348E2,6.459176E2,2.2691382E3,8.9936395E2,5.0774443E3,-1.5852539E2,-2.7574573E2,5.5892346E2,-1.6671828E2,2.0346452E2,-3.3560095E2,-2.6720273E2,-7.458869E1,8.351782E2,-1.12404594E2,-1.5477408E2,-7.350571E1,-1.212242E2,-3.8822853E1,-2.0632421E1,-7.665722E1,1.5023491E2,-1.7833328E2,8.722251E2,-1.487959E2,1.0645729E2,-3.8786213E1,-9.8276054E1,1.3728908E2,4.728601E0,8.46135E1,5.928501E2,8.184649E1,1.0962402E1,8.007471E1,9.865661E1,2.940025E2,4.2535083E2,6.1100366E2],"categories":[],"categories_nodes":[],"categories_segments":[],"categories_sizes":[],"default_left":[0,0,0,0,0,0,0,0,0,0,0,0,0,0,0,0,0,0,0,0,0,0,0,0,0,0,0,0,0,0,0,0,0,0,0,0,0,0,0,0,0,0,0,0,0,0,0,0,0,0,0,0,0,0,0,0,0,0,0,0,0,0,0,0,0,0,0,0,0,0,0,0,0,0,0,0,0,0,0,0,0,0,0,0,0,0,0],"id":17,"left_children":[1,3,5,7,9,11,13,15,17,19,21,23,25,27,-1,29,31,-1,33,35,37,39,41,43,45,47,49,-1,51,53,55,57,59,61,63,65,-1,67,-1,69,71,73,75,-1,-1,77,79,81,-1,-1,83,-1,85,-1,-1,-1,-1,-1,-1,-1,-1,-1,-1,-1,-1,-1,-1,-1,-1,-1,-1,-1,-1,-1,-1,-1,-1,-1,-1,-1,-1,-1,-1,-1,-1,-1,-1],"loss_changes":[2.7044616E9,3.0166765E8,5.2151142E8,4.9719424E7,3.8483204E7,2.247992E7,7.188531E7,2.4099072E7,1.1179648E7,3.50829E6,8.893627E7,1.5277556E7,1.1062208E7,5.057485E7,0E0,1.3079968E7,3.0308928E7,0E0,6.0355464E7,1.618E3,1.0741805E6,1.21497176E8,3.3295556E7,1.2683588E7,1.2217808E7,4.097284E6,2.3292928E7,0E0,1.606592E7,1.6197728E7,1.007381E8,4.226093E7,5.6026216E7,1.9356269E8,2.0902432E7,4.08754E5,0E0,2.9684E4,0E0,3.1468084E7,1.6809936E8,3.367572E7,8.843527E7,0E0,0E0,3.601046E6,3.8016244E7,2.6580025E5,0E0,0E0,1.0866848E7,0E0,3.0163072E7,0E0,0E0,0E0,0E0,0E0,0E0,0E0,0E0,0E0,0E0,0E0,0E0,0E0,0E0,0E0,0E0,0E0,0E0,0E0,0E0,0E0,0E0,0E0,0E0,0E0,0E0,0E0,0E0,0E0,0E0,0E0,0E0,0E0,0E0],"parents":[2147483647,0,0,1,1,2,2,3,3,4,4,5,5,6,6,7,7,8,8,9,9,10,10,11,11,12,12,13,13,15,15,16,16,18,18,19,19,20,20,21,21,22,22,23,23,24,24,25,25,26,26,28,28,29,29,30,30,31,31,32,32,33,33,34,34,35,35,37,37,39,39,40,40,41,41,42,42,45,45,46,46,47,47,50,50,52,52],"right_children":[2,4,6,8,10,12,14,16,18,20,22,24,26,28,-1,30,32,-1,34,36,38,40,42,44,46,48,50,-1,52,54,56,58,60,62,64,66,-1,68,-1,70,72,74,76,-1,-1,78,80,82,-1,-1,84,-1,86,-1,-1,-1,-1,-1,-1,-1,-1,-1,-1,-1,-1,-1,-1,-1,-1,-1,-1,-1,-1,-1,-1,-1,-1,-1,-1,-1,-1,-1,-1,-1,-1,-1,-1],"split_conditions":[1E0,4.7E1,3.002E1,3.3E1,2.3845E1,4.1E1,4.4E1,1E0,2.185E1,5.5E1,2.546E1,1.78E1,2.59E1,2.8E1,9.827128E2,2.76E1,1.9E1,-1.9226274E2,2.288E1,5.2E1,6.2E1,1E0,2E0,2.7E1,2.8405E1,4.8E1,4.3E1,3.4474637E2,3.0495E1,2.33E1,2.7645E1,2.185E1,2.299E1,3.5E1,2.76E1,2E0,-1.8460136E2,1.9095E1,3.683659E0,1E0,3E0,2.74E1,3.1825E1,2.3904394E1,4.859504E2,2.178E1,2.8595E1,2.03E1,1.8949348E2,6.459176E2,4.9E1,8.9936395E2,3.62E1,-1.5852539E2,-2.7574573E2,5.5892346E2,-1.6671828E2,2.0346452E2,-3.3560095E2,-2.6720273E2,-7.458869E1,8.351782E2,-1.12404594E2,-1.5477408E2,-7.350571E1,-1.212242E2,-3.8822853E1,-2.0632421E1,-7.665722E1,1.5023491E2,-1.7833328E2,8.722251E2,-1.487959E2,1.0645729E2,-3.8786213E1,-9.8276054E1,1.3728908E2,4.728601E0,8.46135E1,5.928501E2,8.184649E1,1.0962402E1,8.007471E1,9.865661E1,2.940025E2,4.2535083E2,6.1100366E2],"split_indices":[4,0,2,0,2,0,2,3,2,0,2,2,2,0,0,2,0,0,2,0,0,3,3,0,2,0,0,0,2,2,2,2,2,0,2,3,0,2,0,1,3,2,2,0,0,2,2,2,0,0,0,0,2,0,0,0,0,0,0,0,0,0,0,0,0,0,0,0,0,0,0,0,0,0,0,0,0,0,0,0,0,0,0,0,0,0,0],"split_type":[0,0,0,0,0,0,0,0,0,0,0,0,0,0,0,0,0,0,0,0,0,0,0,0,0,0,0,0,0,0,0,0,0,0,0,0,0,0,0,0,0,0,0,0,0,0,0,0,0,0,0,0,0,0,0,0,0,0,0,0,0,0,0,0,0,0,0,0,0,0,0,0,0,0,0,0,0,0,0,0,0,0,0,0,0,0,0],"sum_hessian":[9.36E2,7.54E2,1.82E2,4.83E2,2.71E2,8.3E1,9.9E1,2.83E2,2E2,2.6E1,2.45E2,4.8E1,3.5E1,9.6E1,3E0,1.5E2,1.33E2,9E0,1.91E2,1.3E1,1.3E1,1.6E1,2.29E2,2E0,4.6E1,1.9E1,1.6E1,2.9E1,6.7E1,5.9E1,9.1E1,1.1E1,1.22E2,9E0,1.82E2,9E0,4E0,1.1E1,2E0,1E1,6E0,1.59E2,7E1,1E0,1E0,3.8E1,8E0,6E0,1.3E1,1E0,1.5E1,2E0,6.5E1,3E1,2.9E1,1E0,9E1,1E0,1E1,1.7E1,1.05E2,2E0,7E0,4.2E1,1.4E2,7E0,2E0,1E0,1E1,6E0,4E0,4E0,2E0,1.7E1,1.42E2,2.3E1,4.7E1,7E0,3.1E1,1E0,7E0,1E0,5E0,6E0,9E0,3.9E1,2.6E1],"tree_param":{"num_deleted":"0","num_feature":"6","num_nodes":"87","size_leaf_vector":"1"}},{"base_weights":[5.810556E1,-7.00535E2,3.1876982E3,-1.0769095E3,1.7965306E2,1.4969457E3,4.5760537E3,-1.3721272E3,-7.3171136E2,-1.0789047E2,9.298916E2,4.1626483E2,1.7258435E3,4.3654893E3,9.9291327E2,-1.198097E3,-1.8970314E3,-1.5486996E2,-6.719558E2,3.276532E2,-5.9788983E2,-4.2439978E2,1.7741837E3,9.837063E2,2.0964708E2,1.2396323E3,2.1898953E3,4.016343E3,6.173485E2,-1.5151436E3,8.180955E2,-2.8407732E3,-1.5338701E3,7.072916E2,-7.36381E2,4.7919853E1,6.190073E3,-1.325227E3,5.7095005E1,1.9252169E3,-1.4450961E3,7.801063E2,1.237567E3,1.5776595E1,1.7307637E2,-7.0165985E2,4.391265E2,3.22908E3,1.0276329E3,6.136217E2,1.8843639E3,7.115732E3,3.8161736E3,-1.1116856E2,-1.9285533E2,-6.576968E1,2.79857E2,-3.2089767E2,-1.8037428E2,6.3757855E2,-1.977772E2,-1.08804886E2,-5.6258953E1,-8.377251E0,5.555039E2,-6.599873E1,8.693423E2,-9.8642235E1,-1.5113928E2,-2.0825388E1,2.6299728E2,3.720319E2,-7.999646E1,-1.5525793E2,-3.90153E1,1.9825362E2,-1.3003969E2,-8.727285E1,-1.7976124E1,2.2398752E1,9.3816795E1,2.270918E1,4.6165283E2,4.2431164E1,1.6059949E2,1.5066756E2,2.8763055E2,2.7520422E2,1.01034E3,2.752383E2,4.5888712E2],"categories":[],"categories_nodes":[],"categories_segments":[],"categories_sizes":[],"default_left":[0,0,0,0,0,0,0,0,0,0,0,0,0,0,0,0,0,0,0,0,0,0,0,0,0,0,0,0,0,0,0,0,0,0,0,0,0,0,0,0,0,0,0,0,0,0,0,0,0,0,0,0,0,0,0,0,0,0,0,0,0,0,0,0,0,0,0,0,0,0,0,0,0,0,0,0,0,0,0,0,0,0,0,0,0,0,0,0,0,0,0],"id":18,"left_children":[1,3,5,7,9,11,13,15,17,19,21,23,25,27,-1,29,31,-1,33,35,37,39,41,43,45,47,49,51,-1,53,55,57,59,-1,61,63,65,67,69,71,73,-1,75,-1,-1,77,79,81,83,-1,85,87,89,-1,-1,-1,-1,-1,-1,-1,-1,-1,-1,-1,-1,-1,-1,-1,-1,-1,-1,-1,-1,-1,-1,-1,-1,-1,-1,-1,-1,-1,-1,-1,-1,-1,-1,-1,-1,-1,-1],"loss_changes":[2.226892E9,2.5031011E8,4.227177E8,5.2905664E7,4.9070184E7,2.0060288E7,6.937101E7,2.3670304E7,1.096896E7,3.540956E7,7.2788264E7,1.6696645E6,1.2853632E7,3.706816E7,0E0,1.3931248E8,1.9291008E7,0E0,1.204692E8,1.4401584E8,3.7234456E7,6.273825E7,1.1647652E8,2.1950442E6,3.0267578E6,1.1865104E7,2.9431792E7,2.5579392E7,0E0,2.9046464E7,8.952366E7,1.084912E6,1.9518765E8,0E0,1.3444768E7,6.2111224E7,7.432994E7,8.4286E5,2.9221534E7,4.211195E7,1.435256E6,0E0,7.253416E7,0E0,0E0,1.10958875E5,9.70858E5,1.1446934E7,1.1182456E7,0E0,8.029616E6,2.4344048E7,5.4772736E7,0E0,0E0,0E0,0E0,0E0,0E0,0E0,0E0,0E0,0E0,0E0,0E0,0E0,0E0,0E0,0E0,0E0,0E0,0E0,0E0,0E0,0E0,0E0,0E0,0E0,0E0,0E0,0E0,0E0,0E0,0E0,0E0,0E0,0E0,0E0,0E0,0E0,0E0],"parents":[2147483647,0,0,1,1,2,2,3,3,4,4,5,5,6,6,7,7,8,8,9,9,10,10,11,11,12,12,13,13,15,15,16,16,18,18,19,19,20,20,21,21,22,22,23,23,24,24,25,25,26,26,27,27,29,29,30,30,31,31,32,32,34,34,35,35,36,36,37,37,38,38,39,39,40,40,42,42,45,45,46,46,47,47,48,48,50,50,51,51,52,52],"right_children":[2,4,6,8,10,12,14,16,18,20,22,24,26,28,-1,30,32,-1,34,36,38,40,42,44,46,48,50,52,-1,54,56,58,60,-1,62,64,66,68,70,72,74,-1,76,-1,-1,78,80,82,84,-1,86,88,90,-1,-1,-1,-1,-1,-1,-1,-1,-1,-1,-1,-1,-1,-1,-1,-1,-1,-1,-1,-1,-1,-1,-1,-1,-1,-1,-1,-1,-1,-1,-1,-1,-1,-1,-1,-1,-1,-1],"split_conditions":[1E0,5E1,3.002E1,3.3E1,2E0,2.4E1,4.653E1,3.399E1,2.222E1,3.157E1,3.1825E1,2.185E1,2.5935E1,5.8E1,9.9291327E2,3.23E1,3.53E1,-1.5486996E2,2.2515E1,3.1255E1,5.7E1,5.1E1,3.212E1,2E1,2.2515E1,1.78E1,2.6125E1,3.0495E1,6.173485E2,1E0,2E0,2.5E1,3.553E1,7.072916E2,3.9E1,6.4E1,1E0,5.2E1,4.123E1,2.7835E1,6E1,7.801063E2,3.828E1,1.5776595E1,1.7307637E2,2.1E1,2E0,2.7E1,4.4E1,6.136217E2,5.3E1,3.5E1,3.496E1,-1.1116856E2,-1.9285533E2,-6.576968E1,2.79857E2,-3.2089767E2,-1.8037428E2,6.3757855E2,-1.977772E2,-1.08804886E2,-5.6258953E1,-8.377251E0,5.555039E2,-6.599873E1,8.693423E2,-9.8642235E1,-1.5113928E2,-2.0825388E1,2.6299728E2,3.720319E2,-7.999646E1,-1.5525793E2,-3.90153E1,1.9825362E2,-1.3003969E2,-8.727285E1,-1.7976124E1,2.2398752E1,9.3816795E1,2.270918E1,4.6165283E2,4.2431164E1,1.6059949E2,1.5066756E2,2.8763055E2,2.7520422E2,1.01034E3,2.752383E2,4.5888712E2],"split_indices":[4,0,2,0,3,0,2,2,2,2,2,2,2,0,0,2,2,0,2,2,0,0,2,0,2,2,2,2,0,1,5,0,2,0,0,0,1,0,2,2,0,0,2,0,0,0,3,0,0,0,0,0,2,0,0,0,0,0,0,0,0,0,0,0,0,0,0,0,0,0,0,0,0,0,0,0,0,0,0,0,0,0,0,0,0,0,0,0,0,0,0],"split_type":[0,0,0,0,0,0,0,0,0,0,0,0,0,0,0,0,0,0,0,0,0,0,0,0,0,0,0,0,0,0,0,0,0,0,0,0,0,0,0,0,0,0,0,0,0,0,0,0,0,0,0,0,0,0,0,0,0,0,0,0,0,0,0,0,0,0,0,0,0,0,0,0,0,0,0,0,0,0,0,0,0,0,0,0,0,0,0,0,0,0,0],"sum_hessian":[9.36E2,7.54E2,1.82E2,5.28E2,2.26E2,8.3E1,9.9E1,2.83E2,2.45E2,1.64E2,6.2E1,1.5E1,6.8E1,9.7E1,2E0,2.15E2,6.8E1,1.5E1,2.3E2,8.7E1,7.7E1,2.4E1,3.8E1,3E0,1.2E1,3.5E1,3.3E1,8.4E1,1.3E1,1.86E2,2.9E1,1.7E1,5.1E1,1E0,2.29E2,8.4E1,3E0,3.6E1,4.1E1,7E0,1.7E1,2E0,3.6E1,2E0,1E0,2E0,1E1,2E0,3.3E1,1E0,3.2E1,3E0,8.1E1,9.6E1,9E1,1.7E1,1.2E1,1.1E1,6E0,2E0,4.9E1,7.4E1,1.55E2,8.3E1,1E0,1E0,2E0,1.5E1,2.1E1,3.8E1,3E0,4E0,3E0,1.5E1,2E0,2.8E1,8E0,1E0,1E0,8E0,2E0,1E0,1E0,1.7E1,1.6E1,2.5E1,7E0,2E0,1E0,3.6E1,4.5E1],"tree_param":{"num_deleted":"0","num_feature":"6","num_nodes":"91","size_leaf_vector":"1"}},{"base_weights":[6.093311E1,-6.271373E2,2.8993606E3,-9.687726E2,1.717711E2,1.3703358E3,4.1547476E3,-1.2354476E3,-6.5696576E2,-8.896298E1,8.5191956E2,3.8712732E2,1.5784663E3,3.955849E3,9.2671906E2,-1.877316E3,-1.1099496E3,-7.712386E2,-2.7326678E2,3.1023383E2,-5.381983E2,-3.7804944E2,1.6185171E3,9.325491E2,1.8952621E2,1.1347631E3,2.0018442E3,2.88241E3,4.3870366E3,-1.3624775E3,-2.5738806E2,3.0904314E1,-1.2668959E3,-2.4035732E2,-9.2594775E2,-6.935871E2,1.5857007E3,4.956434E1,5.7719023E3,-1.1164036E3,1.673856E2,1.7691993E3,-1.3113795E3,7.280992E2,1.1156538E3,1.4724837E1,1.6442256E2,-6.6657684E2,4.057792E2,3.0676262E3,9.308409E2,5.829406E2,1.7092089E3,1.8557166E2,3.1045407E2,7.9655493E3,4.1579067E3,-1.7531352E2,4.5926413E2,-1.0885508E2,2.7639166E2,-1.0450903E2,-1.7082191E2,-8.8069046E1,6.3831464E2,-1.0174615E2,-5.8897624E0,-4.1159992E1,-2.2864265E2,6.88773E2,-3.5783134E1,-7.54953E0,5.277287E2,-6.269878E1,8.1138617E2,-1.1994549E2,-5.1793194E1,-1.2383344E1,3.412073E2,3.422693E2,-7.399676E1,-1.7111879E2,-9.013935E1,1.7911188E2,-1.1848057E2,-8.290923E1,-1.7077295E1,6.2340572E1,1.9946289E0,2.157373E1,4.3857022E2,4.6051052E1,1.5698479E2,9.962234E1,2.1228384E2,2.3500938E2,9.5982306E2,3.4515082E2,5.050427E2],"categories":[],"categories_nodes":[],"categories_segments":[],"categories_sizes":[],"default_left":[0,0,0,0,0,0,0,0,0,0,0,0,0,0,0,0,0,0,0,0,0,0,0,0,0,0,0,0,0,0,0,0,0,0,0,0,0,0,0,0,0,0,0,0,0,0,0,0,0,0,0,0,0,0,0,0,0,0,0,0,0,0,0,0,0,0,0,0,0,0,0,0,0,0,0,0,0,0,0,0,0,0,0,0,0,0,0,0,0,0,0,0,0,0,0,0,0,0,0],"id":19,"left_children":[1,3,5,7,9,11,13,15,17,19,21,23,25,27,-1,29,31,33,35,37,39,41,43,45,47,49,51,53,55,57,-1,59,61,63,65,67,69,71,73,75,77,79,81,-1,83,-1,-1,85,87,89,91,-1,93,-1,-1,95,97,-1,-1,-1,-1,-1,-1,-1,-1,-1,-1,-1,-1,-1,-1,-1,-1,-1,-1,-1,-1,-1,-1,-1,-1,-1,-1,-1,-1,-1,-1,-1,-1,-1,-1,-1,-1,-1,-1,-1,-1,-1,-1],"loss_changes":[1.8318148E9,2.0623254E8,3.455785E8,4.3175296E7,4.0331492E7,1.6578336E7,6.5026304E7,2.0793376E7,1.0575456E7,2.9756966E7,6.0014028E7,1.5476725E6,1.069032E7,3.2714496E7,0E0,1.2630976E7,4.301184E7,1.5300424E7,4.641881E7,1.2499867E8,3.2008708E7,5.2422384E7,1.02927496E8,1.993411E6,2.677236E6,1.1334056E7,2.811904E7,1.30872E6,2.263616E7,7.319109E7,0E0,9.479319E7,1.8869088E7,1.9223651E8,1.152472E7,2.0618598E7,1.1581594E8,5.5969468E7,6.503105E7,1.516032E6,3.443946E7,3.5723816E7,1.408034E6,0E0,5.961568E7,0E0,0E0,1.0014075E5,9.112074E5,1.0330858E7,9.495576E6,0E0,7.617272E6,0E0,0E0,4.948016E6,2.4179712E7,0E0,0E0,0E0,0E0,0E0,0E0,0E0,0E0,0E0,0E0,0E0,0E0,0E0,0E0,0E0,0E0,0E0,0E0,0E0,0E0,0E0,0E0,0E0,0E0,0E0,0E0,0E0,0E0,0E0,0E0,0E0,0E0,0E0,0E0,0E0,0E0,0E0,0E0,0E0,0E0,0E0,0E0],"parents":[2147483647,0,0,1,1,2,2,3,3,4,4,5,5,6,6,7,7,8,8,9,9,10,10,11,11,12,12,13,13,15,15,16,16,17,17,18,18,19,19,20,20,21,21,22,22,23,23,24,24,25,25,26,26,27,27,28,28,29,29,31,31,32,32,33,33,34,34,35,35,36,36,37,37,38,38,39,39,40,40,41,41,42,42,44,44,47,47,48,48,49,49,50,50,52,52,55,55,56,56],"right_children":[2,4,6,8,10,12,14,16,18,20,22,24,26,28,-1,30,32,34,36,38,40,42,44,46,48,50,52,54,56,58,-1,60,62,64,66,68,70,72,74,76,78,80,82,-1,84,-1,-1,86,88,90,92,-1,94,-1,-1,96,98,-1,-1,-1,-1,-1,-1,-1,-1,-1,-1,-1,-1,-1,-1,-1,-1,-1,-1,-1,-1,-1,-1,-1,-1,-1,-1,-1,-1,-1,-1,-1,-1,-1,-1,-1,-1,-1,-1,-1,-1,-1,-1],"split_conditions":[1E0,5E1,3.002E1,3.3E1,2E0,2.4E1,4.653E1,2.318E1,3E0,3.157E1,3.1825E1,2.185E1,2.5935E1,2.8E1,9.2671906E2,2.4E1,2.508E1,2.77E1,3.477E1,3.1255E1,5.8E1,5.1E1,3.212E1,2E1,2.2515E1,1.78E1,2.6125E1,3.173E1,3.0495E1,2.3E1,-2.5738806E2,3E0,3.399E1,2.755E1,4.081E1,4.8E1,3.6E1,6.4E1,1E0,5.7E1,4.015E1,2.7835E1,3E0,7.280992E2,3.828E1,1.4724837E1,1.6442256E2,2.1E1,1E0,2.7E1,4.8E1,5.829406E2,2E0,1.8557166E2,3.1045407E2,3.5E1,3.62E1,-1.7531352E2,4.5926413E2,-1.0885508E2,2.7639166E2,-1.0450903E2,-1.7082191E2,-8.8069046E1,6.3831464E2,-1.0174615E2,-5.8897624E0,-4.1159992E1,-2.2864265E2,6.88773E2,-3.5783134E1,-7.54953E0,5.277287E2,-6.269878E1,8.1138617E2,-1.1994549E2,-5.1793194E1,-1.2383344E1,3.412073E2,3.422693E2,-7.399676E1,-1.7111879E2,-9.013935E1,1.7911188E2,-1.1848057E2,-8.290923E1,-1.7077295E1,6.2340572E1,1.9946289E0,2.157373E1,4.3857022E2,4.6051052E1,1.5698479E2,9.962234E1,2.1228384E2,2.3500938E2,9.5982306E2,3.4515082E2,5.050427E2],"split_indices":[4,0,2,0,3,0,2,2,5,2,2,2,2,0,0,0,2,2,2,2,0,0,2,0,2,2,2,2,2,0,0,5,2,2,2,0,2,0,1,0,2,2,3,0,2,0,0,0,1,0,0,0,5,0,0,0,2,0,0,0,0,0,0,0,0,0,0,0,0,0,0,0,0,0,0,0,0,0,0,0,0,0,0,0,0,0,0,0,0,0,0,0,0,0,0,0,0,0,0],"split_type":[0,0,0,0,0,0,0,0,0,0,0,0,0,0,0,0,0,0,0,0,0,0,0,0,0,0,0,0,0,0,0,0,0,0,0,0,0,0,0,0,0,0,0,0,0,0,0,0,0,0,0,0,0,0,0,0,0,0,0,0,0,0,0,0,0,0,0,0,0,0,0,0,0,0,0,0,0,0,0,0,0,0,0,0,0,0,0,0,0,0,0,0,0,0,0,0,0,0,0],"sum_hessian":[9.36E2,7.54E2,1.82E2,5.28E2,2.26E2,8.3E1,9.9E1,2.83E2,2.45E2,1.64E2,6.2E1,1.5E1,6.8E1,9.7E1,2E0,4.4E1,2.39E2,1.88E2,5.7E1,8.7E1,7.7E1,2.4E1,3.8E1,3E0,1.2E1,3.5E1,3.3E1,3E1,6.7E1,2.7E1,1.7E1,2.9E1,2.1E2,4.3E1,1.45E2,4.7E1,1E1,8.4E1,3E0,4.2E1,3.5E1,7E0,1.7E1,2E0,3.6E1,2E0,1E0,2E0,1E1,2E0,3.3E1,1E0,3.2E1,7E0,2.3E1,2E0,6.5E1,2.6E1,1E0,2.1E1,8E0,1.42E2,6.8E1,4E1,3E0,1.31E2,1.4E1,4.1E1,6E0,2E0,8E0,8.3E1,1E0,1E0,2E0,3.6E1,6E0,3.3E1,2E0,4E0,3E0,7E0,1E1,2.8E1,8E0,1E0,1E0,6E0,4E0,1E0,1E0,2E1,1.3E1,1.3E1,1.9E1,1E0,1E0,3.9E1,2.6E1],"tree_param":{"num_deleted":"0","num_feature":"6","num_nodes":"99","size_leaf_vector":"1"}},{"base_weights":[6.3522346E1,-5.604947E2,2.6376719E3,-9.607292E2,4.677697E0,1.2535587E3,3.7739502E3,-1.1605382E3,-5.600273E2,-1.7295331E2,5.9347253E2,1.0889491E3,2.5043108E2,3.5861926E3,8.649378E2,-1.4206824E3,-8.907297E2,-3.5394333E2,-1.1127576E3,-1.0641534E3,-6.537654E1,4.5659344E2,5.224385E2,2.9142449E3,1.00023517E3,3.2744712E3,5.222631E2,-1.8821288E2,-1.143432E3,6.3096625E2,-9.832643E2,-6.4358044E2,3.9998E3,-1.3146843E3,1.8159008E3,-1.1997004E3,-6.748202E2,8.3802576E2,-2.68021E2,6.671168E2,-3.2193323E2,2.049502E1,4.166417E2,2.833885E2,1.1776812E3,6.380444E3,3.0830278E3,9.328828E1,-1.5138182E2,1.1844463E2,-1.0526678E2,2.7397303E1,-9.529441E1,8.745006E2,3.527164E1,-1.5312187E2,9.0866264E1,-4.6396877E1,3.1878198E2,-4.2757946E1,-1.26949196E2,-1.8804443E1,-7.121616E1,-3.1567846E1,2.7819113E2,-1.1267024E2,6.6878905E0,1.3872928E1,2.444834E2,-8.195403E1,1.5615451E1,6.777354E1,-9.8629675E0,5.3048885E1,1.3862584E2,2.4283797E2,9.1183185E2,2.1086006E2,3.696242E2],"categories":[],"categories_nodes":[],"categories_segments":[],"categories_sizes":[],"default_left":[0,0,0,0,0,0,0,0,0,0,0,0,0,0,0,0,0,0,0,0,0,0,0,0,0,0,0,0,0,0,0,0,0,0,0,0,0,0,0,0,0,0,0,0,0,0,0,0,0,0,0,0,0,0,0,0,0,0,0,0,0,0,0,0,0,0,0,0,0,0,0,0,0,0,0,0,0,0,0],"id":20,"left_children":[1,3,5,7,9,11,13,15,17,19,21,23,-1,25,-1,27,29,31,33,35,37,39,-1,41,43,45,-1,-1,47,-1,49,51,53,55,57,59,61,63,65,67,69,-1,-1,71,73,75,77,-1,-1,-1,-1,-1,-1,-1,-1,-1,-1,-1,-1,-1,-1,-1,-1,-1,-1,-1,-1,-1,-1,-1,-1,-1,-1,-1,-1,-1,-1,-1,-1],"loss_changes":[1.5065939E9,1.7078662E8,2.8308006E8,3.4738304E7,3.2943346E7,1.4567336E7,6.052147E7,1.9370144E7,1.657856E7,2.3131556E7,4.3887468E7,9.391704E6,0E0,3.2889728E7,0E0,1.6782464E7,1.0414803E8,1.412848E8,2.6042316E7,5.62516E5,3.995069E7,1.2015428E7,0E0,9.323598E6,9.079168E6,3.0871552E7,0E0,0E0,7.447086E7,0E0,2.3212032E7,2.9782288E7,1.1805864E8,1.968574E7,1.0862438E7,4.27164E5,2.9674E4,9.058495E7,5.1263224E7,5.3202284E7,3.934372E6,0E0,0E0,2.4772075E6,7.228992E6,2.1138288E7,4.1203776E7,0E0,0E0,0E0,0E0,0E0,0E0,0E0,0E0,0E0,0E0,0E0,0E0,0E0,0E0,0E0,0E0,0E0,0E0,0E0,0E0,0E0,0E0,0E0,0E0,0E0,0E0,0E0,0E0,0E0,0E0,0E0,0E0],"parents":[2147483647,0,0,1,1,2,2,3,3,4,4,5,5,6,6,7,7,8,8,9,9,10,10,11,11,13,13,15,15,16,16,17,17,18,18,19,19,20,20,21,21,23,23,24,24,25,25,28,28,30,30,31,31,32,32,33,33,34,34,35,35,36,36,37,37,38,38,39,39,40,40,43,43,44,44,45,45,46,46],"right_children":[2,4,6,8,10,12,14,16,18,20,22,24,-1,26,-1,28,30,32,34,36,38,40,-1,42,44,46,-1,-1,48,-1,50,52,54,56,58,60,62,64,66,68,70,-1,-1,72,74,76,78,-1,-1,-1,-1,-1,-1,-1,-1,-1,-1,-1,-1,-1,-1,-1,-1,-1,-1,-1,-1,-1,-1,-1,-1,-1,-1,-1,-1,-1,-1,-1,-1],"split_conditions":[1E0,4.4E1,3.002E1,2E0,5.9E1,5.7E1,4.653E1,2.964E1,3.4105E1,2.3845E1,4E0,1.78E1,2.5043108E2,5.8E1,8.649378E2,2.3E1,2.97E1,3.325E1,4.3E1,5.5E1,2.77E1,3.743E1,5.224385E2,2.7E1,2.2705E1,3.0495E1,5.222631E2,-1.8821288E2,2.5E1,6.3096625E2,2.981E1,2.6E1,3E0,4E0,3.443E1,4.5E1,1.9095E1,2.679E1,1E0,3.458E1,6.3E1,2.049502E1,4.166417E2,2E0,1E0,3.5E1,3.4675E1,9.328828E1,-1.5138182E2,1.1844463E2,-1.0526678E2,2.7397303E1,-9.529441E1,8.745006E2,3.527164E1,-1.5312187E2,9.0866264E1,-4.6396877E1,3.1878198E2,-4.2757946E1,-1.26949196E2,-1.8804443E1,-7.121616E1,-3.1567846E1,2.7819113E2,-1.1267024E2,6.6878905E0,1.3872928E1,2.444834E2,-8.195403E1,1.5615451E1,6.777354E1,-9.8629675E0,5.3048885E1,1.3862584E2,2.4283797E2,9.1183185E2,2.1086006E2,3.696242E2],"split_indices":[4,0,2,3,0,0,2,2,2,2,3,2,0,0,0,0,2,2,0,0,2,2,0,0,2,2,0,0,0,0,2,0,3,3,2,0,2,2,5,2,0,0,0,5,5,0,2,0,0,0,0,0,0,0,0,0,0,0,0,0,0,0,0,0,0,0,0,0,0,0,0,0,0,0,0,0,0,0,0],"split_type":[0,0,0,0,0,0,0,0,0,0,0,0,0,0,0,0,0,0,0,0,0,0,0,0,0,0,0,0,0,0,0,0,0,0,0,0,0,0,0,0,0,0,0,0,0,0,0,0,0,0,0,0,0,0,0,0,0,0,0,0,0,0,0,0,0,0,0,0,0,0,0,0,0,0,0,0,0,0,0],"sum_hessian":[9.36E2,7.54E2,1.82E2,4.41E2,3.13E2,8.3E1,9.9E1,2.93E2,1.48E2,2.41E2,7.2E1,7.5E1,8E0,9.7E1,2E0,1.47E2,1.46E2,1.09E2,3.9E1,2.5E1,2.16E2,7.1E1,1E0,2E0,7.3E1,8.4E1,1.3E1,5.3E1,9.4E1,1E0,1.45E2,1.03E2,6E0,3.7E1,2E0,1.7E1,8E0,3.9E1,1.77E2,5.6E1,1.5E1,1E0,1E0,1.5E1,5.8E1,3E0,8.1E1,1.4E1,8E1,4E0,1.41E2,2.6E1,7.7E1,2E0,4E0,3.4E1,3E0,1E0,1E0,2E0,1.5E1,1E0,7E0,2.5E1,1.4E1,4.9E1,1.28E2,4.4E1,1.2E1,7E0,8E0,7E0,8E0,1.5E1,4.3E1,2E0,1E0,3.3E1,4.8E1],"tree_param":{"num_deleted":"0","num_feature":"6","num_nodes":"79","size_leaf_vector":"1"}},{"base_weights":[6.368531E1,-5.0173636E2,2.396088E3,-7.8522235E2,1.6110858E2,1.1393599E3,3.4277788E3,-1.0143557E3,-5.175024E2,-8.268412E1,7.9705597E2,2.9086316E2,1.3196002E3,3.2506084E3,8.0727527E2,-1.2358723E3,-7.5716644E2,-1.361817E2,-4.7218628E2,2.8236353E2,-4.934727E2,-2.9816058E2,1.4786805E3,8.526604E2,9.562838E1,9.342539E2,1.6888022E3,2.9674375E3,4.737674E2,-1.5143326E3,-8.830018E2,-1.5337686E3,-4.8823932E2,1.451511E3,-5.641351E2,3.946928E1,5.3732754E3,-9.819802E2,1.0372995E2,1.6611499E3,-1.1524008E3,6.791134E2,1.00797675E3,1.1812858E1,1.5281279E2,-6.2667255E2,2.8392606E2,2.7685322E3,7.4492773E2,5.468623E2,1.4085464E3,6.0310664E3,2.781804E3,-1.1668841E2,-2.1917485E2,3.6373245E2,-1.07222534E2,-1.6805931E2,-9.391899E1,-2.1544475E2,-2.6065336E1,7.7208026E2,-7.995319E1,-1.0764922E2,-4.1910892E1,-7.92629E0,5.0064865E2,-6.0257473E1,7.5660834E2,-1.0537734E2,-4.6221905E1,-1.7337627E1,3.2096906E2,7.482357E0,4.280086E2,-1.5261337E2,-7.758313E1,-3.928423E1,1.9809372E2,-7.827061E1,-1.5730273E1,8.359147E0,7.902878E1,1.9470264E1,3.9580957E2,3.38633E1,1.3011607E2,3.186409E2,1.1910581E2,2.2664871E2,8.6624023E2,1.9039429E2,3.3341605E2],"categories":[],"categories_nodes":[],"categories_segments":[],"categories_sizes":[],"default_left":[0,0,0,0,0,0,0,0,0,0,0,0,0,0,0,0,0,0,0,0,0,0,0,0,0,0,0,0,0,0,0,0,0,0,0,0,0,0,0,0,0,0,0,0,0,0,0,0,0,0,0,0,0,0,0,0,0,0,0,0,0,0,0,0,0,0,0,0,0,0,0,0,0,0,0,0,0,0,0,0,0,0,0,0,0,0,0,0,0,0,0,0,0],"id":21,"left_children":[1,3,5,7,9,11,13,15,17,19,21,23,25,27,-1,29,31,-1,33,35,37,39,41,43,45,47,49,51,-1,53,55,57,59,61,63,65,67,69,71,73,75,-1,77,-1,-1,79,81,83,85,-1,87,89,91,-1,-1,-1,-1,-1,-1,-1,-1,-1,-1,-1,-1,-1,-1,-1,-1,-1,-1,-1,-1,-1,-1,-1,-1,-1,-1,-1,-1,-1,-1,-1,-1,-1,-1,-1,-1,-1,-1,-1,-1],"loss_changes":[1.2369093E9,1.4199645E8,2.3336403E8,3.1925824E7,3.525983E7,1.2462576E7,5.605389E7,1.5244192E7,8.76918E6,2.488231E7,4.747206E7,1.6733792E6,8.238912E6,2.7208512E7,0E0,1.3500176E7,2.7236976E7,0E0,4.2386044E7,1.086046E8,2.2857422E7,4.3757356E7,9.0677784E7,1.804094E6,1.9460271E6,1.0439608E7,2.8313968E7,3.1563264E7,0E0,1.6977952E7,6.2919324E7,1.389752E6,3.77382E7,1.6140992E8,1.6267496E7,5.0525136E7,5.6974704E7,1.117484E6,3.1541E7,3.2915648E7,1.349232E6,0E0,5.1207028E7,0E0,0E0,9.6590375E4,1.0497979E6,8.41455E6,7.2432E6,0E0,8.964716E6,1.9990288E7,3.341312E7,0E0,0E0,0E0,0E0,0E0,0E0,0E0,0E0,0E0,0E0,0E0,0E0,0E0,0E0,0E0,0E0,0E0,0E0,0E0,0E0,0E0,0E0,0E0,0E0,0E0,0E0,0E0,0E0,0E0,0E0,0E0,0E0,0E0,0E0,0E0,0E0,0E0,0E0,0E0,0E0],"parents":[2147483647,0,0,1,1,2,2,3,3,4,4,5,5,6,6,7,7,8,8,9,9,10,10,11,11,12,12,13,13,15,15,16,16,18,18,19,19,20,20,21,21,22,22,23,23,24,24,25,25,26,26,27,27,29,29,30,30,31,31,32,32,33,33,34,34,35,35,36,36,37,37,38,38,39,39,40,40,42,42,45,45,46,46,47,47,48,48,50,50,51,51,52,52],"right_children":[2,4,6,8,10,12,14,16,18,20,22,24,26,28,-1,30,32,-1,34,36,38,40,42,44,46,48,50,52,-1,54,56,58,60,62,64,66,68,70,72,74,76,-1,78,-1,-1,80,82,84,86,-1,88,90,92,-1,-1,-1,-1,-1,-1,-1,-1,-1,-1,-1,-1,-1,-1,-1,-1,-1,-1,-1,-1,-1,-1,-1,-1,-1,-1,-1,-1,-1,-1,-1,-1,-1,-1,-1,-1,-1,-1,-1,-1],"split_conditions":[1E0,5E1,3.002E1,3.3E1,2E0,2.4E1,4.653E1,1E0,2.185E1,3.157E1,3.1825E1,2.185E1,2.5935E1,5.8E1,8.0727527E2,3.002E1,1E0,-1.361817E2,2.288E1,3.1255E1,5.8E1,5.1E1,3.212E1,2E1,2.2515E1,1.78E1,2.6125E1,3.0495E1,4.737674E2,2.5E1,3.014E1,2.9E1,1.9E1,3.5E1,3.7E1,6.4E1,1E0,5.7E1,4.015E1,1E0,3E0,6.791134E2,3.432E1,1.1812858E1,1.5281279E2,2.1E1,2E0,2.7E1,4.8E1,5.468623E2,2.5E1,3.5E1,3.4675E1,-1.1668841E2,-2.1917485E2,3.6373245E2,-1.07222534E2,-1.6805931E2,-9.391899E1,-2.1544475E2,-2.6065336E1,7.7208026E2,-7.995319E1,-1.0764922E2,-4.1910892E1,-7.92629E0,5.0064865E2,-6.0257473E1,7.5660834E2,-1.0537734E2,-4.6221905E1,-1.7337627E1,3.2096906E2,7.482357E0,4.280086E2,-1.5261337E2,-7.758313E1,-3.928423E1,1.9809372E2,-7.827061E1,-1.5730273E1,8.359147E0,7.902878E1,1.9470264E1,3.9580957E2,3.38633E1,1.3011607E2,3.186409E2,1.1910581E2,2.2664871E2,8.6624023E2,1.9039429E2,3.3341605E2],"split_indices":[4,0,2,0,3,0,2,3,2,2,2,2,2,0,0,2,5,0,2,2,0,0,2,0,2,2,2,2,0,0,2,0,0,0,0,0,1,0,2,1,3,0,2,0,0,0,3,0,0,0,0,0,2,0,0,0,0,0,0,0,0,0,0,0,0,0,0,0,0,0,0,0,0,0,0,0,0,0,0,0,0,0,0,0,0,0,0,0,0,0,0,0,0],"split_type":[0,0,0,0,0,0,0,0,0,0,0,0,0,0,0,0,0,0,0,0,0,0,0,0,0,0,0,0,0,0,0,0,0,0,0,0,0,0,0,0,0,0,0,0,0,0,0,0,0,0,0,0,0,0,0,0,0,0,0,0,0,0,0,0,0,0,0,0,0,0,0,0,0,0,0,0,0,0,0,0,0,0,0,0,0,0,0,0,0,0,0,0,0],"sum_hessian":[9.36E2,7.54E2,1.82E2,5.28E2,2.26E2,8.3E1,9.9E1,2.83E2,2.45E2,1.64E2,6.2E1,1.5E1,6.8E1,9.7E1,2E0,1.5E2,1.33E2,1.1E1,2.34E2,8.7E1,7.7E1,2.4E1,3.8E1,3E0,1.2E1,3.5E1,3.3E1,8.4E1,1.3E1,8.2E1,6.8E1,3.3E1,1E2,1E1,2.24E2,8.4E1,3E0,4.2E1,3.5E1,7E0,1.7E1,2E0,3.6E1,2E0,1E0,2E0,1E1,2E0,3.3E1,1E0,3.2E1,3E0,8.1E1,5.6E1,2.6E1,2E0,6.6E1,2.5E1,8E0,1.1E1,8.9E1,2E0,8E0,4.8E1,1.76E2,8.3E1,1E0,1E0,2E0,3.6E1,6E0,3.3E1,2E0,5E0,2E0,7E0,1E1,1.5E1,2.1E1,1E0,1E0,8E0,2E0,1E0,1E0,2E1,1.3E1,2E0,3E1,2E0,1E0,3.3E1,4.8E1],"tree_param":{"num_deleted":"0","num_feature":"6","num_nodes":"93","size_leaf_vector":"1"}},{"base_weights":[6.4603355E1,-4.4863828E2,2.1817227E3,-7.0703357E2,1.5550148E2,1.0459226E3,3.1139775E3,-9.149724E2,-4.6409995E2,-6.628762E1,7.339094E2,8.98645E2,2.1733867E2,2.9246746E3,6.926077E3,-7.7597925E2,-1.3368208E3,-5.633289E2,-1.3274872E2,2.6763977E2,-4.4217636E2,-2.601328E2,1.3522977E3,2.6301052E3,8.163068E2,1.9727332E3,3.301639E3,3.2444077E2,8.985543E2,-1.051073E3,9.6463776E2,-2.2160195E3,-1.0067747E3,-7.779322E1,-7.0579626E2,-5.0854282E2,1.5191481E3,4.1319485E1,5.010036E3,-8.873081E2,1.0179142E2,1.5494713E3,-1.0499495E3,6.338391E2,9.114713E2,1.8496729E1,3.7601904E2,5.4043506E2,1.1615E3,1.5811238E2,2.3632126E3,6.8180845E3,3.0917756E3,-9.105053E1,-2.2460664E2,-3.2186165E1,2.6717416E2,-2.5639325E2,-1.3030234E2,6.179222E2,-1.417799E2,-6.527141E1,5.834594E2,-7.870425E1,1.1645644E1,-2.3135149E1,-2.0990417E2,6.3479987E2,-2.5926285E1,-7.1430573E0,4.756162E2,-5.724458E1,7.0616785E2,-1.0613216E2,-6.3412655E1,1.25718544E2,-6.0591763E1,4.1254587E2,3.232585E-1,-1.1418982E2,-2.0957293E1,1.6911484E2,-8.5378494E1,3.1839499E1,1.472061E2,1.8922807E2,8.811901E1,6.9518364E1,2.4442833E2,1.9978458E2,8.2292816E2,1.6498285E2,3.350168E2],"categories":[],"categories_nodes":[],"categories_segments":[],"categories_sizes":[],"default_left":[0,0,0,0,0,0,0,0,0,0,0,0,0,0,0,0,0,0,0,0,0,0,0,0,0,0,0,0,0,0,0,0,0,0,0,0,0,0,0,0,0,0,0,0,0,0,0,0,0,0,0,0,0,0,0,0,0,0,0,0,0,0,0,0,0,0,0,0,0,0,0,0,0,0,0,0,0,0,0,0,0,0,0,0,0,0,0,0,0,0,0,0,0],"id":22,"left_children":[1,3,5,7,9,11,13,15,17,19,21,23,-1,25,27,29,31,33,35,37,39,41,43,45,47,49,51,-1,-1,53,55,57,59,61,63,65,67,69,71,73,75,77,79,-1,81,-1,-1,83,85,-1,87,89,91,-1,-1,-1,-1,-1,-1,-1,-1,-1,-1,-1,-1,-1,-1,-1,-1,-1,-1,-1,-1,-1,-1,-1,-1,-1,-1,-1,-1,-1,-1,-1,-1,-1,-1,-1,-1,-1,-1,-1,-1],"loss_changes":[1.0191172E9,1.1797062E8,1.9051354E8,2.6297936E7,2.9169244E7,1.1995112E7,5.190765E7,1.561472E7,8.013604E6,2.082907E7,3.9078136E7,8.687988E6,