{"learner":{"attributes":{"scikit_learn":"{\"_estimator_type\": \"regressor\"}"},"feature_names":["age","sex","bmi","children","smoker","region"],"feature_types":["int","int","float","int","int","int"],"gradient_booster":{"model":{"gbtree_model_param":{"num_parallel_tree":"1","num_trees":"100"},"iteration_indptr":[0,1,2,3,4,5,6,7,8,9,10,11,12,13,14,15,16,17,18,19,20,21,22,23,24,25,26,27,28,29,30,31,32,33,34,35,36,37,38,39,40,41,42,43,44,45,46,47,48,49,50,51,52,53,54,55,56,57,58,59,60,61,62,63,64,65,66,67,68,69,70,71,72,73,74,75,76,77,78,79,80,81,82,83,84,85,86,87,88,89,90,91,92,93,94,95,96,97,98,99,100],"tree_info":[0,0,0,0,0,0,0,0,0,0,0,0,0,0,0,0,0,0,0,0,0,0,0,0,0,0,0,0,0,0,0,0,0,0,0,0,0,0,0,0,0,0,0,0,0,0,0,0,0,0,0,0,0,0,0,0,0,0,0,0,0,0,0,0,0,0,0,0,0,0,0,0,0,0,0,0,0,0,0,0,0,0,0,0,0,0,0,0,0,0,0,0,0,0,0,0,0,0,0,0],"trees":[{"base_weights":[3.2308897E-5,-4.736631E3,1.9022512E4,-7.919023E3,-5.635153E2,8.223828E3,2.91731E4,-9.356763E3,-6.818665E3,-2.565393E3,9.761072E2,4.73221E3,1.2847509E4,2.224135E3,3.10524E3,-1.080201E3,-7.949541E3,-6.9978857E3,-3.816206E3,-3.2954915E3,-1.6989326E3,-7.4757904E1,2.387075E3,3.607079E3,6.328507E2,6.0748694E2,1.324315E3,-2.026198E2,-8.1122134E3,-8.0924844E3,-6.5271216E3,-5.624872E3,3.01601E3,-3.623689E3,-1.4262498E3,-3.8637297E3,-9.440211E2,-1.3515657E3,8.042156E2,1.1776915E3,5.280457E3,9.251657E2,4.148733E2,4.3137247E2,-4.6176544E2,-8.545125E2,-6.083183E2,-9.024469E2,-6.915273E2,-6.770823E2,-5.5599207E2,-6.332019E2,1.4304439E2,-3.084238E2,6.0775055E2,-2.6588202E2,-4.2138937E2,1.5004122E1,-2.1434949E2,-4.0147232E2,-7.23917E1,8.6583545E2,-1.3092357E2,2.1617811E1,-1.6540086E2,1.3902765E2,1.7470844E1,3.7514996E2,6.1694622E1,3.2918378E2,8.0081055E2,-6.923926E0,1.1024398E2],"categories":[],"categories_nodes":[],"categories_segments":[],"categories_sizes":[],"default_left":[0,0,0,0,0,0,0,0,0,0,0,0,0,0,0,0,0,0,0,0,0,0,0,0,0,0,0,0,0,0,0,0,0,0,0,0,0,0,0,0,0,0,0,0,0,0,0,0,0,0,0,0,0,0,0,0,0,0,0,0,0,0,0,0,0,0,0,0,0,0,0,0,0],"id":0,"left_children":[1,3,5,7,9,11,13,15,17,19,21,23,25,-1,-1,-1,27,29,31,33,35,37,39,41,-1,-1,-1,43,45,47,49,51,53,55,57,59,61,63,65,67,69,71,-1,-1,-1,-1,-1,-1,-1,-1,-1,-1,-1,-1,-1,-1,-1,-1,-1,-1,-1,-1,-1,-1,-1,-1,-1,-1,-1,-1,-1,-1,-1],"loss_changes":[8.451626E10,9.969185E9,2.0257718E10,6.1014426E8,1.0072805E9,1.4244623E9,5.599232E8,2.8427674E8,1.0512896E8,8.423059E7,2.744848E8,7.415885E7,2.40512E7,0E0,0E0,0E0,1.1933696E8,6.5698816E7,2.1467986E8,4.1456256E7,1.0584597E8,1.21170936E8,2.7021875E8,4.555248E7,0E0,0E0,0E0,7.973874E7,3.058688E7,8.90752E6,1.48224E6,7.391648E7,9.3448E7,2.5242176E7,1.5019238E7,5.153248E6,1.9018915E8,2.122028E7,2.3368596E7,7.995083E7,9.839642E7,1.310307E6,0E0,0E0,0E0,0E0,0E0,0E0,0E0,0E0,0E0,0E0,0E0,0E0,0E0,0E0,0E0,0E0,0E0,0E0,0E0,0E0,0E0,0E0,0E0,0E0,0E0,0E0,0E0,0E0,0E0,0E0,0E0],"parents":[2147483647,0,0,1,1,2,2,3,3,4,4,5,5,6,6,7,7,8,8,9,9,10,10,11,11,12,12,16,16,17,17,18,18,19,19,20,20,21,21,22,22,23,23,27,27,28,28,29,29,30,30,31,31,32,32,33,33,34,34,35,35,36,36,37,37,38,38,39,39,40,40,41,41],"right_children":[2,4,6,8,10,12,14,16,18,20,22,24,26,-1,-1,-1,28,30,32,34,36,38,40,42,-1,-1,-1,44,46,48,50,52,54,56,58,60,62,64,66,68,70,72,-1,-1,-1,-1,-1,-1,-1,-1,-1,-1,-1,-1,-1,-1,-1,-1,-1,-1,-1,-1,-1,-1,-1,-1,-1,-1,-1,-1,-1,-1,-1],"split_conditions":[1E0,4.3E1,3.002E1,1E0,5.2E1,4.1E1,2.8E1,2.3E1,4E0,2E0,1E0,3E1,2.109E1,2.224135E3,3.10524E3,-1.080201E3,1.919E1,2.7E1,3E0,3E0,2.5175E1,5.8E1,5.9E1,2.1755E1,6.328507E2,6.0748694E2,1.324315E3,2.4E1,3.7E1,2E0,3E0,4E1,2.8595E1,2.964E1,2.7835E1,4E0,2.541E1,2.4985E1,1E0,5.3E1,3.325E1,1.748E1,4.148733E2,4.3137247E2,-4.6176544E2,-8.545125E2,-6.083183E2,-9.024469E2,-6.915273E2,-6.770823E2,-5.5599207E2,-6.332019E2,1.4304439E2,-3.084238E2,6.0775055E2,-2.6588202E2,-4.2138937E2,1.5004122E1,-2.1434949E2,-4.0147232E2,-7.23917E1,8.6583545E2,-1.3092357E2,2.1617811E1,-1.6540086E2,1.3902765E2,1.7470844E1,3.7514996E2,6.1694622E1,3.2918378E2,8.0081055E2,-6.923926E0,1.1024398E2],"split_indices":[4,0,2,3,0,0,0,0,3,5,3,0,2,0,0,0,2,0,5,3,2,0,0,2,0,0,0,0,0,5,5,0,2,2,2,3,2,2,1,0,2,2,0,0,0,0,0,0,0,0,0,0,0,0,0,0,0,0,0,0,0,0,0,0,0,0,0,0,0,0,0,0,0],"split_type":[0,0,0,0,0,0,0,0,0,0,0,0,0,0,0,0,0,0,0,0,0,0,0,0,0,0,0,0,0,0,0,0,0,0,0,0,0,0,0,0,0,0,0,0,0,0,0,0,0,0,0,0,0,0,0,0,0,0,0,0,0,0,0,0,0,0,0,0,0,0,0,0,0],"sum_hessian":[9.36E2,7.5E2,1.86E2,4.25E2,3.25E2,9.1E1,9.5E1,1.81E2,2.44E2,1.41E2,1.84E2,5.3E1,3.8E1,2.3E1,7.2E1,8.6E1,9.5E1,2.29E2,1.5E1,7.5E1,6.6E1,1.06E2,7.8E1,3.3E1,2E1,3E0,3.5E1,2E0,9.3E1,6.4E1,1.65E2,1.2E1,3E0,6.3E1,1.2E1,1.6E1,5E1,4.3E1,6.3E1,5.6E1,2.2E1,6E0,2.7E1,1E0,1E0,7.4E1,1.9E1,3.2E1,3.2E1,1.27E2,3.8E1,1.1E1,1E0,1E0,2E0,2.6E1,3.7E1,4E0,8E0,1.5E1,1E0,1E0,4.9E1,7E0,3.6E1,3.2E1,3.1E1,9E0,4.7E1,1.4E1,8E0,1E0,5E0],"tree_param":{"num_deleted":"0","num_feature":"6","num_nodes":"73","size_leaf_vector":"1"}},{"base_weights":[4.028819E0,-4.2691426E3,1.7165246E4,-7.1402456E3,-5.0423737E2,7.4349546E3,2.6311305E4,-8.435226E3,-6.1491167E3,-2.313259E3,8.8703467E2,4.2803047E3,1.1612292E4,2.2465618E3,2.9541543E3,-9.734225E2,-7.170141E3,-6.3103887E3,-3.4465122E3,-2.9776082E3,-1.5251428E3,-6.716332E1,2.1682012E3,3.2616123E3,5.725792E2,5.619254E2,1.1955621E3,-1.924886E2,-7.316554E3,-7.3077583E3,-5.881838E3,-5.100089E3,2.7892405E3,-4.011383E3,-2.4233394E3,-2.9056123E3,-5.2068567E2,-1.2196774E3,7.262395E2,1.0675864E3,4.8015415E3,8.4740906E2,3.748677E2,4.0980386E2,-4.3867715E2,-7.702006E2,-5.505281E2,-8.1832446E2,-6.2108246E2,-6.128298E2,-5.03433E2,-5.751584E2,1.358922E2,-2.930026E2,5.672338E2,-4.2863434E2,-5.6622627E1,-1.00203575E2,-3.2803403E2,-3.8670132E2,-1.8733155E0,3.1754245E2,-1.2663352E2,-4.0832485E1,-1.8199724E2,1.2554622E2,1.5778369E1,1.5320363E2,-1.5797058E2,5.751557E2,2.3117441E1,-6.5777345E0,1.0105697E2],"categories":[],"categories_nodes":[],"categories_segments":[],"categories_sizes":[],"default_left":[0,0,0,0,0,0,0,0,0,0,0,0,0,0,0,0,0,0,0,0,0,0,0,0,0,0,0,0,0,0,0,0,0,0,0,0,0,0,0,0,0,0,0,0,0,0,0,0,0,0,0,0,0,0,0,0,0,0,0,0,0,0,0,0,0,0,0,0,0,0,0,0,0],"id":1,"left_children":[1,3,5,7,9,11,13,15,17,19,21,23,25,-1,-1,-1,27,29,31,33,35,37,39,41,-1,-1,-1,43,45,47,49,51,53,55,57,59,61,63,65,67,69,71,-1,-1,-1,-1,-1,-1,-1,-1,-1,-1,-1,-1,-1,-1,-1,-1,-1,-1,-1,-1,-1,-1,-1,-1,-1,-1,-1,-1,-1,-1,-1],"loss_changes":[6.8786135E10,8.1142825E9,1.6446218E10,4.948992E8,8.225422E8,1.1626752E9,5.288919E8,2.2929306E8,8.503501E7,6.980768E7,2.2630558E8,6.0840064E7,1.3064192E7,0E0,0E0,0E0,9.666662E7,5.532467E7,1.7920613E8,3.382624E7,9.139078E7,9.872743E7,2.238391E8,3.680304E7,0E0,0E0,0E0,7.1964216E7,2.3225856E7,1.1597824E7,3.821568E6,6.2520064E7,8.2576904E7,2.1255008E7,6.005203E7,7.764014E7,1.1426125E8,2.0687092E7,1.9055652E7,7.250364E7,9.853456E7,1.109445E6,0E0,0E0,0E0,0E0,0E0,0E0,0E0,0E0,0E0,0E0,0E0,0E0,0E0,0E0,0E0,0E0,0E0,0E0,0E0,0E0,0E0,0E0,0E0,0E0,0E0,0E0,0E0,0E0,0E0,0E0,0E0],"parents":[2147483647,0,0,1,1,2,2,3,3,4,4,5,5,6,6,7,7,8,8,9,9,10,10,11,11,12,12,16,16,17,17,18,18,19,19,20,20,21,21,22,22,23,23,27,27,28,28,29,29,30,30,31,31,32,32,33,33,34,34,35,35,36,36,37,37,38,38,39,39,40,40,41,41],"right_children":[2,4,6,8,10,12,14,16,18,20,22,24,26,-1,-1,-1,28,30,32,34,36,38,40,42,-1,-1,-1,44,46,48,50,52,54,56,58,60,62,64,66,68,70,72,-1,-1,-1,-1,-1,-1,-1,-1,-1,-1,-1,-1,-1,-1,-1,-1,-1,-1,-1,-1,-1,-1,-1,-1,-1,-1,-1,-1,-1,-1,-1],"split_conditions":[1E0,4.3E1,3.002E1,1E0,5.2E1,4.1E1,4.2E1,2.3E1,4E0,2E0,1E0,3E1,2.109E1,2.2465618E3,2.9541543E3,-9.734225E2,1.919E1,2.7E1,3E0,4.6E1,2.75E1,5.8E1,5.9E1,2.1755E1,5.725792E2,5.619254E2,1.1955621E3,2.4E1,3.7E1,2E0,3.9E1,4E1,2.8595E1,4E0,2.964E1,5E1,2.98E1,2E0,1E0,3.8095E1,3.6955E1,1.748E1,3.748677E2,4.0980386E2,-4.3867715E2,-7.702006E2,-5.505281E2,-8.1832446E2,-6.2108246E2,-6.128298E2,-5.03433E2,-5.751584E2,1.358922E2,-2.930026E2,5.672338E2,-4.2863434E2,-5.6622627E1,-1.00203575E2,-3.2803403E2,-3.8670132E2,-1.8733155E0,3.1754245E2,-1.2663352E2,-4.0832485E1,-1.8199724E2,1.2554622E2,1.5778369E1,1.5320363E2,-1.5797058E2,5.751557E2,2.3117441E1,-6.5777345E0,1.0105697E2],"split_indices":[4,0,2,3,0,0,0,0,3,5,3,0,2,0,0,0,2,0,5,0,2,0,0,2,0,0,0,0,0,3,0,0,2,3,2,0,2,5,1,2,2,2,0,0,0,0,0,0,0,0,0,0,0,0,0,0,0,0,0,0,0,0,0,0,0,0,0,0,0,0,0,0,0],"split_type":[0,0,0,0,0,0,0,0,0,0,0,0,0,0,0,0,0,0,0,0,0,0,0,0,0,0,0,0,0,0,0,0,0,0,0,0,0,0,0,0,0,0,0,0,0,0,0,0,0,0,0,0,0,0,0,0,0,0,0,0,0,0,0,0,0,0,0,0,0,0,0,0,0],"sum_hessian":[9.36E2,7.5E2,1.86E2,4.25E2,3.25E2,9.1E1,9.5E1,1.81E2,2.44E2,1.41E2,1.84E2,5.3E1,3.8E1,4.7E1,4.8E1,8.6E1,9.5E1,2.29E2,1.5E1,7.5E1,6.6E1,1.06E2,7.8E1,3.3E1,2E1,3E0,3.5E1,2E0,9.3E1,6.4E1,1.65E2,1.2E1,3E0,2.4E1,5.1E1,2.7E1,3.9E1,4.3E1,6.3E1,5.6E1,2.2E1,6E0,2.7E1,1E0,1E0,7.4E1,1.9E1,3.2E1,3.2E1,1.23E2,4.2E1,1.1E1,1E0,1E0,2E0,2.2E1,2E0,2E1,3.1E1,2E1,7E0,6E0,3.3E1,1.9E1,2.4E1,3.2E1,3.1E1,4.8E1,8E0,1.8E1,4E0,1E0,5E0],"tree_param":{"num_deleted":"0","num_feature":"6","num_nodes":"73","size_leaf_vector":"1"}},{"base_weights":[6.1415977E0,-3.8497422E3,1.5491503E4,-6.438061E3,-4.5565155E2,6.721887E3,2.3734348E4,-7.6044673E3,-5.54531E3,-2.089758E3,8.010987E2,3.8715688E3,1.0496126E4,2.0265858E3,2.6647678E3,-8.7719904E2,-6.4671855E3,-5.6904614E3,-3.1121758E3,-2.691867E3,-1.3755787E3,-6.120873E1,1.9588936E3,2.9492551E3,5.1804785E2,5.1978094E2,1.0793269E3,-1.8286426E2,-6.598949E3,-6.5991274E3,-5.3003784E3,-4.62387E3,2.5788745E3,-2.980218E3,-1.0652261E3,-3.273263E3,-6.649008E2,-1.1027743E3,6.55824E2,1.1794624E3,5.2058354E3,7.7616547E2,3.387197E3,3.893137E2,-4.1674332E2,-6.858116E2,-4.4565967E2,-7.433544E2,-5.564738E2,-5.5191925E2,-4.4463135E2,-5.224355E2,1.2909756E2,-2.7835245E2,5.294182E2,-3.8730453E2,-2.4541153E2,-1.7525095E2,3.8492912E1,-4.0934943E2,-9.505516E1,-1.3610326E2,3.15992E2,3.0357275E1,-1.3770445E2,1.5863037E2,3.3860966E1,1.572257E2,-1.4392876E2,6.298287E2,6.270232E1,-6.2488284E0,9.263558E1,3.600039E2,2.0067691E2],"categories":[],"categories_nodes":[],"categories_segments":[],"categories_sizes":[],"default_left":[0,0,0,0,0,0,0,0,0,0,0,0,0,0,0,0,0,0,0,0,0,0,0,0,0,0,0,0,0,0,0,0,0,0,0,0,0,0,0,0,0,0,0,0,0,0,0,0,0,0,0,0,0,0,0,0,0,0,0,0,0,0,0,0,0,0,0,0,0,0,0,0,0,0,0],"id":2,"left_children":[1,3,5,7,9,11,13,15,17,19,21,23,25,-1,-1,-1,27,29,31,33,35,37,39,41,-1,-1,-1,43,45,47,49,51,53,55,57,59,61,63,65,67,69,71,73,-1,-1,-1,-1,-1,-1,-1,-1,-1,-1,-1,-1,-1,-1,-1,-1,-1,-1,-1,-1,-1,-1,-1,-1,-1,-1,-1,-1,-1,-1,-1,-1],"loss_changes":[5.6007676E10,6.594593E9,1.3358051E10,4.0143053E8,6.711685E8,9.490798E8,4.3003085E8,1.849303E8,6.881741E7,5.735904E7,1.8481926E8,4.9911616E7,5.298176E6,0E0,0E0,0E0,7.828557E7,4.6546944E7,1.4957443E8,3.2472704E7,8.818265E7,8.063473E7,1.9379053E8,2.9728352E7,0E0,0E0,0E0,6.4947704E7,2.1627136E7,1.4736128E7,6.48192E6,5.29176E7,7.297874E7,2.0557056E7,1.363127E7,3.0401808E7,1.3742971E8,1.7389672E7,1.8353198E7,6.912392E7,7.108282E7,9.395905E5,1.002304E6,0E0,0E0,0E0,0E0,0E0,0E0,0E0,0E0,0E0,0E0,0E0,0E0,0E0,0E0,0E0,0E0,0E0,0E0,0E0,0E0,0E0,0E0,0E0,0E0,0E0,0E0,0E0,0E0,0E0,0E0,0E0,0E0],"parents":[2147483647,0,0,1,1,2,2,3,3,4,4,5,5,6,6,7,7,8,8,9,9,10,10,11,11,12,12,16,16,17,17,18,18,19,19,20,20,21,21,22,22,23,23,27,27,28,28,29,29,30,30,31,31,32,32,33,33,34,34,35,35,36,36,37,37,38,38,39,39,40,40,41,41,42,42],"right_children":[2,4,6,8,10,12,14,16,18,20,22,24,26,-1,-1,-1,28,30,32,34,36,38,40,42,-1,-1,-1,44,46,48,50,52,54,56,58,60,62,64,66,68,70,72,74,-1,-1,-1,-1,-1,-1,-1,-1,-1,-1,-1,-1,-1,-1,-1,-1,-1,-1,-1,-1,-1,-1,-1,-1,-1,-1,-1,-1,-1,-1,-1,-1],"split_conditions":[1E0,4.3E1,3.002E1,1E0,5.2E1,4.1E1,4.2E1,2.3E1,4E0,2E0,1E0,3E1,2.109E1,2.0265858E3,2.6647678E3,-8.7719904E2,1.919E1,2.7E1,3E0,3E0,1E0,5.8E1,6.1E1,2.1755E1,5.1804785E2,5.1978094E2,1.0793269E3,2.4E1,3.591E1,2E0,3E0,4E1,2.8595E1,4.6E1,5E1,3E0,3.48E1,2.4985E1,2.585E1,3.8095E1,3.6955E1,1.748E1,3E0,3.893137E2,-4.1674332E2,-6.858116E2,-4.4565967E2,-7.433544E2,-5.564738E2,-5.5191925E2,-4.4463135E2,-5.224355E2,1.2909756E2,-2.7835245E2,5.294182E2,-3.8730453E2,-2.4541153E2,-1.7525095E2,3.8492912E1,-4.0934943E2,-9.505516E1,-1.3610326E2,3.15992E2,3.0357275E1,-1.3770445E2,1.5863037E2,3.3860966E1,1.572257E2,-1.4392876E2,6.298287E2,6.270232E1,-6.2488284E0,9.263558E1,3.600039E2,2.0067691E2],"split_indices":[4,0,2,3,0,0,0,0,3,5,3,0,2,0,0,0,2,0,5,3,3,0,0,2,0,0,0,0,2,5,5,0,2,0,0,5,2,2,2,2,2,2,5,0,0,0,0,0,0,0,0,0,0,0,0,0,0,0,0,0,0,0,0,0,0,0,0,0,0,0,0,0,0,0,0],"split_type":[0,0,0,0,0,0,0,0,0,0,0,0,0,0,0,0,0,0,0,0,0,0,0,0,0,0,0,0,0,0,0,0,0,0,0,0,0,0,0,0,0,0,0,0,0,0,0,0,0,0,0,0,0,0,0,0,0,0,0,0,0,0,0,0,0,0,0,0,0,0,0,0,0,0,0],"sum_hessian":[9.36E2,7.5E2,1.86E2,4.25E2,3.25E2,9.1E1,9.5E1,1.81E2,2.44E2,1.41E2,1.84E2,5.3E1,3.8E1,4.7E1,4.8E1,8.6E1,9.5E1,2.29E2,1.5E1,7.5E1,6.6E1,1.06E2,7.8E1,3.3E1,2E1,3E0,3.5E1,2E0,9.3E1,6.4E1,1.65E2,1.2E1,3E0,6.3E1,1.2E1,1.7E1,4.9E1,4.3E1,6.3E1,6.4E1,1.4E1,6E0,2.7E1,1E0,1E0,8.1E1,1.2E1,3.2E1,3.2E1,1.27E2,3.8E1,1.1E1,1E0,1E0,2E0,2.1E1,4.2E1,8E0,4E0,1.2E1,5E0,4.2E1,7E0,7E0,3.6E1,1.5E1,4.8E1,5.6E1,8E0,1.1E1,3E0,1E0,5E0,2.2E1,5E0],"tree_param":{"num_deleted":"0","num_feature":"6","num_nodes":"75","size_leaf_vector":"1"}},{"base_weights":[8.385263E0,-3.47113E3,1.3982222E4,-5.804759E3,-4.1101596E2,6.0797446E3,2.1409781E4,-6.8552075E3,-5.000733E3,-1.8884866E3,7.252642E2,3.5059883E3,9.487517E3,1.6014788E3,2.2890193E3,-7.904874E2,-5.832539E3,-4.398274E3,-5.5916416E3,-3.3191708E2,-1.6127548E3,-5.429234E1,1.7719387E3,2.673361E3,4.6870996E2,7.2818057E3,1.0562678E4,-1.7372102E2,-5.9510913E3,-5.205578E3,-3.4234795E3,-6.722595E3,-4.8727637E3,6.9400714E2,-1.7418623E3,-9.949368E2,5.932491E2,1.0617208E3,4.7314204E3,7.108898E2,3.0685017E3,8.962607E2,5.377065E2,1.0779452E3,2.7884473E2,3.69848E2,-3.9590616E2,-6.2846204E2,-4.4028036E2,-6.85797E2,-4.3565186E2,-1.4525566E2,-4.6093896E2,-7.236503E2,-2.9724408E2,-5.0197638E2,-1.7520158E2,-2.5144392E2,-7.510378E1,-2.6392475E1,-1.539949E2,4.5361397E1,2.5743723E2,-1.6471855E2,1.4170575E2,3.5260538E2,1.0803276E3,-5.936377E0,8.491594E1,2.4729529E2,3.656487E2],"categories":[],"categories_nodes":[],"categories_segments":[],"categories_sizes":[],"default_left":[0,0,0,0,0,0,0,0,0,0,0,0,0,0,0,0,0,0,0,0,0,0,0,0,0,0,0,0,0,0,0,0,0,0,0,0,0,0,0,0,0,0,0,0,0,0,0,0,0,0,0,0,0,0,0,0,0,0,0,0,0,0,0,0,0,0,0,0,0,0,0],"id":3,"left_children":[1,3,5,7,9,11,13,15,17,19,21,23,25,-1,-1,-1,27,29,31,-1,33,35,37,39,-1,41,43,45,47,49,51,53,55,-1,57,59,61,63,65,67,69,-1,-1,-1,-1,-1,-1,-1,-1,-1,-1,-1,-1,-1,-1,-1,-1,-1,-1,-1,-1,-1,-1,-1,-1,-1,-1,-1,-1,-1,-1],"loss_changes":[4.560751E10,5.360633E9,1.0846007E10,3.255132E8,5.4866515E8,7.736484E8,4.0015872E8,1.4926438E8,6.2626304E7,5.0663904E7,1.5104544E8,4.0574656E7,1.5572992E7,0E0,0E0,0E0,6.336973E7,8.133504E7,6.480435E7,0E0,1.4570093E8,6.5764616E7,1.6102486E8,2.4184016E7,0E0,3.03136E6,1.0388224E7,5.8615308E7,2.0871424E7,6.412275E7,1.3354483E8,6.3288064E7,2.6528896E7,0E0,8.997018E7,1.7123628E7,1.653683E7,6.4901456E7,7.168925E7,7.959275E5,7.62544E5,0E0,0E0,0E0,0E0,0E0,0E0,0E0,0E0,0E0,0E0,0E0,0E0,0E0,0E0,0E0,0E0,0E0,0E0,0E0,0E0,0E0,0E0,0E0,0E0,0E0,0E0,0E0,0E0,0E0,0E0],"parents":[2147483647,0,0,1,1,2,2,3,3,4,4,5,5,6,6,7,7,8,8,9,9,10,10,11,11,12,12,16,16,17,17,18,18,20,20,21,21,22,22,23,23,25,25,26,26,27,27,28,28,29,29,30,30,31,31,32,32,34,34,35,35,36,36,37,37,38,38,39,39,40,40],"right_children":[2,4,6,8,10,12,14,16,18,20,22,24,26,-1,-1,-1,28,30,32,-1,34,36,38,40,-1,42,44,46,48,50,52,54,56,-1,58,60,62,64,66,68,70,-1,-1,-1,-1,-1,-1,-1,-1,-1,-1,-1,-1,-1,-1,-1,-1,-1,-1,-1,-1,-1,-1,-1,-1,-1,-1,-1,-1,-1,-1],"split_conditions":[1E0,4.3E1,3.002E1,1E0,5.2E1,4.1E1,2.8E1,2.3E1,1E0,2.409E1,1E0,3E1,2.5935E1,1.6014788E3,2.2890193E3,-7.904874E2,1.919E1,2E0,2.9E1,-3.3191708E2,2.413E1,5.8E1,6.1E1,2.1755E1,4.6870996E2,1E0,2.9925E1,2.4E1,3.7E1,2.8E1,2.9E1,3.5245E1,4E0,6.9400714E2,2E0,2E0,4.1895E1,2.376E1,4E0,1.748E1,2.793E1,8.962607E2,5.377065E2,1.0779452E3,2.7884473E2,3.69848E2,-3.9590616E2,-6.2846204E2,-4.4028036E2,-6.85797E2,-4.3565186E2,-1.4525566E2,-4.6093896E2,-7.236503E2,-2.9724408E2,-5.0197638E2,-1.7520158E2,-2.5144392E2,-7.510378E1,-2.6392475E1,-1.539949E2,4.5361397E1,2.5743723E2,-1.6471855E2,1.4170575E2,3.5260538E2,1.0803276E3,-5.936377E0,8.491594E1,2.4729529E2,3.656487E2],"split_indices":[4,0,2,3,0,0,0,0,1,2,3,0,2,0,0,0,2,5,0,0,2,0,0,2,0,3,2,0,0,0,0,2,3,0,5,5,2,2,3,2,2,0,0,0,0,0,0,0,0,0,0,0,0,0,0,0,0,0,0,0,0,0,0,0,0,0,0,0,0,0,0],"split_type":[0,0,0,0,0,0,0,0,0,0,0,0,0,0,0,0,0,0,0,0,0,0,0,0,0,0,0,0,0,0,0,0,0,0,0,0,0,0,0,0,0,0,0,0,0,0,0,0,0,0,0,0,0,0,0,0,0,0,0,0,0,0,0,0,0,0,0,0,0,0,0],"sum_hessian":[9.36E2,7.5E2,1.86E2,4.25E2,3.25E2,9.1E1,9.5E1,1.81E2,2.44E2,1.41E2,1.84E2,5.3E1,3.8E1,2.3E1,7.2E1,8.6E1,9.5E1,1.25E2,1.19E2,2.1E1,1.2E2,1.06E2,7.8E1,3.3E1,2E1,1.5E1,2.3E1,2E0,9.3E1,6.6E1,5.9E1,4.3E1,7.6E1,1E0,1.19E2,4.3E1,6.3E1,6.4E1,1.4E1,6E0,2.7E1,6E0,9E0,2.2E1,1E0,1E0,1E0,7.4E1,1.9E1,2E1,4.6E1,2.3E1,3.6E1,3.7E1,6E0,7.2E1,4E0,6.6E1,5.3E1,1.9E1,2.4E1,6E1,3E0,7E0,5.7E1,1.3E1,1E0,1E0,5E0,1.6E1,1.1E1],"tree_param":{"num_deleted":"0","num_feature":"6","num_nodes":"71","size_leaf_vector":"1"}},{"base_weights":[1.1921067E1,-3.129001E3,1.2625935E4,-5.23675E3,-3.6510492E2,5.51472E3,1.9309328E4,-6.180046E3,-4.514642E3,-1.6993875E3,6.610206E2,3.1768828E3,8.610323E3,1.6634713E3,2.2219097E3,-7.123473E2,-5.2606895E3,-4.643411E3,-2.3814214E3,-2.3347192E3,-1.1921041E3,-4.771898E1,1.6125918E3,2.0244666E3,3.848891E3,6.643248E3,9.562942E3,-1.6503484E2,-5.367352E3,-4.954518E3,-3.8125912E2,-3.7025703E3,2.5076682E3,-3.3229077E3,-1.708143E3,-1.7788655E3,-4.8132495E2,-7.553521E2,6.875177E2,7.4695496E2,3.687753E3,5.0087027E2,2.44312E3,2.4079117E2,4.45993E2,3.3052524E2,7.159305E2,9.7483734E2,2.6490256E2,3.5135562E2,-3.7611084E2,-5.589704E2,-3.5519528E2,-4.360464E2,-5.509407E2,-4.2518268E2,1.4442525E2,-2.5567476E2,5.0480563E2,-3.604516E2,-2.44014E1,5.661499E2,-2.458695E2,-4.2544704E1,-2.464239E2,-1.797371E2,2.1877925E2,-9.574325E1,3.066517E2,1.7998398E2,2.8101704E1,3.190641E2,2.2229216E1,1.8042503E2,6.4171735E2,-5.6395507E0,6.2360256E1,3.2664047E2,1.5401805E2],"categories":[],"categories_nodes":[],"categories_segments":[],"categories_sizes":[],"default_left":[0,0,0,0,0,0,0,0,0,0,0,0,0,0,0,0,0,0,0,0,0,0,0,0,0,0,0,0,0,0,0,0,0,0,0,0,0,0,0,0,0,0,0,0,0,0,0,0,0,0,0,0,0,0,0,0,0,0,0,0,0,0,0,0,0,0,0,0,0,0,0,0,0,0,0,0,0,0,0],"id":4,"left_children":[1,3,5,7,9,11,13,15,17,19,21,23,25,-1,-1,-1,27,29,31,33,35,37,39,41,43,45,47,49,51,53,-1,55,57,59,61,63,65,67,69,71,73,75,77,-1,-1,-1,-1,-1,-1,-1,-1,-1,-1,-1,-1,-1,-1,-1,-1,-1,-1,-1,-1,-1,-1,-1,-1,-1,-1,-1,-1,-1,-1,-1,-1,-1,-1,-1,-1],"loss_changes":[3.7163102E10,4.3731144E9,8.781072E9,2.6227405E8,4.4746346E8,6.384517E8,3.7751194E8,1.2038246E8,5.6241664E7,4.29824E7,1.24843944E8,3.402739E7,9.552128E6,0E0,0E0,0E0,5.1291904E7,4.0559104E7,1.1263228E8,3.2712896E7,3.2925472E7,5.618905E7,1.3915595E8,1.2809208E7,1.8317216E7,3.898176E6,4.945664E6,5.2900316E7,1.8089216E7,3.003648E7,0E0,4.2890704E7,6.436893E7,1.90624E7,2.3517189E8,3.9765856E7,1.3741418E8,4.5413824E7,2.345868E7,7.237108E7,1.0666182E8,4.4553538E5,7.606544E6,0E0,0E0,0E0,0E0,0E0,0E0,0E0,0E0,0E0,0E0,0E0,0E0,0E0,0E0,0E0,0E0,0E0,0E0,0E0,0E0,0E0,0E0,0E0,0E0,0E0,0E0,0E0,0E0,0E0,0E0,0E0,0E0,0E0,0E0,0E0,0E0],"parents":[2147483647,0,0,1,1,2,2,3,3,4,4,5,5,6,6,7,7,8,8,9,9,10,10,11,11,12,12,16,16,17,17,18,18,19,19,20,20,21,21,22,22,23,23,24,24,25,25,26,26,27,27,28,28,29,29,31,31,32,32,33,33,34,34,35,35,36,36,37,37,38,38,39,39,40,40,41,41,42,42],"right_children":[2,4,6,8,10,12,14,16,18,20,22,24,26,-1,-1,-1,28,30,32,34,36,38,40,42,44,46,48,50,52,54,-1,56,58,60,62,64,66,68,70,72,74,76,78,-1,-1,-1,-1,-1,-1,-1,-1,-1,-1,-1,-1,-1,-1,-1,-1,-1,-1,-1,-1,-1,-1,-1,-1,-1,-1,-1,-1,-1,-1,-1,-1,-1,-1,-1,-1],"split_conditions":[1E0,4.3E1,3.002E1,1E0,5.2E1,4.1E1,4.4E1,2.3E1,4E0,4.7E1,1E0,2.527E1,2.5935E1,1.6634713E3,2.2219097E3,-7.123473E2,1.919E1,3.7E1,3E0,2.755E1,2E0,5.9E1,5.9E1,2E1,2.1E1,4.5E1,2.9925E1,2.4E1,3.591E1,1E0,-3.8125912E2,4E1,2.8595E1,4E0,2.77E1,2.964E1,3.168E1,4.1895E1,2.585E1,5.3E1,3.325E1,1.748E1,2E0,2.4079117E2,4.45993E2,3.3052524E2,7.159305E2,9.7483734E2,2.6490256E2,3.5135562E2,-3.7611084E2,-5.589704E2,-3.5519528E2,-4.360464E2,-5.509407E2,-4.2518268E2,1.4442525E2,-2.5567476E2,5.0480563E2,-3.604516E2,-2.44014E1,5.661499E2,-2.458695E2,-4.2544704E1,-2.464239E2,-1.797371E2,2.1877925E2,-9.574325E1,3.066517E2,1.7998398E2,2.8101704E1,3.190641E2,2.2229216E1,1.8042503E2,6.4171735E2,-5.6395507E0,6.2360256E1,3.2664047E2,1.5401805E2],"split_indices":[4,0,2,3,0,0,0,0,3,0,3,2,2,0,0,0,2,0,5,2,5,0,0,0,0,0,2,0,2,1,0,0,2,3,2,2,2,2,2,0,2,2,5,0,0,0,0,0,0,0,0,0,0,0,0,0,0,0,0,0,0,0,0,0,0,0,0,0,0,0,0,0,0,0,0,0,0,0,0],"split_type":[0,0,0,0,0,0,0,0,0,0,0,0,0,0,0,0,0,0,0,0,0,0,0,0,0,0,0,0,0,0,0,0,0,0,0,0,0,0,0,0,0,0,0,0,0,0,0,0,0,0,0,0,0,0,0,0,0,0,0,0,0,0,0,0,0,0,0,0,0,0,0,0,0,0,0,0,0,0,0],"sum_hessian":[9.36E2,7.5E2,1.86E2,4.25E2,3.25E2,9.1E1,9.5E1,1.81E2,2.44E2,1.41E2,1.84E2,5.3E1,3.8E1,5.3E1,4.2E1,8.6E1,9.5E1,2.29E2,1.5E1,6.1E1,8E1,1.06E2,7.8E1,2.1E1,3.2E1,1.5E1,2.3E1,2E0,9.3E1,1.63E2,6.6E1,1.2E1,3E0,2.2E1,3.9E1,4.3E1,3.7E1,5.4E1,5.2E1,5.6E1,2.2E1,5E0,1.6E1,1.1E1,2.1E1,3E0,1.2E1,2.2E1,1E0,1E0,1E0,8.1E1,1.2E1,8.3E1,8E1,1.1E1,1E0,1E0,2E0,2E1,2E0,3E0,3.6E1,1.5E1,2.8E1,2.5E1,1.2E1,5.2E1,2E0,1.3E1,3.9E1,9E0,4.7E1,1.4E1,8E0,1E0,4E0,7E0,9E0],"tree_param":{"num_deleted":"0","num_feature":"6","num_nodes":"79","size_leaf_vector":"1"}},{"base_weights":[1.6718853E1,-2.8184753E3,1.1402891E4,-4.7202373E3,-3.2470517E2,5.0014043E3,1.741887E4,-5.531476E3,-4.037352E3,-1.5316636E3,6.0347217E2,2.6340662E3,7.52409E3,1.5002047E4,2.0048857E3,-5.9208667E3,-3.8520493E3,-4.2541016E3,-2.9400488E3,-2.7653607E2,-1.2946967E3,-3.9031277E1,1.4660594E3,6.912843E2,2.9414038E3,3.7722137E2,7.908376E2,1.2858871E3,1.6973778E3,-2.8393037E3,-5.984113E3,-2.283783E3,-5.747231E2,-4.5916987E3,-3.618288E2,-5.5625085E2,-3.1091553E3,6.61434E2,-1.4157249E3,-6.759823E2,6.226921E2,8.5854297E2,4.0008936E3,8.847834E2,7.385807E1,2.1938509E2,3.3170576E3,-5.218069E2,3.3378784E2,-5.398468E2,-6.4977783E2,-5.293845E2,4.388685E1,-4.8630344E2,-3.1249774E2,4.1299756E2,-3.494985E2,-4.2298257E2,-2.3123868E2,-2.0682637E2,-5.798763E1,-8.634957E1,2.8620828E2,1.6327113E2,2.53618E1,1.5918285E2,-3.7838703E1,2.8663498E2,9.942254E2,2.126797E1,9.766682E1,-5.3575683E0,1.643628E1,2.186606E2,3.6980026E2],"categories":[],"categories_nodes":[],"categories_segments":[],"categories_sizes":[],"default_left":[0,0,0,0,0,0,0,0,0,0,0,0,0,0,0,0,0,0,0,0,0,0,0,0,0,0,0,0,0,0,0,0,0,0,0,0,0,0,0,0,0,0,0,0,0,0,0,0,0,0,0,0,0,0,0,0,0,0,0,0,0,0,0,0,0,0,0,0,0,0,0,0,0,0,0],"id":5,"left_children":[1,3,5,7,9,11,13,15,17,19,21,23,25,27,-1,29,31,33,35,-1,37,39,41,43,45,-1,-1,-1,-1,47,49,51,-1,53,-1,55,57,-1,59,61,63,65,67,69,71,-1,73,-1,-1,-1,-1,-1,-1,-1,-1,-1,-1,-1,-1,-1,-1,-1,-1,-1,-1,-1,-1,-1,-1,-1,-1,-1,-1,-1,-1],"loss_changes":[3.0280385E10,3.5601285E9,7.1144755E9,2.1366477E8,3.661328E8,5.2960973E8,3.0942003E8,1.0275123E8,4.338509E7,3.793277E7,1.0258705E8,2.7224064E7,3.360691E7,9.92768E6,0E0,1.3023744E7,1.0278835E8,2.5027584E7,1.5201408E7,0E0,1.2518725E8,4.551986E7,1.1822138E8,8.904225E5,4.517376E6,0E0,0E0,0E0,0E0,9.088761E7,1.0045952E7,1.9081637E8,0E0,3.3753856E7,0E0,6.95205E7,2.5042656E7,0E0,6.4251504E7,3.896031E7,1.934283E7,5.955881E7,7.261302E7,1.628195E5,4.3405918E4,0E0,3.11056E6,0E0,0E0,0E0,0E0,0E0,0E0,0E0,0E0,0E0,0E0,0E0,0E0,0E0,0E0,0E0,0E0,0E0,0E0,0E0,0E0,0E0,0E0,0E0,0E0,0E0,0E0,0E0,0E0],"parents":[2147483647,0,0,1,1,2,2,3,3,4,4,5,5,6,6,7,7,8,8,9,9,10,10,11,11,12,12,13,13,15,15,16,16,17,17,18,18,20,20,21,21,22,22,23,23,24,24,29,29,30,30,31,31,33,33,35,35,36,36,38,38,39,39,40,40,41,41,42,42,43,43,44,44,46,46],"right_children":[2,4,6,8,10,12,14,16,18,20,22,24,26,28,-1,30,32,34,36,-1,38,40,42,44,46,-1,-1,-1,-1,48,50,52,-1,54,-1,56,58,-1,60,62,64,66,68,70,72,-1,74,-1,-1,-1,-1,-1,-1,-1,-1,-1,-1,-1,-1,-1,-1,-1,-1,-1,-1,-1,-1,-1,-1,-1,-1,-1,-1,-1,-1],"split_conditions":[1E0,4.3E1,3.002E1,2.7E1,5.2E1,3.8E1,4.4E1,2E0,3E0,2.409E1,1E0,2.1755E1,2.223E1,3.531E1,2.0048857E3,1.919E1,1E0,3.7E1,2.8E1,-2.7653607E2,2.413E1,5.9E1,6.1E1,1E0,2.2E1,3.7722137E2,7.908376E2,1.2858871E3,1.6973778E3,2.2E1,1E0,2E0,-5.747231E2,3E0,-3.618288E2,1E0,3.5E1,6.61434E2,2E0,4.1895E1,2.585E1,1E0,4E0,1E0,1.748E1,2.1938509E2,2.4605E1,-5.218069E2,3.3378784E2,-5.398468E2,-6.4977783E2,-5.293845E2,4.388685E1,-4.8630344E2,-3.1249774E2,4.1299756E2,-3.494985E2,-4.2298257E2,-2.3123868E2,-2.0682637E2,-5.798763E1,-8.634957E1,2.8620828E2,1.6327113E2,2.53618E1,1.5918285E2,-3.7838703E1,2.8663498E2,9.942254E2,2.126797E1,9.766682E1,-5.3575683E0,1.643628E1,2.186606E2,3.6980026E2],"split_indices":[4,0,2,0,0,0,0,3,3,2,3,2,2,2,0,2,1,0,0,0,2,0,0,1,0,0,0,0,0,0,1,5,0,5,0,1,0,0,5,2,2,1,3,5,2,0,2,0,0,0,0,0,0,0,0,0,0,0,0,0,0,0,0,0,0,0,0,0,0,0,0,0,0,0,0],"split_type":[0,0,0,0,0,0,0,0,0,0,0,0,0,0,0,0,0,0,0,0,0,0,0,0,0,0,0,0,0,0,0,0,0,0,0,0,0,0,0,0,0,0,0,0,0,0,0,0,0,0,0,0,0,0,0,0,0,0,0,0,0,0,0,0,0,0,0,0,0,0,0,0,0,0,0],"sum_hessian":[9.36E2,7.5E2,1.86E2,4.25E2,3.25E2,9.1E1,9.5E1,1.91E2,2.34E2,1.41E2,1.84E2,4.8E1,4.3E1,5.3E1,4.2E1,1.53E2,3.8E1,1.93E2,4.1E1,2.1E1,1.2E2,1.06E2,7.8E1,7E0,4.1E1,5E0,3.8E1,2.9E1,2.4E1,4E0,1.49E2,2.2E1,1.6E1,1.22E2,7.1E1,3E0,3.8E1,1E0,1.19E2,5.4E1,5.2E1,6.4E1,1.4E1,5E0,2E0,1.6E1,2.5E1,3E0,1E0,7.5E1,7.4E1,1E1,1.2E1,1.01E2,2.1E1,1E0,2E0,1.4E1,2.4E1,6.6E1,5.3E1,5.2E1,2E0,1.3E1,3.9E1,4E1,2.4E1,1.3E1,1E0,1E0,4E0,1E0,1E0,8E0,1.7E1],"tree_param":{"num_deleted":"0","num_feature":"6","num_nodes":"75","size_leaf_vector":"1"}},{"base_weights":[2.0186481E1,-2.5396616E3,1.0300538E4,-4.2580474E3,-2.8637335E2,4.5241543E3,1.5728942E4,-5.043342E3,-3.6573064E3,-1.3776519E3,5.5280457E2,2.6023086E3,7.0691675E3,1.1482115E3,1.6909696E3,-5.8380707E2,-4.270584E3,-3.770883E3,-1.7960576E3,-2.2454514E3,-1.0617439E3,-3.1497234E1,1.3372031E3,1.97077E3,3.50088E3,5.3804697E3,7.900417E3,-1.6387956E2,-4.3562173E3,-4.468427E3,-3.4750325E3,-2.9710764E3,2.4717676E3,-3.3364539E3,-1.3499291E3,-1.7588014E3,-2.4586346E2,-7.392009E2,4.555412E2,5.9444366E2,3.1198154E3,5.346801E2,2.259408E3,2.3979148E3,3.995173E2,7.0210443E2,3.6940207E2,8.0594653E2,2.1211552E2,3.1709845E2,-3.416804E2,-4.547936E2,-2.8118222E2,-3.59259E2,-5.208857E2,-2.3472493E2,-3.6048328E2,-3.4666092E2,1.4876591E2,-2.217419E2,4.7739694E2,-8.613975E1,-3.4440314E2,6.0693665E2,-1.9922464E2,-2.1226659E2,-3.6397846E1,-8.4080734E1,2.9826926E2,5.2323597E1,-9.921819E1,9.144051E1,-3.1897857E0,2.8587292E2,1.1033329E1,1.4455785E2,5.5635645E2,7.064532E1,7.016504E0,1.800197E2,2.721673E2,2.5270918E2,6.822495E1],"categories":[],"categories_nodes":[],"categories_segments":[],"categories_sizes":[],"default_left":[0,0,0,0,0,0,0,0,0,0,0,0,0,0,0,0,0,0,0,0,0,0,0,0,0,0,0,0,0,0,0,0,0,0,0,0,0,0,0,0,0,0,0,0,0,0,0,0,0,0,0,0,0,0,0,0,0,0,0,0,0,0,0,0,0,0,0,0,0,0,0,0,0,0,0,0,0,0,0,0,0,0,0],"id":6,"left_children":[1,3,5,7,9,11,13,15,17,19,21,23,25,-1,-1,-1,27,29,31,33,35,37,39,41,43,45,47,49,51,53,55,57,59,61,63,65,67,69,71,73,75,77,79,81,-1,-1,-1,-1,-1,-1,-1,-1,-1,-1,-1,-1,-1,-1,-1,-1,-1,-1,-1,-1,-1,-1,-1,-1,-1,-1,-1,-1,-1,-1,-1,-1,-1,-1,-1,-1,-1,-1,-1],"loss_changes":[2.4684384E10,2.9066665E9,5.792514E9,1.825239E8,2.993048E8,4.3158707E8,2.8722995E8,8.684032E7,4.5019136E7,3.654445E7,8.4832344E7,2.3744608E7,1.2237568E7,0E0,0E0,0E0,3.30464E7,3.1937024E7,8.758019E7,3.1645648E7,5.985144E7,3.721738E7,1.0274557E8,1.288528E7,1.868848E6,1.8332064E7,4.964992E6,4.3378812E7,1.5044352E7,2.3438848E7,1.5838848E7,3.387999E7,5.3767708E7,1.293472E6,1.1693358E8,2.8156384E7,9.8548344E7,1.4571534E7,1.4343933E7,6.2165948E7,8.605998E7,5.0896975E5,1.044208E6,2.70512E5,0E0,0E0,0E0,0E0,0E0,0E0,0E0,0E0,0E0,0E0,0E0,0E0,0E0,0E0,0E0,0E0,0E0,0E0,0E0,0E0,0E0,0E0,0E0,0E0,0E0,0E0,0E0,0E0,0E0,0E0,0E0,0E0,0E0,0E0,0E0,0E0,0E0,0E0,0E0],"parents":[2147483647,0,0,1,1,2,2,3,3,4,4,5,5,6,6,7,7,8,8,9,9,10,10,11,11,12,12,16,16,17,17,18,18,19,19,20,20,21,21,22,22,23,23,24,24,25,25,26,26,27,27,28,28,29,29,30,30,31,31,32,32,33,33,34,34,35,35,36,36,37,37,38,38,39,39,40,40,41,41,42,42,43,43],"right_children":[2,4,6,8,10,12,14,16,18,20,22,24,26,-1,-1,-1,28,30,32,34,36,38,40,42,44,46,48,50,52,54,56,58,60,62,64,66,68,70,72,74,76,78,80,82,-1,-1,-1,-1,-1,-1,-1,-1,-1,-1,-1,-1,-1,-1,-1,-1,-1,-1,-1,-1,-1,-1,-1,-1,-1,-1,-1,-1,-1,-1,-1,-1,-1,-1,-1,-1,-1,-1,-1],"split_conditions":[1E0,4.3E1,3.002E1,1E0,5.2E1,4.1E1,2.8E1,2.3E1,4E0,1E0,1E0,3E1,2.5935E1,1.1482115E3,1.6909696E3,-5.8380707E2,1.919E1,2.7E1,3E0,2.72E1,2E0,5.8E1,5.9E1,2.1755E1,2.5365E1,1E0,2.9925E1,2.4E1,3.591E1,2.2E1,2.9E1,4E1,2.8595E1,1.8715E1,2.7645E1,3E0,3.48E1,2.4985E1,1E0,5.3E1,3.325E1,1E0,2.793E1,3E0,3.995173E2,7.0210443E2,3.6940207E2,8.0594653E2,2.1211552E2,3.1709845E2,-3.416804E2,-4.547936E2,-2.8118222E2,-3.59259E2,-5.208857E2,-2.3472493E2,-3.6048328E2,-3.4666092E2,1.4876591E2,-2.217419E2,4.7739694E2,-8.613975E1,-3.4440314E2,6.0693665E2,-1.9922464E2,-2.1226659E2,-3.6397846E1,-8.4080734E1,2.9826926E2,5.2323597E1,-9.921819E1,9.144051E1,-3.1897857E0,2.8587292E2,1.1033329E1,1.4455785E2,5.5635645E2,7.064532E1,7.016504E0,1.800197E2,2.721673E2,2.5270918E2,6.822495E1],"split_indices":[4,0,2,3,0,0,0,0,3,3,3,0,2,0,0,0,2,0,5,2,5,0,0,2,2,3,2,0,2,0,0,0,2,2,2,3,2,2,1,0,2,1,2,5,0,0,0,0,0,0,0,0,0,0,0,0,0,0,0,0,0,0,0,0,0,0,0,0,0,0,0,0,0,0,0,0,0,0,0,0,0,0,0],"split_type":[0,0,0,0,0,0,0,0,0,0,0,0,0,0,0,0,0,0,0,0,0,0,0,0,0,0,0,0,0,0,0,0,0,0,0,0,0,0,0,0,0,0,0,0,0,0,0,0,0,0,0,0,0,0,0,0,0,0,0,0,0,0,0,0,0,0,0,0,0,0,0,0,0,0,0,0,0,0,0,0,0,0,0],"sum_hessian":[9.36E2,7.5E2,1.86E2,4.25E2,3.25E2,9.1E1,9.5E1,1.81E2,2.44E2,1.41E2,1.84E2,5.3E1,3.8E1,2.3E1,7.2E1,8.6E1,9.5E1,2.29E2,1.5E1,3.6E1,1.05E2,1.06E2,7.8E1,3.3E1,2E1,1.5E1,2.3E1,2E0,9.3E1,6.4E1,1.65E2,1.2E1,3E0,1.5E1,2.1E1,5.6E1,4.9E1,4.3E1,6.3E1,5.6E1,2.2E1,6E0,2.7E1,8E0,1.2E1,6E0,9E0,2.2E1,1E0,1E0,1E0,8.1E1,1.2E1,3.2E1,3.2E1,1.9E1,1.46E2,1.1E1,1E0,1E0,2E0,1E0,1.4E1,1E0,2E1,4.4E1,1.2E1,4.2E1,7E0,7E0,3.6E1,3.2E1,3.1E1,9E0,4.7E1,1.4E1,8E0,4E0,2E0,1.6E1,1.1E1,7E0,1E0],"tree_param":{"num_deleted":"0","num_feature":"6","num_nodes":"83","size_leaf_vector":"1"}},{"base_weights":[2.2862675E1,-2.2880657E3,9.303528E3,-3.838726E3,-2.5472417E2,4.210382E3,1.42977E4,-4.546394E3,-3.2973618E3,-1.2402902E3,5.031412E2,2.4810708E3,6.482925E3,1.2192613E4,1.66137E3,-5.2609735E2,-3.8514478E3,-3.5053682E3,-2.3464973E3,-1.8011556E3,-7.956734E2,-2.7961193E1,1.2161135E3,1.8120197E3,3.4022827E3,4.909392E3,7.230669E2,1.0267476E3,1.3938069E3,-1.5568555E2,-3.9284248E3,-3.950333E3,-3.052291E3,-2.5150618E2,-4.2754248E2,-1.1237284E3,-2.486287E3,-1.6972051E3,-4.307429E2,-5.578729E2,5.2247473E2,1.6891802E3,-1.5659404E3,1.2347495E3,2.3842769E2,2.0258519E2,4.044111E2,6.4192413E2,3.3615585E2,3.012435E2,-3.2459634E2,-4.2530133E2,-2.9654456E2,-5.662321E2,-3.6655167E2,-3.224758E2,9.73016E1,-1.2410663E2,1.4132764E2,-1.769884E2,9.776627E2,-5.941274E0,-3.0905304E2,4.1885E2,-2.1551236E2,1.4257787E2,-8.387224E1,-7.302758E1,2.67387E2,1.4299895E2,1.9178272E1,1.1356748E2,5.698511E2,-1.9620744E2,-8.427941E1,1.8030634E2,7.529778E1],"categories":[],"categories_nodes":[],"categories_segments":[],"categories_sizes":[],"default_left":[0,0,0,0,0,0,0,0,0,0,0,0,0,0,0,0,0,0,0,0,0,0,0,0,0,0,0,0,0,0,0,0,0,0,0,0,0,0,0,0,0,0,0,0,0,0,0,0,0,0,0,0,0,0,0,0,0,0,0,0,0,0,0,0,0,0,0,0,0,0,0,0,0,0,0,0,0],"id":7,"left_children":[1,3,5,7,9,11,13,15,17,19,21,23,25,27,-1,-1,29,31,33,35,37,39,41,43,45,47,-1,-1,-1,49,51,53,55,-1,57,59,61,63,65,67,69,71,73,75,-1,-1,-1,-1,-1,-1,-1,-1,-1,-1,-1,-1,-1,-1,-1,-1,-1,-1,-1,-1,-1,-1,-1,-1,-1,-1,-1,-1,-1,-1,-1,-1,-1],"loss_changes":[2.0117082E10,2.3669417E9,4.6963425E9,1.4821222E8,2.44122E8,3.5332928E8,2.5572147E8,7.011814E7,4.0231936E7,3.397744E7,7.008635E7,2.7733568E7,1.1565824E7,3.498445E7,0E0,0E0,2.6699392E7,2.8061696E7,1.412768E7,2.5981952E7,2.5917652E7,3.1501496E7,1.0661681E8,8.287808E6,1.1242752E7,1.581328E7,0E0,0E0,0E0,3.9149376E7,1.6769536E7,2.6541952E7,7.464371E7,0E0,9.241719E6,2.4973328E8,4.3809024E7,7.101571E7,4.5883764E7,3.2596564E7,1.5631471E7,1.4443298E8,1.78393E6,3.844488E6,0E0,0E0,0E0,0E0,0E0,0E0,0E0,0E0,0E0,0E0,0E0,0E0,0E0,0E0,0E0,0E0,0E0,0E0,0E0,0E0,0E0,0E0,0E0,0E0,0E0,0E0,0E0,0E0,0E0,0E0,0E0,0E0,0E0],"parents":[2147483647,0,0,1,1,2,2,3,3,4,4,5,5,6,6,7,7,8,8,9,9,10,10,11,11,12,12,13,13,16,16,17,17,18,18,19,19,20,20,21,21,22,22,23,23,24,24,25,25,29,29,30,30,31,31,32,32,34,34,35,35,36,36,37,37,38,38,39,39,40,40,41,41,42,42,43,43],"right_children":[2,4,6,8,10,12,14,16,18,20,22,24,26,28,-1,-1,30,32,34,36,38,40,42,44,46,48,-1,-1,-1,50,52,54,56,-1,58,60,62,64,66,68,70,72,74,76,-1,-1,-1,-1,-1,-1,-1,-1,-1,-1,-1,-1,-1,-1,-1,-1,-1,-1,-1,-1,-1,-1,-1,-1,-1,-1,-1,-1,-1,-1,-1,-1,-1],"split_conditions":[1E0,4.3E1,3.021E1,1E0,5.2E1,4.1E1,4.4E1,2.3E1,3.9E1,4.7E1,1E0,2.772E1,2.5935E1,3.531E1,1.66137E3,-5.2609735E2,1.919E1,2E0,4E0,2.98E1,1E0,5.9E1,3.8095E1,2.8E1,2.4E1,1E0,7.230669E2,1.0267476E3,1.3938069E3,2.4E1,3.5E1,2E1,4E0,-2.5150618E2,4E1,2.893E1,4.4E1,4.8E1,2.541E1,4.1895E1,2.585E1,3.667E1,5.5E1,2E0,2.3842769E2,2.0258519E2,4.044111E2,6.4192413E2,3.3615585E2,3.012435E2,-3.2459634E2,-4.2530133E2,-2.9654456E2,-5.662321E2,-3.6655167E2,-3.224758E2,9.73016E1,-1.2410663E2,1.4132764E2,-1.769884E2,9.776627E2,-5.941274E0,-3.0905304E2,4.1885E2,-2.1551236E2,1.4257787E2,-8.387224E1,-7.302758E1,2.67387E2,1.4299895E2,1.9178272E1,1.1356748E2,5.698511E2,-1.9620744E2,-8.427941E1,1.8030634E2,7.529778E1],"split_indices":[4,0,2,3,0,0,0,0,0,0,3,2,2,2,0,0,2,5,3,2,3,0,2,0,0,3,0,0,0,0,0,0,3,0,0,2,0,0,2,2,2,2,0,5,0,0,0,0,0,0,0,0,0,0,0,0,0,0,0,0,0,0,0,0,0,0,0,0,0,0,0,0,0,0,0,0,0],"split_type":[0,0,0,0,0,0,0,0,0,0,0,0,0,0,0,0,0,0,0,0,0,0,0,0,0,0,0,0,0,0,0,0,0,0,0,0,0,0,0,0,0,0,0,0,0,0,0,0,0,0,0,0,0,0,0,0,0,0,0,0,0,0,0,0,0,0,0,0,0,0,0,0,0,0,0,0,0],"sum_hessian":[9.36E2,7.5E2,1.86E2,4.25E2,3.25E2,9.3E1,9.3E1,1.81E2,2.44E2,1.41E2,1.84E2,5.4E1,3.9E1,5.2E1,4.1E1,8.6E1,9.5E1,1.98E2,4.6E1,6.1E1,8E1,1.06E2,7.8E1,3.3E1,2.1E1,1.5E1,2.4E1,2.8E1,2.4E1,2E0,9.3E1,9.6E1,1.02E2,4.2E1,4E0,3.2E1,2.9E1,2.2E1,5.8E1,5.4E1,5.2E1,6.7E1,1.1E1,1.8E1,1.5E1,8E0,1.3E1,6E0,9E0,1E0,1E0,6.7E1,2.6E1,1.1E1,8.5E1,9.8E1,4E0,3E0,1E0,3.1E1,1E0,6E0,2.3E1,1E0,2.1E1,1E1,4.8E1,5.2E1,2E0,1.3E1,3.9E1,6E1,7E0,6E0,5E0,7E0,1.1E1],"tree_param":{"num_deleted":"0","num_feature":"6","num_nodes":"77","size_leaf_vector":"1"}},{"base_weights":[2.6689222E1,-2.060799E3,8.409988E3,-3.461106E3,-2.246286E2,3.7205642E3,1.2816416E4,-4.0987397E3,-2.9733083E3,-1.1109955E3,4.5693213E2,1.9500334E3,5.6077334E3,1.1392094E4,1.5714261E3,-4.7409238E2,-3.4740654E3,-2.5267036E3,-3.4174656E3,-2.256389E3,-8.935604E2,-2.7165268E1,1.1673038E3,4.9339954E2,2.181058E3,2.728548E2,5.906897E3,1.0288768E3,1.3885289E3,-1.896985E3,-3.6767793E3,-2.0583416E3,-3.7842595E3,-4.2431396E3,-2.9012693E3,-2.5003197E2,-1.5169707E2,6.318468E2,-1.0063145E3,1.9198046E3,-3.2796304E2,9.368572E2,9.110179E2,1.639416E2,7.818721E1,1.6441605E2,2.4482197E3,6.98949E3,5.0210654E3,7.5851196E2,-4.3105606E2,-4.058317E2,-2.6695682E2,-2.9409784E2,-1.15121086E2,-4.7144907E2,-2.7471506E2,-4.712303E2,-1.0900913E2,-3.0932584E2,-1.4681291E2,-1.5302611E2,-3.3759724E1,8.6283466E2,2.2400219E1,1.7203257E1,-9.598653E1,4.732869E1,2.0110558E2,-9.2054205E0,2.5095411E1,1.6061075E2,2.733264E2,7.73462E2,3.0067294E2,2.607096E2,5.646156E2],"categories":[],"categories_nodes":[],"categories_segments":[],"categories_sizes":[],"default_left":[0,0,0,0,0,0,0,0,0,0,0,0,0,0,0,0,0,0,0,0,0,0,0,0,0,0,0,0,0,0,0,0,0,0,0,0,0,0,0,0,0,0,0,0,0,0,0,0,0,0,0,0,0,0,0,0,0,0,0,0,0,0,0,0,0,0,0,0,0,0,0,0,0,0,0,0,0],"id":8,"left_children":[1,3,5,7,9,11,13,15,17,19,21,23,25,27,-1,-1,29,31,33,35,37,39,41,43,45,-1,47,-1,-1,49,51,53,55,57,59,-1,-1,-1,61,63,65,67,-1,69,-1,-1,71,73,75,-1,-1,-1,-1,-1,-1,-1,-1,-1,-1,-1,-1,-1,-1,-1,-1,-1,-1,-1,-1,-1,-1,-1,-1,-1,-1,-1,-1],"loss_changes":[1.6414867E10,1.9301955E9,3.8164111E9,1.2031488E8,1.9744845E8,2.9646336E8,2.1721805E8,5.6539904E7,3.996416E7,3.334872E7,6.3651196E7,1.541328E7,2.1782016E7,4.419277E7,0E0,0E0,2.3716096E7,6.642368E7,3.883469E7,1.75152E5,1.04753864E8,6.5636132E7,1.2874575E8,6.321351E5,1.999152E6,0E0,2.306176E6,0E0,0E0,3.302112E8,2.1446272E7,7.187696E7,1.8885376E7,5.995213E7,1.6644992E7,0E0,0E0,0E0,4.152805E7,1.6871266E8,3.0812116E7,3.5897716E7,0E0,1.3447555E5,0E0,0E0,1.851104E6,2.1259136E7,2.3003648E7,0E0,0E0,0E0,0E0,0E0,0E0,0E0,0E0,0E0,0E0,0E0,0E0,0E0,0E0,0E0,0E0,0E0,0E0,0E0,0E0,0E0,0E0,0E0,0E0,0E0,0E0,0E0,0E0],"parents":[2147483647,0,0,1,1,2,2,3,3,4,4,5,5,6,6,7,7,8,8,9,9,10,10,11,11,12,12,13,13,16,16,17,17,18,18,19,19,20,20,21,21,22,22,23,23,24,24,26,26,29,29,30,30,31,31,32,32,33,33,34,34,38,38,39,39,40,40,41,41,43,43,46,46,47,47,48,48],"right_children":[2,4,6,8,10,12,14,16,18,20,22,24,26,28,-1,-1,30,32,34,36,38,40,42,44,46,-1,48,-1,-1,50,52,54,56,58,60,-1,-1,-1,62,64,66,68,-1,70,-1,-1,72,74,76,-1,-1,-1,-1,-1,-1,-1,-1,-1,-1,-1,-1,-1,-1,-1,-1,-1,-1,-1,-1,-1,-1,-1,-1,-1,-1,-1,-1],"split_conditions":[1E0,4.3E1,3.002E1,1E0,5.2E1,3.8E1,5E1,2.3E1,1E0,2.409E1,5.9E1,2.1755E1,2.223E1,3.7905E1,1.5714261E3,-4.7409238E2,2.34E1,3.325E1,2.9E1,4.9E1,2.413E1,5.3E1,4E0,2E1,2.2E1,2.728548E2,1E0,1.0288768E3,1.3885289E3,2.5E1,3.5E1,2E0,3.2E1,3.5245E1,3.883E1,-2.5003197E2,-1.5169707E2,6.318468E2,2E0,2.641E1,1E0,1E0,9.110179E2,1.748E1,7.818721E1,1.6441605E2,2.4605E1,2.783E1,2.57E1,7.5851196E2,-4.3105606E2,-4.058317E2,-2.6695682E2,-2.9409784E2,-1.15121086E2,-4.7144907E2,-2.7471506E2,-4.712303E2,-1.0900913E2,-3.0932584E2,-1.4681291E2,-1.5302611E2,-3.3759724E1,8.6283466E2,2.2400219E1,1.7203257E1,-9.598653E1,4.732869E1,2.0110558E2,-9.2054205E0,2.5095411E1,1.6061075E2,2.733264E2,7.73462E2,3.0067294E2,2.607096E2,5.646156E2],"split_indices":[4,0,2,3,0,0,0,0,1,2,0,2,2,2,0,0,2,2,0,0,2,0,3,0,0,0,3,0,0,0,0,5,0,2,2,0,0,0,5,2,1,3,0,2,0,0,2,2,2,0,0,0,0,0,0,0,0,0,0,0,0,0,0,0,0,0,0,0,0,0,0,0,0,0,0,0,0],"split_type":[0,0,0,0,0,0,0,0,0,0,0,0,0,0,0,0,0,0,0,0,0,0,0,0,0,0,0,0,0,0,0,0,0,0,0,0,0,0,0,0,0,0,0,0,0,0,0,0,0,0,0,0,0,0,0,0,0,0,0,0,0,0,0,0,0,0,0,0,0,0,0,0,0,0,0,0,0],"sum_hessian":[9.36E2,7.5E2,1.86E2,4.25E2,3.25E2,9.1E1,9.5E1,1.81E2,2.44E2,1.41E2,1.84E2,4.8E1,4.3E1,6.7E1,2.8E1,8.6E1,9.5E1,1.25E2,1.19E2,2.1E1,1.2E2,1.1E2,7.4E1,7E0,4.1E1,5E0,3.8E1,5E1,1.7E1,1.2E1,8.3E1,9.3E1,3.2E1,4.3E1,7.6E1,1.4E1,7E0,1E0,1.19E2,1.4E1,9.6E1,7.3E1,1E0,4E0,3E0,1.6E1,2.5E1,1.4E1,2.4E1,2E0,1E1,5.8E1,2.5E1,4.6E1,4.7E1,1.5E1,1.7E1,3.7E1,6E0,6.6E1,1E1,6.6E1,5.3E1,2E0,1.2E1,5.4E1,4.2E1,5.2E1,2.1E1,1E0,3E0,8E0,1.7E1,1.1E1,3E0,6E0,1.8E1],"tree_param":{"num_deleted":"0","num_feature":"6","num_nodes":"77","size_leaf_vector":"1"}},{"base_weights":[3.0265322E1,-1.8560532E3,7.6056396E3,-3.122064E3,-1.9600243E2,3.4635989E3,1.166677E4,-3.4550784E3,-2.3706064E3,-9.9959064E2,4.218653E2,1.9698209E3,5.2661377E3,8.2648944E2,1.2591441E4,-2.9330127E3,-4.0046714E3,-2.4901155E3,5.9394116E2,-2.0490103E3,-8.00526E2,9.286968E2,-1.7237901E2,1.165168E3,2.4221812E3,2.5223453E2,5.4885806E3,1.1109804E4,1.4295408E3,-3.3969817E3,-1.5714161E3,-4.3585815E3,-3.0751052E3,-2.8791672E2,-2.262111E3,2.1490654E2,-1.4689677E2,-2.266956E2,-1.3842355E2,6.0025446E2,-9.0723944E2,7.830715E2,5.376223E3,-6.0440704E2,1.493305E3,1.8401268E3,6.96251E2,1.4730376E2,2.829797E2,6.6819497E3,4.754913E3,2.670428E2,1.124716E3,-4.1315793E2,-2.6909943E2,-2.2513132E1,-3.889968E2,-9.290182E1,-4.4560782E2,-3.9429797E2,-2.2599083E2,-2.3563264E2,-1.6590697E2,-9.284518E1,1.4896617E2,-1.387177E2,-2.5295246E1,1.9643153E2,3.7342056E1,-5.9033497E1,8.65467E2,-9.241638E1,5.125477E1,7.192811E2,7.349334E1,6.4021974E0,2.0847102E2,1.6437069E1,1.0746149E2,2.029788E2,8.0071387E2,3.0051874E2,6.408066E2],"categories":[],"categories_nodes":[],"categories_segments":[],"categories_sizes":[],"default_left":[0,0,0,0,0,0,0,0,0,0,0,0,0,0,0,0,0,0,0,0,0,0,0,0,0,0,0,0,0,0,0,0,0,0,0,0,0,0,0,0,0,0,0,0,0,0,0,0,0,0,0,0,0,0,0,0,0,0,0,0,0,0,0,0,0,0,0,0,0,0,0,0,0,0,0,0,0,0,0,0,0,0,0],"id":9,"left_children":[1,3,5,7,9,11,13,15,17,19,21,23,25,-1,27,29,31,33,35,37,39,41,43,45,47,-1,49,51,-1,53,55,57,59,-1,61,-1,63,-1,-1,-1,65,67,69,71,73,75,77,-1,-1,79,81,-1,-1,-1,-1,-1,-1,-1,-1,-1,-1,-1,-1,-1,-1,-1,-1,-1,-1,-1,-1,-1,-1,-1,-1,-1,-1,-1,-1,-1,-1,-1,-1],"loss_changes":[1.3403443E10,1.5777213E9,3.1051868E9,9.841434E7,1.6228435E8,2.4273037E8,1.9162112E8,7.232282E7,4.895392E7,2.8023856E7,5.5878696E7,1.6469392E7,1.1789952E7,0E0,2.2956032E7,9.19497E7,3.2654592E7,4.930048E6,7.22826E6,4.9464E4,9.328924E7,6.0557264E7,6.279007E7,5.365302E6,8.598848E6,0E0,1.498368E6,1.9810304E7,0E0,4.8004096E7,1.271029E8,2.8962944E7,2.0803776E7,0E0,9.76832E5,0E0,7.7783805E6,0E0,0E0,0E0,3.7331136E7,4.6688452E7,6.379228E7,2.5117294E7,7.2515944E7,3.341778E6,2.640785E6,0E0,0E0,5.772701E7,5.884179E7,0E0,0E0,0E0,0E0,0E0,0E0,0E0,0E0,0E0,0E0,0E0,0E0,0E0,0E0,0E0,0E0,0E0,0E0,0E0,0E0,0E0,0E0,0E0,0E0,0E0,0E0,0E0,0E0,0E0,0E0,0E0,0E0],"parents":[2147483647,0,0,1,1,2,2,3,3,4,4,5,5,6,6,7,7,8,8,9,9,10,10,11,11,12,12,14,14,15,15,16,16,17,17,18,18,19,19,20,20,21,21,22,22,23,23,24,24,26,26,27,27,29,29,30,30,31,31,32,32,34,34,36,36,40,40,41,41,42,42,43,43,44,44,45,45,46,46,49,49,50,50],"right_children":[2,4,6,8,10,12,14,16,18,20,22,24,26,-1,28,30,32,34,36,38,40,42,44,46,48,-1,50,52,-1,54,56,58,60,-1,62,-1,64,-1,-1,-1,66,68,70,72,74,76,78,-1,-1,80,82,-1,-1,-1,-1,-1,-1,-1,-1,-1,-1,-1,-1,-1,-1,-1,-1,-1,-1,-1,-1,-1,-1,-1,-1,-1,-1,-1,-1,-1,-1,-1,-1],"split_conditions":[1E0,4.3E1,3.021E1,3.4E1,5.2E1,4E1,2.8E1,1E0,4E0,2.409E1,1E0,2.527E1,2.223E1,8.2648944E2,3.6385E1,2E0,2.8E1,3.7E1,3.6E1,4.9E1,2.413E1,4E0,6.2E1,2E0,2.1E1,2.5223453E2,4.6E1,2.9E1,1.4295408E3,2.3E1,3.27E1,1.919E1,2.907E1,-2.8791672E2,3E0,2.1490654E2,4E1,-2.266956E2,-1.3842355E2,6.0025446E2,2E0,2.684E1,5.3E1,3.667E1,2.4795E1,2E1,2.2E1,1.4730376E2,2.829797E2,1E0,5.7E1,2.670428E2,1.124716E3,-4.1315793E2,-2.6909943E2,-2.2513132E1,-3.889968E2,-9.290182E1,-4.4560782E2,-3.9429797E2,-2.2599083E2,-2.3563264E2,-1.6590697E2,-9.284518E1,1.4896617E2,-1.387177E2,-2.5295246E1,1.9643153E2,3.7342056E1,-5.9033497E1,8.65467E2,-9.241638E1,5.125477E1,7.192811E2,7.349334E1,6.4021974E0,2.0847102E2,1.6437069E1,1.0746149E2,2.029788E2,8.0071387E2,3.0051874E2,6.408066E2],"split_indices":[4,0,2,0,0,0,0,1,3,2,1,2,2,0,2,3,0,0,0,0,2,3,0,5,0,0,0,0,0,0,2,2,2,0,3,0,0,0,0,0,3,2,0,2,2,0,0,0,0,1,0,0,0,0,0,0,0,0,0,0,0,0,0,0,0,0,0,0,0,0,0,0,0,0,0,0,0,0,0,0,0,0,0],"split_type":[0,0,0,0,0,0,0,0,0,0,0,0,0,0,0,0,0,0,0,0,0,0,0,0,0,0,0,0,0,0,0,0,0,0,0,0,0,0,0,0,0,0,0,0,0,0,0,0,0,0,0,0,0,0,0,0,0,0,0,0,0,0,0,0,0,0,0,0,0,0,0,0,0,0,0,0,0,0,0,0,0,0,0],"sum_hessian":[9.36E2,7.5E2,1.86E2,4.25E2,3.25E2,9.3E1,9.3E1,2.92E2,1.33E2,1.41E2,1.84E2,5.2E1,4.1E1,2.2E1,7.1E1,1.53E2,1.39E2,1.28E2,5E0,2.1E1,1.2E2,9.9E1,8.5E1,2E1,3.2E1,4E0,3.7E1,4.2E1,2.9E1,1.13E2,4E1,9.8E1,4.1E1,4.3E1,8.5E1,1E0,4E0,1.4E1,7E0,1E0,1.19E2,9.7E1,2E0,6.8E1,1.7E1,7E0,1.3E1,1.1E1,2.1E1,1.1E1,2.6E1,1E0,4.1E1,5.3E1,6E1,2.6E1,1.4E1,3E0,9.5E1,1.8E1,2.3E1,7.1E1,1.4E1,3E0,1E0,6.8E1,5.1E1,2.4E1,7.3E1,1E0,1E0,5.3E1,1.5E1,1E0,1.6E1,1E0,6E0,6E0,7E0,3E0,8E0,1.4E1,1.2E1],"tree_param":{"num_deleted":"0","num_feature":"6","num_nodes":"83","size_leaf_vector":"1"}},{"base_weights":[3.343522E1,-1.6715239E3,6.8804453E3,-2.6392551E3,1.1321834E2,3.1487952E3,1.0538899E4,-3.0373188E3,-1.7333833E3,-2.3768388E2,1.0053398E3,1.787349E3,4.7918394E3,8.913878E3,1.2338594E3,-3.4747004E3,-2.6125728E3,-2.1099353E3,-1.3441003E3,-1.6369945E3,-4.5838745E1,7.9671094E2,8.2219366E2,1.299537E3,2.468799E3,3.5790964E3,5.400485E3,6.5128235E2,9.866798E2,-3.0321504E3,-3.9919216E3,-2.8219453E3,-1.7554008E3,-2.4350034E3,-8.57644E2,-1.6404719E3,-5.2860443E2,-6.2962208E1,-1.7029527E2,2.3993218E3,-4.6710202E2,3.8360468E2,1.7557074E3,5.6641223E2,1.5114803E3,1.5143398E2,2.939671E2,4.8879977E2,2.4207869E3,6.953213E3,4.4624688E3,-3.1643564E2,1.9447514E2,1.1459586E1,-4.1108878E2,-3.249753E2,-2.3664429E2,-2.1936797E2,2.4088196E2,2.6170995E0,-2.614474E2,3.2038614E2,-2.8169263E2,-1.8355069E2,-1.3012626E0,-1.7260533E2,2.2839366E2,4.837302E2,4.515153E1,-9.126131E1,4.522142E1,1.1740154E2,9.7370825E0,2.5579024E2,-1.483336E2,1.3958223E1,8.799598E1,1.7956363E2,9.8658775E1,1.4023582E2,2.8024094E2,1.7114427E2,8.4152295E2,2.1472374E2,5.95107E2],"categories":[],"categories_nodes":[],"categories_segments":[],"categories_sizes":[],"default_left":[0,0,0,0,0,0,0,0,0,0,0,0,0,0,0,0,0,0,0,0,0,0,0,0,0,0,0,0,0,0,0,0,0,0,0,0,0,0,0,0,0,0,0,0,0,0,0,0,0,0,0,0,0,0,0,0,0,0,0,0,0,0,0,0,0,0,0,0,0,0,0,0,0,0,0,0,0,0,0,0,0,0,0,0,0],"id":10,"left_children":[1,3,5,7,9,11,13,15,17,19,21,23,25,27,-1,29,31,33,35,37,39,41,-1,43,45,47,49,-1,-1,51,53,55,57,59,61,63,65,-1,-1,67,69,71,73,75,77,-1,-1,-1,79,81,83,-1,-1,-1,-1,-1,-1,-1,-1,-1,-1,-1,-1,-1,-1,-1,-1,-1,-1,-1,-1,-1,-1,-1,-1,-1,-1,-1,-1,-1,-1,-1,-1,-1,-1],"loss_changes":[1.0949919E10,1.2973892E9,2.5197517E9,1.7034496E8,8.319651E7,2.0170534E8,1.6492237E8,5.3528576E7,1.92984E7,5.1199092E7,1.0636875E8,1.4409952E7,1.167264E7,5.7003776E7,0E0,2.5206016E7,2.6453376E7,2.8442656E7,1.774296E7,4.56008E5,1.7520026E8,2.8642888E7,0E0,4.271448E6,4.986328E6,1.3941104E7,6.840064E6,0E0,0E0,6.668787E7,3.5645696E7,1.9396096E7,7.2812504E7,2.6129184E7,1.4430485E8,1.7751152E7,7.803542E7,0E0,0E0,1.1653371E8,5.9799692E7,1.1876526E7,6.09578E7,1.081657E6,1.957232E6,0E0,0E0,0E0,3.45228E5,4.690627E7,5.270429E7,0E0,0E0,0E0,0E0,0E0,0E0,0E0,0E0,0E0,0E0,0E0,0E0,0E0,0E0,0E0,0E0,0E0,0E0,0E0,0E0,0E0,0E0,0E0,0E0,0E0,0E0,0E0,0E0,0E0,0E0,0E0,0E0,0E0,0E0],"parents":[2147483647,0,0,1,1,2,2,3,3,4,4,5,5,6,6,7,7,8,8,9,9,10,10,11,11,12,12,13,13,15,15,16,16,17,17,18,18,19,19,20,20,21,21,23,23,24,24,25,25,26,26,29,29,30,30,31,31,32,32,33,33,34,34,35,35,36,36,39,39,40,40,41,41,42,42,43,43,44,44,48,48,49,49,50,50],"right_children":[2,4,6,8,10,12,14,16,18,20,22,24,26,28,-1,30,32,34,36,38,40,42,-1,44,46,48,50,-1,-1,52,54,56,58,60,62,64,66,-1,-1,68,70,72,74,76,78,-1,-1,-1,80,82,84,-1,-1,-1,-1,-1,-1,-1,-1,-1,-1,-1,-1,-1,-1,-1,-1,-1,-1,-1,-1,-1,-1,-1,-1,-1,-1,-1,-1,-1,-1,-1,-1,-1,-1],"split_conditions":[1E0,4.7E1,3.021E1,3.7E1,5.9E1,4E1,4.4E1,1E0,2E0,2.376E1,4E0,2.772E1,2.5935E1,1E0,1.2338594E3,1E0,3E0,4.5E1,3E0,1.8715E1,2.684E1,1E0,8.2219366E2,2E1,2.4E1,1E0,4.5E1,6.5128235E2,9.866798E2,4.123E1,1.919E1,2E0,4E0,3.8E1,2.77E1,4E0,2.7455E1,-6.2962208E1,-1.7029527E2,2E0,2E0,2.585E1,3.6955E1,2.1755E1,2E0,1.5143398E2,2.939671E2,4.8879977E2,2.47E1,1E0,5.3E1,-3.1643564E2,1.9447514E2,1.1459586E1,-4.1108878E2,-3.249753E2,-2.3664429E2,-2.1936797E2,2.4088196E2,2.6170995E0,-2.614474E2,3.2038614E2,-2.8169263E2,-1.8355069E2,-1.3012626E0,-1.7260533E2,2.2839366E2,4.837302E2,4.515153E1,-9.126131E1,4.522142E1,1.1740154E2,9.7370825E0,2.5579024E2,-1.483336E2,1.3958223E1,8.799598E1,1.7956363E2,9.8658775E1,1.4023582E2,2.8024094E2,1.7114427E2,8.4152295E2,2.1472374E2,5.95107E2],"split_indices":[4,0,2,0,0,0,0,3,3,2,3,2,2,3,0,1,5,0,5,2,2,3,0,0,0,3,0,0,0,2,2,3,3,0,2,3,2,0,0,5,3,2,2,2,5,0,0,0,2,1,0,0,0,0,0,0,0,0,0,0,0,0,0,0,0,0,0,0,0,0,0,0,0,0,0,0,0,0,0,0,0,0,0,0,0],"split_type":[0,0,0,0,0,0,0,0,0,0,0,0,0,0,0,0,0,0,0,0,0,0,0,0,0,0,0,0,0,0,0,0,0,0,0,0,0,0,0,0,0,0,0,0,0,0,0,0,0,0,0,0,0,0,0,0,0,0,0,0,0,0,0,0,0,0,0,0,0,0,0,0,0,0,0,0,0,0,0,0,0,0,0,0,0],"sum_hessian":[9.36E2,7.5E2,1.86E2,4.86E2,2.64E2,9.3E1,9.3E1,3.36E2,1.5E2,1.9E2,7.4E1,5.2E1,4.1E1,5.2E1,4.1E1,1.62E2,1.74E2,7.4E1,7.6E1,2.2E1,1.68E2,7.3E1,1E0,3.2E1,2E1,1.6E1,2.5E1,1.7E1,3.5E1,9.1E1,7.1E1,1.38E2,3.6E1,5.8E1,1.6E1,5.5E1,2.1E1,2E0,2E1,2.4E1,1.44E2,5.2E1,2.1E1,8E0,2.4E1,8E0,1.2E1,6E0,1E1,7E0,1.8E1,8.9E1,2E0,2E0,6.9E1,6.8E1,7E1,3.3E1,3E0,4E0,5.4E1,5E0,1.1E1,4.9E1,6E0,1.5E1,6E0,1E1,1.4E1,9.7E1,4.7E1,1.3E1,3.9E1,1.7E1,4E0,4E0,4E0,1.4E1,1E1,4E0,6E0,2E0,5E0,8E0,1E1],"tree_param":{"num_deleted":"0","num_feature":"6","num_nodes":"85","size_leaf_vector":"1"}},{"base_weights":[3.6841587E1,-1.5045106E3,6.2267812E3,-2.3782268E3,1.0682627E2,2.7990627E3,9.446815E3,-2.7367373E3,-1.5623575E3,-2.1260867E2,9.1889624E2,1.4385592E3,4.2505537E3,8.307039E3,1.1793643E4,-3.1304304E3,-2.3544019E3,-1.4354642E3,-2.7015665E2,-1.4834371E3,-3.839766E1,7.2020996E2,7.81084E2,3.645802E2,1.6088752E3,2.0586613E2,4.4787793E3,7.4056647E2,1.0399432E3,3.406721E2,1.1971508E3,-2.7302612E3,-3.5982798E3,-3.5208308E3,-2.1811797E3,-1.6327303E3,4.2837372E2,-5.8764748E1,-1.5407672E2,2.180545E3,-4.2070917E2,3.476429E2,1.585021E3,4.9124283E2,-1.027181E1,1.3476016E3,1.9893279E2,4.5726646E3,1.82794E2,-2.851437E2,1.8151012E2,1.0695639E1,-3.7056717E2,-3.7446368E2,-1.6334969E2,-2.4419978E2,-7.931985E1,-1.2490871E2,-2.1472856E2,5.0431412E2,-3.1454233E1,-5.7063477E1,3.7637485E2,-1.2793557E2,4.4677005E0,-7.112485E1,5.5169582E1,2.5361816E2,-8.154918E1,5.3841796E0,5.679547E1,-1.0264941E1,8.72417E0,1.6119696E2,1.011018E2,5.547089E2,3.8137222E2],"categories":[],"categories_nodes":[],"categories_segments":[],"categories_sizes":[],"default_left":[0,0,0,0,0,0,0,0,0,0,0,0,0,0,0,0,0,0,0,0,0,0,0,0,0,0,0,0,0,0,0,0,0,0,0,0,0,0,0,0,0,0,0,0,0,0,0,0,0,0,0,0,0,0,0,0,0,0,0,0,0,0,0,0,0,0,0,0,0,0,0,0,0,0,0,0,0],"id":11,"left_children":[1,3,5,7,9,11,13,15,17,19,21,23,25,27,29,31,33,35,-1,37,39,41,-1,43,45,-1,47,-1,-1,-1,-1,49,51,53,55,57,59,-1,-1,61,63,65,67,69,71,73,-1,75,-1,-1,-1,-1,-1,-1,-1,-1,-1,-1,-1,-1,-1,-1,-1,-1,-1,-1,-1,-1,-1,-1,-1,-1,-1,-1,-1,-1,-1],"loss_changes":[8.94917E9,1.0575501E9,2.037547E9,1.3817088E8,6.89373E7,1.755632E8,1.5881626E8,4.3355904E7,1.7950208E7,4.222897E7,9.707464E7,8.37632E6,1.2790528E7,5.123533E7,2.4768E6,2.0692224E7,2.7679424E7,5.1438176E7,0E0,2.75756E5,1.4428469E8,2.3291784E7,0E0,3.8488388E5,1.494064E6,0E0,1.347456E6,0E0,0E0,0E0,0E0,5.584819E7,2.9046016E7,2.753488E6,5.417459E7,2.19936E7,4.9583668E7,0E0,0E0,1.1103965E8,5.799948E7,1.1844095E7,5.230024E7,1.7074338E5,3.59795E4,8.61764E5,0E0,6.207616E6,0E0,0E0,0E0,0E0,0E0,0E0,0E0,0E0,0E0,0E0,0E0,0E0,0E0,0E0,0E0,0E0,0E0,0E0,0E0,0E0,0E0,0E0,0E0,0E0,0E0,0E0,0E0,0E0,0E0],"parents":[2147483647,0,0,1,1,2,2,3,3,4,4,5,5,6,6,7,7,8,8,9,9,10,10,11,11,12,12,13,13,14,14,15,15,16,16,17,17,19,19,20,20,21,21,23,23,24,24,26,26,31,31,32,32,33,33,34,34,35,35,36,36,39,39,40,40,41,41,42,42,43,43,44,44,45,45,47,47],"right_children":[2,4,6,8,10,12,14,16,18,20,22,24,26,28,30,32,34,36,-1,38,40,42,-1,44,46,-1,48,-1,-1,-1,-1,50,52,54,56,58,60,-1,-1,62,64,66,68,70,72,74,-1,76,-1,-1,-1,-1,-1,-1,-1,-1,-1,-1,-1,-1,-1,-1,-1,-1,-1,-1,-1,-1,-1,-1,-1,-1,-1,-1,-1,-1,-1],"split_conditions":[1E0,4.7E1,3.002E1,3.7E1,5.9E1,3.8E1,5E1,1E0,3.7335E1,2.376E1,4E0,2.1755E1,2.223E1,3.7905E1,3.078E1,1E0,2.3E1,3.531E1,-2.7015665E2,1.8715E1,2.684E1,1E0,7.81084E2,1E0,3E1,2.0586613E2,2.9925E1,7.4056647E2,1.0399432E3,3.406721E2,1.1971508E3,4.123E1,1.919E1,3.4E1,3E0,2.98E1,3.8E1,-5.8764748E1,-1.5407672E2,1E0,3.179E1,2.508E1,3E0,1E0,1.748E1,2E0,1.9893279E2,1E0,1.82794E2,-2.851437E2,1.8151012E2,1.0695639E1,-3.7056717E2,-3.7446368E2,-1.6334969E2,-2.4419978E2,-7.931985E1,-1.2490871E2,-2.1472856E2,5.0431412E2,-3.1454233E1,-5.7063477E1,3.7637485E2,-1.2793557E2,4.4677005E0,-7.112485E1,5.5169582E1,2.5361816E2,-8.154918E1,5.3841796E0,5.679547E1,-1.0264941E1,8.72417E0,1.6119696E2,1.011018E2,5.547089E2,3.8137222E2],"split_indices":[4,0,2,0,0,0,0,3,2,2,3,2,2,2,2,1,2,2,0,2,2,3,0,1,0,0,2,0,0,0,0,2,2,0,5,2,0,0,0,3,2,2,3,5,2,5,0,3,0,0,0,0,0,0,0,0,0,0,0,0,0,0,0,0,0,0,0,0,0,0,0,0,0,0,0,0,0],"split_type":[0,0,0,0,0,0,0,0,0,0,0,0,0,0,0,0,0,0,0,0,0,0,0,0,0,0,0,0,0,0,0,0,0,0,0,0,0,0,0,0,0,0,0,0,0,0,0,0,0,0,0,0,0,0,0,0,0,0,0,0,0,0,0,0,0,0,0,0,0,0,0,0,0,0,0,0,0],"sum_hessian":[9.36E2,7.5E2,1.86E2,4.86E2,2.64E2,9.1E1,9.5E1,3.36E2,1.5E2,1.9E2,7.4E1,4.8E1,4.3E1,6.7E1,2.8E1,1.62E2,1.74E2,1.37E2,1.3E1,2.2E1,1.68E2,7.3E1,1E0,7E0,4.1E1,5E0,3.8E1,5E1,1.7E1,1E0,2.7E1,9.1E1,7.1E1,2E1,1.54E2,1.24E2,1.3E1,2E0,2E1,2.4E1,1.44E2,5.2E1,2.1E1,5E0,2E0,2.7E1,1.4E1,3.6E1,2E0,8.9E1,2E0,2E0,6.9E1,1.7E1,3E0,1.29E2,2.5E1,7.3E1,5.1E1,1E0,1.2E1,9E0,1.5E1,5E1,9.4E1,8E0,4.4E1,1.5E1,6E0,1E0,4E0,1E0,1E0,1.3E1,1.4E1,1.3E1,2.3E1],"tree_param":{"num_deleted":"0","num_feature":"6","num_nodes":"77","size_leaf_vector":"1"}},{"base_weights":[3.809162E1,-1.3547808E3,5.6317227E3,-2.2917473E3,-1.2624512E2,2.6016965E3,8.601837E3,-2.5391597E3,-1.7336614E3,-7.488632E2,3.5233875E2,1.3989581E3,3.8802573E3,5.9451143E3,9.331042E3,-2.1057263E3,-2.9977996E3,-1.8311786E3,6.519011E2,-5.811044E2,-1.9482014E3,-8.9233746E2,5.345603E2,8.14414E2,1.7309557E3,2.854309E3,4.401215E3,2.3825664E2,6.170949E2,8.0988735E3,1.0786117E3,-2.4951843E3,-9.714833E2,-3.2799685E3,-2.261311E3,-1.938287E3,-1.4748966E3,1.9608316E2,-2.0512695E0,-7.089671E2,7.7008685E2,-2.4080595E2,-1.1298535E3,-1.6485812E2,-2.3440758E2,3.1243948E3,1.05269196E2,1.348659E3,4.8911908E2,1.0926498E3,2.0273914E2,4.093232E3,1.893745E3,5.436739E3,3.6245593E3,6.493032E3,9.212951E2,-3.1387775E2,-1.8845418E2,2.4834211E1,-3.1024036E2,-7.219612E1,-3.352386E2,-3.096888E2,-1.5055913E2,-2.0475772E2,-1.4504613E2,-1.6534927E2,-1.0096794E2,-7.417059E1,1.4782837E2,-9.974838E1,1.6070602E1,-1.2456187E2,-1.59748535E1,-6.542664E1,9.7880615E1,7.589528E2,2.337738E2,-1.0267293E2,5.8444763E1,5.11499E0,1.5563857E2,1.3330849E1,9.4131516E1,6.0752834E1,1.25926956E2,6.06875E2,2.7525204E2,1.2788369E2,2.4988489E2,1.3430977E2,6.292262E2,1.7537625E2,5.1329004E2,3.5093732E2,6.9886365E2],"categories":[],"categories_nodes":[],"categories_segments":[],"categories_sizes":[],"default_left":[0,0,0,0,0,0,0,0,0,0,0,0,0,0,0,0,0,0,0,0,0,0,0,0,0,0,0,0,0,0,0,0,0,0,0,0,0,0,0,0,0,0,0,0,0,0,0,0,0,0,0,0,0,0,0,0,0,0,0,0,0,0,0,0,0,0,0,0,0,0,0,0,0,0,0,0,0,0,0,0,0,0,0,0,0,0,0,0,0,0,0,0,0,0,0,0,0],"id":12,"left_children":[1,3,5,7,9,11,13,15,17,19,21,23,25,27,29,31,33,35,37,39,41,43,45,47,49,51,53,-1,-1,55,-1,57,59,61,63,65,67,-1,69,71,-1,-1,73,-1,75,77,79,81,83,85,-1,87,89,91,93,95,-1,-1,-1,-1,-1,-1,-1,-1,-1,-1,-1,-1,-1,-1,-1,-1,-1,-1,-1,-1,-1,-1,-1,-1,-1,-1,-1,-1,-1,-1,-1,-1,-1,-1,-1,-1,-1,-1,-1,-1,-1],"loss_changes":[7.3079977E9,8.641846E8,1.6605312E9,5.4418944E7,9.74037E7,1.391225E8,1.2663194E8,5.19328E7,3.2366624E7,2.7438232E7,4.2436268E7,8.293656E6,1.148896E7,3.80192E6,4.173312E7,6.560397E7,2.1676928E7,2.063936E6,5.139891E6,1.3888808E8,3.676756E6,1.1554888E7,1.7978154E8,2.816088E6,3.650496E6,1.3669632E7,2.813056E6,0E0,0E0,1.710848E7,0E0,3.888749E7,1.0734382E8,1.591872E7,2.1858752E7,2.148256E6,1.155424E6,0E0,6.571135E6,3.1524716E7,0E0,0E0,6.99449E5,0E0,7.771699E6,6.3045824E7,7.654016E7,1.807081E6,2.1270605E6,2.04927E5,0E0,1.835832E6,1.26938E6,2.6570912E7,4.4612304E7,6.527232E6,0E0,0E0,0E0,0E0,0E0,0E0,0E0,0E0,0E0,0E0,0E0,0E0,0E0,0E0,0E0,0E0,0E0,0E0,0E0,0E0,0E0,0E0,0E0,0E0,0E0,0E0,0E0,0E0,0E0,0E0,0E0,0E0,0E0,0E0,0E0,0E0,0E0,0E0,0E0,0E0,0E0],"parents":[2147483647,0,0,1,1,2,2,3,3,4,4,5,5,6,6,7,7,8,8,9,9,10,10,11,11,12,12,13,13,14,14,15,15,16,16,17,17,18,18,19,19,20,20,21,21,22,22,23,23,24,24,25,25,26,26,29,29,31,31,32,32,33,33,34,34,35,35,36,36,38,38,39,39,42,42,44,44,45,45,46,46,47,47,48,48,49,49,51,51,52,52,53,53,54,54,55,55],"right_children":[2,4,6,8,10,12,14,16,18,20,22,24,26,28,30,32,34,36,38,40,42,44,46,48,50,52,54,-1,-1,56,-1,58,60,62,64,66,68,-1,70,72,-1,-1,74,-1,76,78,80,82,84,86,-1,88,90,92,94,96,-1,-1,-1,-1,-1,-1,-1,-1,-1,-1,-1,-1,-1,-1,-1,-1,-1,-1,-1,-1,-1,-1,-1,-1,-1,-1,-1,-1,-1,-1,-1,-1,-1,-1,-1,-1,-1,-1,-1,-1,-1],"split_conditions":[1E0,4.3E1,3.021E1,3.4E1,5.2E1,3.8E1,2.8E1,1E0,4E0,3.6765E1,2.47E1,2.527E1,2.5935E1,3.078E1,3.6385E1,2E0,2.8E1,4.1E1,3.6E1,3.667E1,4.9E1,5.7E1,2.684E1,2E0,2.1E1,1E0,4.5E1,2.3825664E2,6.170949E2,4.4E1,1.0786117E3,2.3E1,3.27E1,1.919E1,2.907E1,3E0,2E0,1.9608316E2,4E1,3E0,7.7008685E2,-2.4080595E2,3E0,-1.6485812E2,1E0,5.3E1,3.14E1,2E1,2.6E1,1E0,2.0273914E2,4.6E1,4.8E1,1E0,5.7E1,1E0,9.212951E2,-3.1387775E2,-1.8845418E2,2.4834211E1,-3.1024036E2,-7.219612E1,-3.352386E2,-3.096888E2,-1.5055913E2,-2.0475772E2,-1.4504613E2,-1.6534927E2,-1.0096794E2,-7.417059E1,1.4782837E2,-9.974838E1,1.6070602E1,-1.2456187E2,-1.59748535E1,-6.542664E1,9.7880615E1,7.589528E2,2.337738E2,-1.0267293E2,5.8444763E1,5.11499E0,1.5563857E2,1.3330849E1,9.4131516E1,6.0752834E1,1.25926956E2,6.06875E2,2.7525204E2,1.2788369E2,2.4988489E2,1.3430977E2,6.292262E2,1.7537625E2,5.1329004E2,3.5093732E2,6.9886365E2],"split_indices":[4,0,2,0,0,0,0,1,3,2,2,2,2,2,2,3,0,0,0,2,0,0,2,5,0,3,0,0,0,0,0,0,2,2,2,3,3,0,0,5,0,0,3,0,3,0,2,0,0,5,0,0,0,1,0,3,0,0,0,0,0,0,0,0,0,0,0,0,0,0,0,0,0,0,0,0,0,0,0,0,0,0,0,0,0,0,0,0,0,0,0,0,0,0,0,0,0],"split_type":[0,0,0,0,0,0,0,0,0,0,0,0,0,0,0,0,0,0,0,0,0,0,0,0,0,0,0,0,0,0,0,0,0,0,0,0,0,0,0,0,0,0,0,0,0,0,0,0,0,0,0,0,0,0,0,0,0,0,0,0,0,0,0,0,0,0,0,0,0,0,0,0,0,0,0,0,0,0,0,0,0,0,0,0,0,0,0,0,0,0,0,0,0,0,0,0,0],"sum_hessian":[9.36E2,7.5E2,1.86E2,4.25E2,3.25E2,9.3E1,9.3E1,2.92E2,1.33E2,1.41E2,1.84E2,4.9E1,4.4E1,2.2E1,7.1E1,1.53E2,1.39E2,1.28E2,5E0,1.25E2,1.6E1,2.3E1,1.61E2,1.9E1,3E1,1.7E1,2.7E1,2E0,2E1,4.2E1,2.9E1,1.13E2,4E1,9.8E1,4.1E1,9.5E1,3.3E1,1E0,4E0,1.24E2,1E0,9E0,7E0,1E1,1.3E1,2.2E1,1.39E2,6E0,1.3E1,1.1E1,1.9E1,6E0,1.1E1,9E0,1.8E1,2E1,2.2E1,5.3E1,6E1,2.6E1,1.4E1,3E0,9.5E1,1.8E1,2.3E1,7.5E1,2E1,2.2E1,1.1E1,3E0,1E0,9.3E1,3.1E1,6E0,1E0,1E1,3E0,2E0,2E1,4.1E1,9.8E1,1E0,5E0,8E0,5E0,4E0,7E0,1E0,5E0,7E0,4E0,2E0,7E0,9E0,9E0,4E0,1.6E1],"tree_param":{"num_deleted":"0","num_feature":"6","num_nodes":"97","size_leaf_vector":"1"}},{"base_weights":[4.110646E1,-1.2204752E3,5.1074526E3,-1.9363823E3,9.9778534E1,2.319073E3,7.726447E3,-2.227016E3,-1.2749253E3,-1.729725E2,7.9305414E2,1.2411176E3,3.6296733E3,6.8070815E3,9.823821E3,-1.9188638E3,-2.5599236E3,-1.6021351E3,-9.3965704E2,-4.5420685E2,4.0563388E2,6.0401227E2,7.3910754E2,7.9053174E2,1.4980297E3,3.7066104E3,2.7609863E1,6.0400625E3,8.548024E2,2.7757364E2,9.988143E2,-1.4507306E3,-2.5635022E3,-2.956087E3,-1.875004E3,-1.8838224E3,-5.302715E2,-1.1926686E3,-2.5291603E2,9.0652997E2,-7.2718835E2,-1.6346631E3,1.1349832E3,2.7265726E2,1.3748215E3,1.2913508E3,4.4788287E2,1.1401346E3,1.8767422E2,2.6956592E3,4.268259E3,8.339244E3,5.618038E3,-1.7856554E2,4.4289584E2,-2.719865E2,-6.783342E1,-6.6781425E1,-3.020639E2,-2.6386456E2,-1.23233765E2,1.9789385E1,-2.038818E2,3.1240878E2,-2.3132617E2,-1.3563922E2,1.4716735E1,-1.3593982E2,2.3123172E2,-3.343209E1,2.7360168E2,-1.7217229E2,9.713466E0,-1.8689244E2,8.153092E0,-1.498272E2,2.0806213E2,9.970924E1,1.2288526E0,2.1287593E2,-1.6143187E2,4.8592286E0,1.4619461E2,1.2145865E1,8.628721E1,6.936973E1,1.2500268E2,3.809927E2,1.74152E2,6.628265E2,3.2983484E2,4.8104306E2,1.2991656E3,3.8465402E2,6.0524805E2],"categories":[],"categories_nodes":[],"categories_segments":[],"categories_sizes":[],"default_left":[0,0,0,0,0,0,0,0,0,0,0,0,0,0,0,0,0,0,0,0,0,0,0,0,0,0,0,0,0,0,0,0,0,0,0,0,0,0,0,0,0,0,0,0,0,0,0,0,0,0,0,0,0,0,0,0,0,0,0,0,0,0,0,0,0,0,0,0,0,0,0,0,0,0,0,0,0,0,0,0,0,0,0,0,0,0,0,0,0,0,0,0,0,0,0],"id":13,"left_children":[1,3,5,7,9,11,13,15,17,19,21,23,25,27,29,31,33,35,37,39,41,43,-1,45,47,49,-1,51,-1,-1,-1,53,55,57,59,61,63,65,67,69,71,73,75,77,79,81,83,85,-1,87,89,91,93,-1,-1,-1,-1,-1,-1,-1,-1,-1,-1,-1,-1,-1,-1,-1,-1,-1,-1,-1,-1,-1,-1,-1,-1,-1,-1,-1,-1,-1,-1,-1,-1,-1,-1,-1,-1,-1,-1,-1,-1,-1,-1],"loss_changes":[5.995172E9,7.1002266E8,1.3476961E9,9.078259E7,5.0246456E7,1.2546992E8,1.1824026E8,2.9659392E7,1.5059696E7,3.1264522E7,8.908336E7,4.835328E6,9.555136E6,4.1842944E7,3.545856E6,5.029907E7,3.7600384E7,2.164584E7,1.3077368E7,4.8577044E7,9.5604936E7,1.8525598E7,0E0,3.025333E6,2.197528E6,1.1206144E7,0E0,3.606144E6,0E0,0E0,0E0,2.1664949E8,1.9968032E7,1.2606336E7,2.6685072E7,1.9440208E7,1.179935E8,1.2483928E7,6.5587824E7,5.085735E7,8.870756E7,6.987016E6,1.2015232E8,9.984621E6,5.3016268E7,1.625029E6,1.7916722E6,6.5E4,0E0,1.1438768E7,3.3073536E7,3.6009504E7,1.2890752E7,0E0,0E0,0E0,0E0,0E0,0E0,0E0,0E0,0E0,0E0,0E0,0E0,0E0,0E0,0E0,0E0,0E0,0E0,0E0,0E0,0E0,0E0,0E0,0E0,0E0,0E0,0E0,0E0,0E0,0E0,0E0,0E0,0E0,0E0,0E0,0E0,0E0,0E0,0E0,0E0,0E0,0E0],"parents":[2147483647,0,0,1,1,2,2,3,3,4,4,5,5,6,6,7,7,8,8,9,9,10,10,11,11,12,12,13,13,14,14,15,15,16,16,17,17,18,18,19,19,20,20,21,21,23,23,24,24,25,25,27,27,31,31,32,32,33,33,34,34,35,35,36,36,37,37,38,38,39,39,40,40,41,41,42,42,43,43,44,44,45,45,46,46,47,47,49,49,50,50,51,51,52,52],"right_children":[2,4,6,8,10,12,14,16,18,20,22,24,26,28,30,32,34,36,38,40,42,44,-1,46,48,50,-1,52,-1,-1,-1,54,56,58,60,62,64,66,68,70,72,74,76,78,80,82,84,86,-1,88,90,92,94,-1,-1,-1,-1,-1,-1,-1,-1,-1,-1,-1,-1,-1,-1,-1,-1,-1,-1,-1,-1,-1,-1,-1,-1,-1,-1,-1,-1,-1,-1,-1,-1,-1,-1,-1,-1,-1,-1,-1,-1,-1,-1],"split_conditions":[1E0,4.7E1,3.002E1,3.7E1,5.9E1,4E1,5.2E1,1E0,2E0,2E0,4E0,2.527E1,2.9925E1,3.7905E1,3.078E1,3.0685E1,2.8E1,4.5E1,3E0,4.9E1,1E0,1E0,7.3910754E2,2E0,2.8E1,2.5935E1,2.7609863E1,3.04E1,8.548024E2,2.7757364E2,9.988143E2,3.04E1,4.123E1,1.919E1,2.907E1,3.8E1,2.77E1,4E0,2.7455E1,3.2395E1,5.4E1,4E0,5E1,2.585E1,3.6955E1,2E1,2.6E1,2.736E1,1.8767422E2,1E0,4.4E1,4.5E1,3.179E1,-1.7856554E2,4.4289584E2,-2.719865E2,-6.783342E1,-6.6781425E1,-3.020639E2,-2.6386456E2,-1.23233765E2,1.9789385E1,-2.038818E2,3.1240878E2,-2.3132617E2,-1.3563922E2,1.4716735E1,-1.3593982E2,2.3123172E2,-3.343209E1,2.7360168E2,-1.7217229E2,9.713466E0,-1.8689244E2,8.153092E0,-1.498272E2,2.0806213E2,9.970924E1,1.2288526E0,2.1287593E2,-1.6143187E2,4.8592286E0,1.4619461E2,1.2145865E1,8.628721E1,6.936973E1,1.2500268E2,3.809927E2,1.74152E2,6.628265E2,3.2983484E2,4.8104306E2,1.2991656E3,3.8465402E2,6.0524805E2],"split_indices":[4,0,2,0,0,0,0,1,3,3,3,2,2,2,2,2,0,0,5,0,5,3,0,5,0,2,0,2,0,0,0,2,2,2,2,0,2,3,2,2,0,3,0,2,2,0,0,2,0,3,0,0,2,0,0,0,0,0,0,0,0,0,0,0,0,0,0,0,0,0,0,0,0,0,0,0,0,0,0,0,0,0,0,0,0,0,0,0,0,0,0,0,0,0,0],"split_type":[0,0,0,0,0,0,0,0,0,0,0,0,0,0,0,0,0,0,0,0,0,0,0,0,0,0,0,0,0,0,0,0,0,0,0,0,0,0,0,0,0,0,0,0,0,0,0,0,0,0,0,0,0,0,0,0,0,0,0,0,0,0,0,0,0,0,0,0,0,0,0,0,0,0,0,0,0,0,0,0,0,0,0,0,0,0,0,0,0,0,0,0,0,0,0],"sum_hessian":[9.36E2,7.5E2,1.86E2,4.86E2,2.64E2,9.1E1,9.5E1,3.36E2,1.5E2,1.9E2,7.4E1,5.1E1,4E1,6.9E1,2.6E1,1.78E2,1.58E2,7.4E1,7.6E1,1.28E2,6.2E1,7.3E1,1E0,2E1,3.1E1,3.9E1,1E0,5.1E1,1.8E1,1E0,2.5E1,1.05E2,7.3E1,9.8E1,6E1,5.8E1,1.6E1,5.5E1,2.1E1,2.1E1,1.07E2,1.6E1,4.6E1,5.2E1,2.1E1,7E0,1.3E1,1.8E1,1.3E1,1.6E1,2.3E1,5E0,4.6E1,1E2,5E0,6.7E1,6E0,3E0,9.5E1,2.6E1,3.4E1,4E0,5.4E1,5E0,1.1E1,4.9E1,6E0,1.5E1,6E0,1.3E1,8E0,4.8E1,5.9E1,1.4E1,2E0,1.2E1,3.4E1,1.3E1,3.9E1,1.7E1,4E0,1E0,6E0,8E0,5E0,5E0,1.3E1,6E0,1E1,5E0,1.8E1,4E0,1E0,1.1E1,3.5E1],"tree_param":{"num_deleted":"0","num_feature":"6","num_nodes":"95","size_leaf_vector":"1"}},{"base_weights":[4.4463203E1,-1.098576E3,4.6347197E3,-1.7447155E3,9.300317E1,2.1636455E3,7.056489E3,-2.067523E3,-1.2507294E3,-1.0947933E3,2.2680025E2,1.2078802E3,3.318215E3,4.8284043E3,7.670231E3,-1.7121698E3,-2.443643E3,-1.3227815E3,5.988355E2,-1.1913634E3,7.4888024E0,1.9366082E3,-3.73375E1,1.0595477E3,2.7600656E2,2.4587488E3,3.75255E3,1.1954063E2,4.939204E2,6.6355366E3,8.897618E3,-2.059714E3,-7.04067E2,-2.6729514E3,-1.7330566E3,-1.5813119E3,-1.0416879E3,-7.986553E1,1.197775E3,-4.392601E1,-1.2376654E3,8.6210376E2,2.957231E3,-6.863585E2,2.9684967E2,7.852271E2,1.372991E3,3.483362E3,1.5831996E3,5.282864E3,3.029313E3,1.1754954E3,6.099103E3,1.0629285E3,6.948152E2,-2.6300302E2,-1.5210785E2,-2.1293152E2,8.989093E1,-2.9381638E2,-1.9208224E2,1.12381935E2,-2.6914746E2,-1.6796565E2,-1.15009766E2,-1.794922E2,-7.0635086E1,3.949352E1,1.8689697E2,-1.2832726E2,-5.058607E1,4.740187E2,-1.6841406E2,7.956201E1,4.550082E2,3.354121E1,-1.0397035E2,6.998111E1,-8.643135E1,2.3951033E1,9.171746E1,9.7011856E1,1.6278749E2,5.574816E2,2.2056505E2,9.452999E1,2.1596191E2,8.116732E1,6.909005E2,1.5313982E2,4.3740878E2,4.839427E2,7.592797E2],"categories":[],"categories_nodes":[],"categories_segments":[],"categories_sizes":[],"default_left":[0,0,0,0,0,0,0,0,0,0,0,0,0,0,0,0,0,0,0,0,0,0,0,0,0,0,0,0,0,0,0,0,0,0,0,0,0,0,0,0,0,0,0,0,0,0,0,0,0,0,0,0,0,0,0,0,0,0,0,0,0,0,0,0,0,0,0,0,0,0,0,0,0,0,0,0,0,0,0,0,0,0,0,0,0,0,0,0,0,0,0,0,0],"id":14,"left_children":[1,3,5,7,9,11,13,15,17,19,21,23,25,27,29,31,33,35,37,39,-1,41,43,45,-1,47,49,-1,-1,51,53,55,57,59,61,63,65,-1,67,-1,69,71,73,75,77,79,81,83,85,87,89,-1,91,-1,-1,-1,-1,-1,-1,-1,-1,-1,-1,-1,-1,-1,-1,-1,-1,-1,-1,-1,-1,-1,-1,-1,-1,-1,-1,-1,-1,-1,-1,-1,-1,-1,-1,-1,-1,-1,-1,-1,-1],"loss_changes":[4.921384E9,5.7837677E8,1.1038098E9,7.507238E7,4.2363084E7,9.97207E7,9.150771E7,3.497715E7,2.6778784E7,3.139034E6,1.0801064E8,9.278272E6,6.451904E6,3.353952E6,3.2397312E7,5.250531E7,1.8179648E7,1.2014976E7,7.652708E6,3.2694E5,0E0,3.25438E7,4.53178E7,3.221084E6,0E0,9.73584E6,1.27728E7,0E0,0E0,4.6393216E7,2.7420928E7,3.1019488E7,9.5584264E7,1.5101632E7,1.0433374E8,2.13936E6,2.2222776E7,0E0,2.495049E6,0E0,1.1848E5,1.7585046E8,5.146984E7,2.5982394E7,6.5175596E7,1.868498E6,6.79856E5,6.409832E6,2.003188E6,4.5287664E7,3.358869E7,0E0,4.039949E7,0E0,0E0,0E0,0E0,0E0,0E0,0E0,0E0,0E0,0E0,0E0,0E0,0E0,0E0,0E0,0E0,0E0,0E0,0E0,0E0,0E0,0E0,0E0,0E0,0E0,0E0,0E0,0E0,0E0,0E0,0E0,0E0,0E0,0E0,0E0,0E0,0E0,0E0,0E0,0E0],"parents":[2147483647,0,0,1,1,2,2,3,3,4,4,5,5,6,6,7,7,8,8,9,9,10,10,11,11,12,12,13,13,14,14,15,15,16,16,17,17,18,18,19,19,21,21,22,22,23,23,25,25,26,26,29,29,30,30,31,31,32,32,33,33,34,34,35,35,36,36,38,38,40,40,41,41,42,42,43,43,44,44,45,45,46,46,47,47,48,48,49,49,50,50,52,52],"right_children":[2,4,6,8,10,12,14,16,18,20,22,24,26,28,30,32,34,36,38,40,-1,42,44,46,-1,48,50,-1,-1,52,54,56,58,60,62,64,66,-1,68,-1,70,72,74,76,78,80,82,84,86,88,90,-1,92,-1,-1,-1,-1,-1,-1,-1,-1,-1,-1,-1,-1,-1,-1,-1,-1,-1,-1,-1,-1,-1,-1,-1,-1,-1,-1,-1,-1,-1,-1,-1,-1,-1,-1,-1,-1,-1,-1,-1,-1],"split_conditions":[1E0,4.7E1,3.021E1,3.4E1,2.376E1,4E1,2.8E1,1E0,4E0,6.2E1,2.641E1,2.926E1,2.5935E1,3.0305E1,3.6385E1,2E0,3.382E1,4.1E1,2.432E1,1.8715E1,7.4888024E0,1E0,3.14E1,2.8E1,2.7600656E2,1E0,4.4E1,1.1954063E2,4.939204E2,3.04E1,2E0,2.3E1,2E0,3E0,3.5435E1,3E0,2.755E1,-7.986553E1,4E1,-4.392601E1,5.9E1,1E0,1E0,1E0,3.8095E1,2.1755E1,2.5365E1,4.6E1,4.8E1,1E0,5.7E1,1.1754954E3,5E1,1.0629285E3,6.948152E2,-2.6300302E2,-1.5210785E2,-2.1293152E2,8.989093E1,-2.9381638E2,-1.9208224E2,1.12381935E2,-2.6914746E2,-1.6796565E2,-1.15009766E2,-1.794922E2,-7.0635086E1,3.949352E1,1.8689697E2,-1.2832726E2,-5.058607E1,4.740187E2,-1.6841406E2,7.956201E1,4.550082E2,3.354121E1,-1.0397035E2,6.998111E1,-8.643135E1,2.3951033E1,9.171746E1,9.7011856E1,1.6278749E2,5.574816E2,2.2056505E2,9.452999E1,2.1596191E2,8.116732E1,6.909005E2,1.5313982E2,4.3740878E2,4.839427E2,7.592797E2],"split_indices":[4,0,2,0,2,0,0,1,3,0,2,2,2,2,2,3,2,0,2,2,0,3,2,0,0,3,0,0,0,2,3,0,5,5,2,3,2,0,0,0,0,1,1,5,2,2,2,0,0,1,0,0,0,0,0,0,0,0,0,0,0,0,0,0,0,0,0,0,0,0,0,0,0,0,0,0,0,0,0,0,0,0,0,0,0,0,0,0,0,0,0,0,0],"split_type":[0,0,0,0,0,0,0,0,0,0,0,0,0,0,0,0,0,0,0,0,0,0,0,0,0,0,0,0,0,0,0,0,0,0,0,0,0,0,0,0,0,0,0,0,0,0,0,0,0,0,0,0,0,0,0,0,0,0,0,0,0,0,0,0,0,0,0,0,0,0,0,0,0,0,0,0,0,0,0,0,0,0,0,0,0,0,0,0,0,0,0,0,0],"sum_hessian":[9.36E2,7.5E2,1.86E2,4.86E2,2.64E2,9.3E1,9.3E1,2.92E2,1.94E2,2.6E1,2.38E2,5.2E1,4.1E1,2.2E1,7.1E1,1.53E2,1.39E2,1.87E2,7E0,2.4E1,2E0,3.1E1,2.07E2,4.9E1,3E0,1.6E1,2.5E1,1E0,2.1E1,4.2E1,2.9E1,1.13E2,4E1,1.03E2,3.6E1,9.5E1,9.2E1,2E0,5E0,2E0,2.2E1,1.6E1,1.5E1,7E1,1.37E2,2.8E1,2.1E1,6E0,1E1,6E0,1.9E1,2E0,4E1,1.3E1,1.6E1,5.3E1,6E1,2.1E1,1.9E1,7.4E1,2.9E1,9E0,2.7E1,7.5E1,2E1,2.7E1,6.5E1,3E0,2E0,2E1,2E0,6E0,1E1,7E0,8E0,1.8E1,5.2E1,1.02E2,3.5E1,6E0,2.2E1,1E1,1.1E1,1E0,5E0,6E0,4E0,2E0,4E0,1E1,9E0,2.4E1,1.6E1],"tree_param":{"num_deleted":"0","num_feature":"6","num_nodes":"93","size_leaf_vector":"1"}},{"base_weights":[4.734142E1,-9.900892E2,4.213454E3,-1.5734624E3,8.573285E1,1.9284753E3,6.359335E3,-1.8648007E3,-1.1276389E3,-1.5220837E2,6.905467E2,1.0238762E3,3.0287358E3,5.601569E3,8.088382E3,-1.5444473E3,-2.2038694E3,-1.193339E3,5.5726776E2,-1.11357E3,-2.047154E1,5.1105325E2,6.9865314E2,7.7556177E2,1.3824014E3,3.108612E3,-8.315625E0,4.9665264E3,7.044762E2,5.69012E2,9.164411E2,-2.955659E2,-1.286854E3,-2.4103284E3,-1.5639878E3,-1.106243E3,-2.0043492E2,-7.454118E2,1.1157296E3,-4.0997623E1,-1.1610562E3,1.8403794E3,-3.4116672E2,6.58106E2,-9.9046684E1,3.286903E2,9.05413E2,9.819535E1,1.620772E2,4.151699E3,2.5697964E3,7.3187417E3,4.5605728E3,3.533299E2,-1.5444272E2,-2.648265E2,-1.7351431E2,1.0226759E2,-2.4319395E2,-1.2577179E2,3.4883537E1,-2.1976171E1,-8.9835594E1,3.6531532E1,1.7443721E2,-8.915779E1,-1.4212964E2,4.0618735E2,8.859173E0,-7.103373E1,4.196641E1,2.26503E1,2.0466594E2,1.1459277E1,5.6766407E1,1.07410095E2,5.930737E1,1.18845024E2,6.098527E2,1.5307654E2,3.7308524E2,4.08076E2,1.1754326E3,3.2775522E2,5.1170493E2],"categories":[],"categories_nodes":[],"categories_segments":[],"categories_sizes":[],"default_left":[0,0,0,0,0,0,0,0,0,0,0,0,0,0,0,0,0,0,0,0,0,0,0,0,0,0,0,0,0,0,0,0,0,0,0,0,0,0,0,0,0,0,0,0,0,0,0,0,0,0,0,0,0,0,0,0,0,0,0,0,0,0,0,0,0,0,0,0,0,0,0,0,0,0,0,0,0,0,0,0,0,0,0,0,0],"id":15,"left_children":[1,3,5,7,9,11,13,15,17,19,21,23,25,27,29,31,33,35,37,39,41,43,-1,45,47,49,-1,51,-1,-1,-1,-1,53,55,57,59,-1,61,63,-1,65,67,69,71,-1,73,75,-1,-1,77,79,81,83,-1,-1,-1,-1,-1,-1,-1,-1,-1,-1,-1,-1,-1,-1,-1,-1,-1,-1,-1,-1,-1,-1,-1,-1,-1,-1,-1,-1,-1,-1,-1,-1],"loss_changes":[4.053935E9,4.714668E8,9.046518E8,6.115136E7,3.8241296E7,8.846605E7,8.047258E7,2.8422336E7,2.2251216E7,2.4166728E7,8.118611E7,3.557268E6,1.0449728E7,2.9166336E7,1.75296E7,5.2178336E7,1.4725632E7,1.106224E7,6.651652E6,2.92448E5,1.0148132E8,1.6991226E7,0E0,1.617284E6,3.17576E5,1.1812256E7,0E0,1.6276608E7,0E0,0E0,0E0,0E0,1.6934045E8,1.2112576E7,8.555576E7,3.8348864E7,0E0,4.3761125E4,2.1932085E6,0E0,2.05516E5,9.69298E7,4.1025172E7,4.028908E7,0E0,3.95423E5,6.80176E5,0E0,0E0,6.1979424E7,2.927376E7,3.8207456E7,1.678528E7,0E0,0E0,0E0,0E0,0E0,0E0,0E0,0E0,0E0,0E0,0E0,0E0,0E0,0E0,0E0,0E0,0E0,0E0,0E0,0E0,0E0,0E0,0E0,0E0,0E0,0E0,0E0,0E0,0E0,0E0,0E0,0E0],"parents":[2147483647,0,0,1,1,2,2,3,3,4,4,5,5,6,6,7,7,8,8,9,9,10,10,11,11,12,12,13,13,14,14,15,15,16,16,17,17,18,18,19,19,20,20,21,21,23,23,24,24,25,25,27,27,32,32,33,33,34,34,35,35,37,37,38,38,40,40,41,41,42,42,43,43,45,45,46,46,49,49,50,50,51,51,52,52],"right_children":[2,4,6,8,10,12,14,16,18,20,22,24,26,28,30,32,34,36,38,40,42,44,-1,46,48,50,-1,52,-1,-1,-1,-1,54,56,58,60,-1,62,64,-1,66,68,70,72,-1,74,76,-1,-1,78,80,82,84,-1,-1,-1,-1,-1,-1,-1,-1,-1,-1,-1,-1,-1,-1,-1,-1,-1,-1,-1,-1,-1,-1,-1,-1,-1,-1,-1,-1,-1,-1,-1,-1],"split_conditions":[1E0,4.7E1,3.002E1,3.4E1,5.9E1,4E1,5.2E1,1E0,4E0,2.376E1,4E0,2.772E1,2.9925E1,3.7905E1,3.432E1,2.3E1,3.382E1,3.743E1,2.432E1,1.8715E1,2.684E1,3E0,6.9865314E2,2E1,1E0,4.6E1,-8.315625E0,3.04E1,7.044762E2,5.69012E2,9.164411E2,-2.955659E2,2.3655E1,3E0,3.5435E1,3.531E1,-2.0043492E2,4E1,4E1,-4.0997623E1,1E0,2E0,2E0,1E0,-9.9046684E1,2.527E1,2E0,9.819535E1,1.620772E2,1E0,5.7E1,4.5E1,1E0,3.533299E2,-1.5444272E2,-2.648265E2,-1.7351431E2,1.0226759E2,-2.4319395E2,-1.2577179E2,3.4883537E1,-2.1976171E1,-8.9835594E1,3.6531532E1,1.7443721E2,-8.915779E1,-1.4212964E2,4.0618735E2,8.859173E0,-7.103373E1,4.196641E1,2.26503E1,2.0466594E2,1.1459277E1,5.6766407E1,1.07410095E2,5.930737E1,1.18845024E2,6.098527E2,1.5307654E2,3.7308524E2,4.08076E2,1.1754326E3,3.2775522E2,5.1170493E2],"split_indices":[4,0,2,0,0,0,0,1,3,2,3,2,2,2,2,2,2,2,2,2,2,3,0,0,3,0,0,2,0,0,0,0,2,5,2,2,0,0,0,0,1,5,3,3,0,2,5,0,0,1,0,0,3,0,0,0,0,0,0,0,0,0,0,0,0,0,0,0,0,0,0,0,0,0,0,0,0,0,0,0,0,0,0,0,0],"split_type":[0,0,0,0,0,0,0,0,0,0,0,0,0,0,0,0,0,0,0,0,0,0,0,0,0,0,0,0,0,0,0,0,0,0,0,0,0,0,0,0,0,0,0,0,0,0,0,0,0,0,0,0,0,0,0,0,0,0,0,0,0,0,0,0,0,0,0,0,0,0,0,0,0,0,0,0,0,0,0,0,0,0,0,0,0],"sum_hessian":[9.36E2,7.5E2,1.86E2,4.86E2,2.64E2,9.1E1,9.5E1,2.92E2,1.94E2,1.9E2,7.4E1,5.1E1,4E1,6.9E1,2.6E1,1.53E2,1.39E2,1.87E2,7E0,2.2E1,1.68E2,7.3E1,1E0,3.2E1,1.9E1,3.9E1,1E0,5.1E1,1.8E1,1E1,1.6E1,2.2E1,1.31E2,1.03E2,3.6E1,1.71E2,1.6E1,2E0,5E0,2E0,2E1,2.4E1,1.44E2,6.7E1,6E0,8E0,2.4E1,9E0,1E1,1.1E1,2.8E1,5E0,4.6E1,6E0,1.25E2,7.4E1,2.9E1,9E0,2.7E1,1.55E2,1.6E1,1E0,1E0,3E0,2E0,1.2E1,8E0,1E1,1.4E1,9.7E1,4.7E1,5.2E1,1.5E1,5E0,3E0,1.4E1,1E1,5E0,6E0,1.6E1,1.2E1,4E0,1E0,1.6E1,3E1],"tree_param":{"num_deleted":"0","num_feature":"6","num_nodes":"85","size_leaf_vector":"1"}},{"base_weights":[4.946663E1,-8.9098364E2,3.8260908E3,-1.5195919E3,-6.681773E1,1.7545598E3,5.7714526E3,-1.8241244E3,-1.2871654E3,-2.746881E2,6.3251764E2,9.310118E2,2.7562656E3,5.0860903E3,7.3345605E3,-2.1797537E3,-1.4828341E3,-2.2356497E3,-1.1788285E3,-1.2190557E3,-1.3670418E2,4.6168124E2,6.637205E2,7.0512506E2,1.2571742E3,2.829122E3,-7.8998046E0,4.3639224E3,6.0745835E3,1.0105553E4,6.245446E3,-2.2948381E2,-1.415754E3,-9.454333E1,-1.6800359E3,-2.6366806E2,-1.1040026E2,-8.339956E2,-1.5350966E3,-7.644714E2,-1.5301506E3,7.1015375E2,-4.0147794E2,-9.0281006E2,6.177148E2,4.7793628E2,9.458892E2,8.611897E1,1.449398E2,3.7972537E3,2.33096E3,6.850786E3,3.8694326E3,3.3864407E2,6.5315957E3,2.1624727E2,1.1261674E3,3.1899234E2,6.747233E2,2.326696E2,-2.233387E2,7.68106E2,-2.2065677E2,-1.8309256E2,-7.1510544E1,-1.0463147E2,5.3194403E2,-3.4351297E2,-1.3896521E2,-9.432979E1,-4.9008595E1,-1.7831345E2,-8.778711E1,-1.7337651E2,1.318827E2,-7.300877E1,6.7654076E1,-1.3641386E2,-1.0044678E1,2.4501842E2,2.9112156E1,8.855349E1,2.6911285E1,4.224607E1,1.0415413E2,5.578026E2,1.0868102E2,1.2589892E2,3.247534E2,3.7542996E2,1.116661E3,3.1738632E2,4.6709473E2,8.4906964E2,5.2662646E2],"categories":[],"categories_nodes":[],"categories_segments":[],"categories_sizes":[],"default_left":[0,0,0,0,0,0,0,0,0,0,0,0,0,0,0,0,0,0,0,0,0,0,0,0,0,0,0,0,0,0,0,0,0,0,0,0,0,0,0,0,0,0,0,0,0,0,0,0,0,0,0,0,0,0,0,0,0,0,0,0,0,0,0,0,0,0,0,0,0,0,0,0,0,0,0,0,0,0,0,0,0,0,0,0,0,0,0,0,0,0,0,0,0,0,0],"id":16,"left_children":[1,3,5,7,9,11,13,15,17,19,21,23,25,27,29,31,33,35,37,39,41,43,-1,45,47,49,-1,51,53,55,57,-1,59,61,63,-1,-1,65,67,69,71,73,75,77,79,81,83,-1,-1,85,87,89,91,-1,93,-1,-1,-1,-1,-1,-1,-1,-1,-1,-1,-1,-1,-1,-1,-1,-1,-1,-1,-1,-1,-1,-1,-1,-1,-1,-1,-1,-1,-1,-1,-1,-1,-1,-1,-1,-1,-1,-1,-1,-1],"loss_changes":[3.3313774E9,3.8897466E8,7.4346086E8,2.7804992E7,4.756472E7,7.332954E7,6.5540096E7,1.88576E7,2.2539776E7,3.2670852E7,7.387216E7,2.944676E6,8.692768E6,2.3460992E7,1.8370304E7,4.400512E6,2.6123408E7,7.980912E6,2.5993088E7,3.355652E6,4.983901E7,1.6312754E7,0E0,1.352989E6,2.74148E5,1.0440224E7,0E0,2.7599488E7,1.1051072E7,3.074592E7,1.2207744E7,0E0,4.803572E7,2.3043819E8,1.0920944E7,0E0,0E0,1.5581242E8,2.507208E7,2.73713E5,1.404928E6,8.112659E7,6.0361748E7,2.824201E6,3.938433E7,1.3788975E6,3.10996E5,0E0,0E0,5.1857936E7,2.440504E7,3.8260544E7,6.917888E6,0E0,9.821696E6,0E0,0E0,0E0,0E0,0E0,0E0,0E0,0E0,0E0,0E0,0E0,0E0,0E0,0E0,0E0,0E0,0E0,0E0,0E0,0E0,0E0,0E0,0E0,0E0,0E0,0E0,0E0,0E0,0E0,0E0,0E0,0E0,0E0,0E0,0E0,0E0,0E0,0E0,0E0,0E0],"parents":[2147483647,0,0,1,1,2,2,3,3,4,4,5,5,6,6,7,7,8,8,9,9,10,10,11,11,12,12,13,13,14,14,15,15,16,16,17,17,18,18,19,19,20,20,21,21,23,23,24,24,25,25,27,27,28,28,29,29,30,30,32,32,33,33,34,34,37,37,38,38,39,39,40,40,41,41,42,42,43,43,44,44,45,45,46,46,49,49,50,50,51,51,52,52,54,54],"right_children":[2,4,6,8,10,12,14,16,18,20,22,24,26,28,30,32,34,36,38,40,42,44,-1,46,48,50,-1,52,54,56,58,-1,60,62,64,-1,-1,66,68,70,72,74,76,78,80,82,84,-1,-1,86,88,90,92,-1,94,-1,-1,-1,-1,-1,-1,-1,-1,-1,-1,-1,-1,-1,-1,-1,-1,-1,-1,-1,-1,-1,-1,-1,-1,-1,-1,-1,-1,-1,-1,-1,-1,-1,-1,-1,-1,-1,-1,-1,-1],"split_conditions":[1E0,4.3E1,3.002E1,1E0,5.9E1,4E1,5.2E1,2.3E1,2.261E1,2.376E1,4E0,2.772E1,2.9925E1,3.6385E1,5.5E1,3.819E1,2.34E1,3.4E1,3.0685E1,1E0,2.7835E1,2.4605E1,6.637205E2,2.8E1,2.4E1,4.6E1,-7.8998046E0,3.04E1,2.1E1,3.432E1,5.7E1,-2.2948381E2,3.839E1,2.5E1,3.591E1,-2.6366806E2,-1.1040026E2,3.059E1,2E1,2E0,3E0,4.5E1,3E0,3E0,2.585E1,1E0,1E0,8.611897E1,1.449398E2,2E0,5.4E1,4.5E1,2E0,3.3864407E2,3.2E1,2.1624727E2,1.1261674E3,3.1899234E2,6.747233E2,2.326696E2,-2.233387E2,7.68106E2,-2.2065677E2,-1.8309256E2,-7.1510544E1,-1.0463147E2,5.3194403E2,-3.4351297E2,-1.3896521E2,-9.432979E1,-4.9008595E1,-1.7831345E2,-8.778711E1,-1.7337651E2,1.318827E2,-7.300877E1,6.7654076E1,-1.3641386E2,-1.0044678E1,2.4501842E2,2.9112156E1,8.855349E1,2.6911285E1,4.224607E1,1.0415413E2,5.578026E2,1.0868102E2,1.2589892E2,3.247534E2,3.7542996E2,1.116661E3,3.1738632E2,4.6709473E2,8.4906964E2,5.2662646E2],"split_indices":[4,0,2,3,0,0,0,0,2,2,3,2,2,2,0,2,2,0,2,1,2,2,0,0,0,0,0,2,0,2,0,0,2,0,2,0,0,2,0,5,5,0,5,5,2,5,3,0,0,3,0,0,3,0,0,0,0,0,0,0,0,0,0,0,0,0,0,0,0,0,0,0,0,0,0,0,0,0,0,0,0,0,0,0,0,0,0,0,0,0,0,0,0,0,0],"split_type":[0,0,0,0,0,0,0,0,0,0,0,0,0,0,0,0,0,0,0,0,0,0,0,0,0,0,0,0,0,0,0,0,0,0,0,0,0,0,0,0,0,0,0,0,0,0,0,0,0,0,0,0,0,0,0,0,0,0,0,0,0,0,0,0,0,0,0,0,0,0,0,0,0,0,0,0,0,0,0,0,0,0,0,0,0,0,0,0,0,0,0,0,0,0,0],"sum_hessian":[9.36E2,7.5E2,1.86E2,4.25E2,3.25E2,9.1E1,9.5E1,1.81E2,2.44E2,2.51E2,7.4E1,5.1E1,4E1,6.9E1,2.6E1,8.6E1,9.5E1,2.3E1,2.21E2,3.1E1,2.2E2,7.3E1,1E0,3.2E1,1.9E1,3.9E1,1E0,4.3E1,2.6E1,5E0,2.1E1,7.3E1,1.3E1,1.2E1,8.3E1,1.6E1,7E0,1.14E2,1.07E2,1.4E1,1.7E1,5.2E1,1.68E2,7E0,6.6E1,1.8E1,1.4E1,8E0,1.1E1,1.1E1,2.8E1,5E0,3.8E1,5E0,2.1E1,1E0,4E0,4E0,1.7E1,2E0,1.1E1,2E0,1E1,7.1E1,1.2E1,1.11E2,3E0,6E0,1.01E2,7E0,7E0,1.1E1,6E0,1E1,4.2E1,1.29E2,3.9E1,4E0,3E0,9E0,5.7E1,5E0,1.3E1,3E0,1.1E1,6E0,5E0,1.4E1,1.4E1,4E0,1E0,2.3E1,1.5E1,6E0,1.5E1],"tree_param":{"num_deleted":"0","num_feature":"6","num_nodes":"95","size_leaf_vector":"1"}},{"base_weights":[5.295948E1,-8.019138E2,3.485884E3,-1.3684696E3,-5.9108032E1,1.5965186E3,5.2602144E3,-1.467396E3,-7.282431E2,-4.690346E2,2.5585782E2,7.6248627E2,2.413975E3,5.003075E3,9.9236475E2,-1.95724E3,-1.345764E3,-1.4700674E3,-2.7960162E2,-3.2585E2,-1.5026948E3,6.5007135E2,-2.0550511E2,1.7764429E2,8.603925E2,1.8189595E3,2.8410298E3,3.2727417E2,5.49314E3,-2.1094294E3,4.30518E1,-1.2853707E3,-2.4790718E2,-1.8726893E3,-6.804257E2,4.9501978E2,-5.547367E2,-4.439137E2,7.216055E2,-1.9505338E2,-7.550595E2,1.2711265E2,1.2370862E3,-5.120635E2,9.810523E2,-1.4141602E1,2.4342662E2,7.288709E2,1.2953702E2,1.112453E3,3.1739804E2,4.0489546E3,1.9085125E3,8.1890693E3,5.2537744E3,-2.3559239E2,-1.0255993E2,-2.70712E2,3.6955966E2,-1.326179E2,2.9926547E2,-2.0368414E2,-5.918511E1,-8.629923E1,-3.6177402E1,-2.0288785E2,-7.811554E0,-8.3595436E1,7.0246315E0,-8.577506E1,-1.811084E0,8.323993E1,-1.5999681E2,-1.2381483E1,2.7891928E2,-8.090221E1,5.221756E1,5.902796E2,3.443147E1,-1.5819336E0,2.8927084E1,1.4483565E2,6.3573128E1,3.7838722E1,1.2527461E2,5.0312628E2,1.3176762E2,1.24442444E2,2.584565E2,1.4590039E2,9.94609E2,3.637983E2,5.8060614E2],"categories":[],"categories_nodes":[],"categories_segments":[],"categories_sizes":[],"default_left":[0,0,0,0,0,0,0,0,0,0,0,0,0,0,0,0,0,0,0,0,0,0,0,0,0,0,0,0,0,0,0,0,0,0,0,0,0,0,0,0,0,0,0,0,0,0,0,0,0,0,0,0,0,0,0,0,0,0,0,0,0,0,0,0,0,0,0,0,0,0,0,0,0,0,0,0,0,0,0,0,0,0,0,0,0,0,0,0,0,0,0,0,0],"id":17,"left_children":[1,3,5,7,9,11,13,15,17,19,21,23,25,27,-1,29,31,33,35,37,39,41,43,45,47,49,51,-1,53,55,57,59,-1,61,63,-1,65,67,-1,-1,69,71,73,75,77,-1,79,81,-1,83,-1,85,87,89,91,-1,-1,-1,-1,-1,-1,-1,-1,-1,-1,-1,-1,-1,-1,-1,-1,-1,-1,-1,-1,-1,-1,-1,-1,-1,-1,-1,-1,-1,-1,-1,-1,-1,-1,-1,-1,-1,-1],"loss_changes":[2.7526239E9,3.159706E8,6.184932E8,2.5912192E7,4.2210804E7,6.088363E7,6.5469696E7,1.9291648E7,1.9224942E7,2.0526946E7,3.3780564E7,2.538362E6,6.521056E6,6.088397E7,0E0,2.1704896E7,1.7209856E7,5.720168E6,5.74243E7,1.1539687E8,4.219176E6,3.0541204E7,3.1784786E7,2.0233269E5,1.3442E6,1.7530376E7,2.04328E7,0E0,2.7936E6,1.5216192E7,7.0275176E7,5.3723616E7,0E0,1.738028E6,2.11368E5,0E0,2.583798E7,2.5255176E7,0E0,0E0,5.8989E5,6.710851E7,9.962171E7,2.1614154E7,5.437705E7,0E0,8.777056E4,1.29065E6,0E0,1.173728E6,0E0,2.0200016E7,3.967044E6,3.2788064E7,3.955968E7,0E0,0E0,0E0,0E0,0E0,0E0,0E0,0E0,0E0,0E0,0E0,0E0,0E0,0E0,0E0,0E0,0E0,0E0,0E0,0E0,0E0,0E0,0E0,0E0,0E0,0E0,0E0,0E0,0E0,0E0,0E0,0E0,0E0,0E0,0E0,0E0,0E0,0E0],"parents":[2147483647,0,0,1,1,2,2,3,3,4,4,5,5,6,6,7,7,8,8,9,9,10,10,11,11,12,12,13,13,15,15,16,16,17,17,18,18,19,19,20,20,21,21,22,22,23,23,24,24,25,25,26,26,28,28,29,29,30,30,31,31,33,33,34,34,36,36,37,37,40,40,41,41,42,42,43,43,44,44,46,46,47,47,49,49,51,51,52,52,53,53,54,54],"right_children":[2,4,6,8,10,12,14,16,18,20,22,24,26,28,-1,30,32,34,36,38,40,42,44,46,48,50,52,-1,54,56,58,60,-1,62,64,-1,66,68,-1,-1,70,72,74,76,78,-1,80,82,-1,84,-1,86,88,90,92,-1,-1,-1,-1,-1,-1,-1,-1,-1,-1,-1,-1,-1,-1,-1,-1,-1,-1,-1,-1,-1,-1,-1,-1,-1,-1,-1,-1,-1,-1,-1,-1,-1,-1,-1,-1,-1,-1],"split_conditions":[1E0,4.3E1,3.002E1,3E0,5.2E1,3.7E1,4.653E1,2E1,2.772E1,3.6765E1,1E0,2.1755E1,1E0,2.8E1,9.9236475E2,2E0,4.147E1,3.1E1,2.794E1,3.667E1,4.9E1,3.19E1,6.2E1,1.748E1,3E0,6E1,4.6E1,3.2727417E2,3.04E1,3E0,1.9E1,4.123E1,-2.4790718E2,5E0,3.8E1,4.9501978E2,2.6E1,2E0,7.216055E2,-1.9505338E2,3E0,2E0,2E0,3.667E1,2.4795E1,-1.4141602E1,1E0,2.185E1,1.2953702E2,1E0,3.1739804E2,2E0,5.4E1,3.021E1,3.366E1,-2.3559239E2,-1.0255993E2,-2.70712E2,3.6955966E2,-1.326179E2,2.9926547E2,-2.0368414E2,-5.918511E1,-8.629923E1,-3.6177402E1,-2.0288785E2,-7.811554E0,-8.3595436E1,7.0246315E0,-8.577506E1,-1.811084E0,8.323993E1,-1.5999681E2,-1.2381483E1,2.7891928E2,-8.090221E1,5.221756E1,5.902796E2,3.443147E1,-1.5819336E0,2.8927084E1,1.4483565E2,6.3573128E1,3.7838722E1,1.2527461E2,5.0312628E2,1.3176762E2,1.24442444E2,2.584565E2,1.4590039E2,9.94609E2,3.637983E2,5.8060614E2],"split_indices":[4,0,2,3,0,0,2,0,2,2,1,2,1,0,0,3,2,0,2,2,0,2,0,2,3,0,0,0,2,5,0,2,0,3,0,0,0,3,0,0,3,3,3,2,2,0,5,2,0,5,0,3,0,2,2,0,0,0,0,0,0,0,0,0,0,0,0,0,0,0,0,0,0,0,0,0,0,0,0,0,0,0,0,0,0,0,0,0,0,0,0,0,0],"split_type":[0,0,0,0,0,0,0,0,0,0,0,0,0,0,0,0,0,0,0,0,0,0,0,0,0,0,0,0,0,0,0,0,0,0,0,0,0,0,0,0,0,0,0,0,0,0,0,0,0,0,0,0,0,0,0,0,0,0,0,0,0,0,0,0,0,0,0,0,0,0,0,0,0,0,0,0,0,0,0,0,0,0,0,0,0,0,0,0,0,0,0,0,0],"sum_hessian":[9.36E2,7.5E2,1.86E2,4.25E2,3.25E2,9.1E1,9.5E1,3.67E2,5.8E1,1.41E2,1.84E2,4.6E1,4.5E1,9.2E1,3E0,7E1,2.97E2,2.1E1,3.7E1,1.25E2,1.6E1,9.9E1,8.5E1,7E0,3.9E1,2.1E1,2.4E1,2.2E1,7E1,6.5E1,5E0,2.84E2,1.3E1,1.3E1,8E0,1E0,3.6E1,1.24E2,1E0,9E0,7E0,5.3E1,4.6E1,6.8E1,1.7E1,1E0,6E0,3.2E1,7E0,1.5E1,6E0,9E0,1.5E1,3E0,6.7E1,5.2E1,1.3E1,3E0,2E0,2.82E2,2E0,1.1E1,2E0,4E0,4E0,8E0,2.8E1,7E1,5.4E1,6E0,1E0,3.8E1,1.5E1,2.5E1,2.1E1,5.3E1,1.5E1,1E0,1.6E1,1E0,5E0,2E0,3E1,3E0,1.2E1,6E0,3E0,9E0,6E0,1E0,2E0,1.9E1,4.8E1],"tree_param":{"num_deleted":"0","num_feature":"6","num_nodes":"93","size_leaf_vector":"1"}},{"base_weights":[5.4046326E1,-7.2075494E2,3.1653923E3,-1.1540541E3,7.8254234E1,1.4569694E3,4.769658E3,-1.3322755E3,-7.486589E2,2.120987E2,-7.790368E2,7.603291E2,2.3049773E3,4.528706E3,9.179375E2,-1.3750417E3,-5.943355E1,-6.367077E2,-1.540481E2,-4.9777687E1,2.9642896E3,-1.3506985E3,3.362646E2,5.726008E2,1.0320642E3,2.3789324E3,-3.2661133E1,2.9596976E2,4.973192E3,-1.9448154E3,-1.2792445E3,-1.2493353E2,2.6327039E3,-8.2243756E2,1.7485864E3,3.9634988E2,-3.7848016E2,5.494223E2,6.5179126E3,-1.3960664E3,-1.5361865E1,4.9793967E2,-4.656128E2,4.5596783E2,1.0214548E2,7.412089E1,1.2026542E2,1.9019208E3,3.2233467E3,7.65529E3,4.742286E3,-2.0035175E2,-4.5514633E1,9.840292E1,-1.3747429E2,-1.3583711E2,4.4158527E2,-4.8728283E1,-1.2835724E2,-1.6832747E1,6.2774945E2,-4.4869156E1,1.2513622E2,-4.95391E1,2.4563118E2,-1.3945403E2,1.5683546E2,1.0603352E3,1.9459785E2,-8.924161E1,-1.6051855E2,-9.506011E0,-1.1829531E2,3.4219837E1,8.1608955E1,2.3615324E2,8.384668E1,4.705589E2,2.3081152E2,1.3860547E2,9.283017E2,3.2923764E2,5.237305E2],"categories":[],"categories_nodes":[],"categories_segments":[],"categories_sizes":[],"default_left":[0,0,0,0,0,0,0,0,0,0,0,0,0,0,0,0,0,0,0,0,0,0,0,0,0,0,0,0,0,0,0,0,0,0,0,0,0,0,0,0,0,0,0,0,0,0,0,0,0,0,0,0,0,0,0,0,0,0,0,0,0,0,0,0,0,0,0,0,0,0,0,0,0,0,0,0,0,0,0,0,0,0,0],"id":18,"left_children":[1,3,5,7,9,11,13,15,17,19,21,23,25,27,-1,29,31,33,-1,35,37,39,41,43,45,47,-1,-1,49,51,53,-1,55,57,59,61,63,65,67,69,-1,-1,71,73,-1,-1,-1,75,77,79,81,-1,-1,-1,-1,-1,-1,-1,-1,-1,-1,-1,-1,-1,-1,-1,-1,-1,-1,-1,-1,-1,-1,-1,-1,-1,-1,-1,-1,-1,-1,-1,-1],"loss_changes":[2.261084E9,2.6009395E8,5.0557363E8,3.4188416E7,3.05723E7,5.259704E7,6.043213E7,1.826272E7,1.2404624E7,1.6591632E8,2.3406894E7,2.061684E6,8.756384E6,5.0139264E7,0E0,1.5306112E7,4.172968E7,6.0802828E7,0E0,3.1091732E7,1.6804947E8,1.088952E6,5.0720364E7,1.261839E6,1.0092E5,9.981248E6,0E0,0E0,7.667584E6,3.023216E6,6.230397E7,0E0,3.446509E7,1.8693472E7,8.787195E7,6.5588356E7,4.164982E7,2.7937096E7,1.2879299E8,9.89936E5,0E0,0E0,3.0772972E6,8.679195E5,0E0,0E0,0E0,1.1705656E7,6.774688E6,2.7951632E7,3.1562624E7,0E0,0E0,0E0,0E0,0E0,0E0,0E0,0E0,0E0,0E0,0E0,0E0,0E0,0E0,0E0,0E0,0E0,0E0,0E0,0E0,0E0,0E0,0E0,0E0,0E0,0E0,0E0,0E0,0E0,0E0,0E0,0E0],"parents":[2147483647,0,0,1,1,2,2,3,3,4,4,5,5,6,6,7,7,8,8,9,9,10,10,11,11,12,12,13,13,15,15,16,16,17,17,19,19,20,20,21,21,22,22,23,23,24,24,25,25,28,28,29,29,30,30,32,32,33,33,34,34,35,35,36,36,37,37,38,38,39,39,42,42,43,43,47,47,48,48,49,49,50,50],"right_children":[2,4,6,8,10,12,14,16,18,20,22,24,26,28,-1,30,32,34,-1,36,38,40,42,44,46,48,-1,-1,50,52,54,-1,56,58,60,62,64,66,68,70,-1,-1,72,74,-1,-1,-1,76,78,80,82,-1,-1,-1,-1,-1,-1,-1,-1,-1,-1,-1,-1,-1,-1,-1,-1,-1,-1,-1,-1,-1,-1,-1,-1,-1,-1,-1,-1,-1,-1,-1,-1],"split_conditions":[1E0,4.7E1,3.002E1,3.7E1,3.8095E1,4E1,4.653E1,4E0,3.6575E1,3.667E1,5.8E1,2.772E1,2.9925E1,2.8E1,9.179375E2,2.318E1,3E0,3.531E1,-1.540481E2,2E0,2E0,3E0,5.9E1,3.4E1,1E0,2.77E1,-3.2661133E1,2.9596976E2,3.04E1,3.6E1,2.3655E1,-1.2493353E2,2.8595E1,2.98E1,1E0,5.4E1,6.4E1,3.718E1,5.3E1,5.2E1,-1.5361865E1,4.9793967E2,1E0,3E0,1.0214548E2,7.412089E1,1.2026542E2,2E0,4.4E1,3.021E1,3.366E1,-2.0035175E2,-4.5514633E1,9.840292E1,-1.3747429E2,-1.3583711E2,4.4158527E2,-4.8728283E1,-1.2835724E2,-1.6832747E1,6.2774945E2,-4.4869156E1,1.2513622E2,-4.95391E1,2.4563118E2,-1.3945403E2,1.5683546E2,1.0603352E3,1.9459785E2,-8.924161E1,-1.6051855E2,-9.506011E0,-1.1829531E2,3.4219837E1,8.1608955E1,2.3615324E2,8.384668E1,4.705589E2,2.3081152E2,1.3860547E2,9.283017E2,3.2923764E2,5.237305E2],"split_indices":[4,0,2,0,2,0,2,3,2,2,0,2,2,0,0,2,5,2,0,5,5,5,0,0,3,2,0,0,2,0,2,0,2,2,1,0,0,2,0,0,0,0,3,3,0,0,0,3,0,2,2,0,0,0,0,0,0,0,0,0,0,0,0,0,0,0,0,0,0,0,0,0,0,0,0,0,0,0,0,0,0,0,0],"split_type":[0,0,0,0,0,0,0,0,0,0,0,0,0,0,0,0,0,0,0,0,0,0,0,0,0,0,0,0,0,0,0,0,0,0,0,0,0,0,0,0,0,0,0,0,0,0,0,0,0,0,0,0,0,0,0,0,0,0,0,0,0,0,0,0,0,0,0,0,0,0,0,0,0,0,0,0,0,0,0,0,0,0,0],"sum_hessian":[9.36E2,7.5E2,1.86E2,4.86E2,2.64E2,9.1E1,9.5E1,3.36E2,1.5E2,2.29E2,3.5E1,5.1E1,4E1,9.2E1,3E0,3.25E2,1.1E1,1.33E2,1.7E1,2.1E2,1.9E1,2.3E1,1.2E1,3.2E1,1.9E1,3.9E1,1E0,2.2E1,7E1,4.4E1,2.81E2,8E0,3E0,1.24E2,9E0,8.9E1,1.21E2,1.2E1,7E0,2.2E1,1E0,1E0,1.1E1,2.7E1,5E0,9E0,1E1,2.7E1,1.2E1,3E0,6.7E1,4.2E1,2E0,1.1E1,2.7E2,1E0,2E0,7.3E1,5.1E1,7E0,2E0,4.5E1,4.4E1,1.17E2,4E0,4E0,8E0,3E0,4E0,8E0,1.4E1,8E0,3E0,2.2E1,5E0,1.8E1,9E0,3E0,9E0,1E0,2E0,1.9E1,4.8E1],"tree_param":{"num_deleted":"0","num_feature":"6","num_nodes":"83","size_leaf_vector":"1"}},{"base_weights":[5.5433796E1,-6.462435E2,2.8731035E3,-1.038288E3,7.666917E1,1.2597233E3,4.264147E3,-1.3443285E3,-8.293077E2,3.6804926E2,-2.4769496E2,6.682798E2,2.0203522E3,3.641493E3,5.6630073E3,-1.3998661E3,1.6714441E3,-1.1143501E3,-5.326485E2,-3.1922247E1,8.300459E2,-4.2755884E2,8.552416E2,5.626953E2,1.0984857E2,3.045127E3,1.4900688E3,3.159713E3,4.8191055E3,8.264126E3,4.7767695E3,-1.6528606E3,-1.1810774E3,-1.701154E2,5.894619E2,-2.5786328E2,-9.779578E2,-1.1735272E3,-2.5954824E1,8.5792084E2,-8.124693E2,3.2860245E2,2.4796174E3,-6.836729E2,6.1633203E2,5.484841E2,2.6027454E2,2.996907E2,7.074502E2,4.9936783E2,4.792188E3,1.006812E3,2.3447147E2,4.3097592E2,3.2563762E3,3.9828115E3,7.9517344E3,1.5021817E2,9.316078E3,2.2980415E2,5.157613E2,-1.7604681E2,-9.660166E1,-3.7570797E1,-1.4617691E2,1.8864342E2,-1.1007487E2,-2.4550334E2,-9.191892E1,1.7342561E2,-1.2467959E2,1.8989848E2,-1.3824559E2,-1.0077015E2,4.943356E1,-8.2741295E1,1.5639551E2,5.388637E2,4.8624355E1,-9.455744E1,1.4501212E1,7.547918E2,-4.542225E1,-1.2353489E2,6.6900444E1,8.2867714E1,7.3181267E0,2.6862822E1,8.200361E1,-5.043994E1,8.010012E1,7.327042E2,1.0592871E2,6.099412E1,1.4762666E2,9.5674515E1,-3.1028126E1,5.5182544E2,2.8983414E2,2.7594644E2,4.763624E2,9.495596E2,2.4320059E2,1.0235656E3,2.8188828E2],"categories":[],"categories_nodes":[],"categories_segments":[],"categories_sizes":[],"default_left":[0,0,0,0,0,0,0,0,0,0,0,0,0,0,0,0,0,0,0,0,0,0,0,0,0,0,0,0,0,0,0,0,0,0,0,0,0,0,0,0,0,0,0,0,0,0,0,0,0,0,0,0,0,0,0,0,0,0,0,0,0,0,0,0,0,0,0,0,0,0,0,0,0,0,0,0,0,0,0,0,0,0,0,0,0,0,0,0,0,0,0,0,0,0,0,0,0,0,0,0,0,0,0,0,0],"id":19,"left_children":[1,3,5,7,9,11,13,15,17,19,21,23,25,27,29,31,33,35,37,39,41,43,45,47,-1,49,51,53,55,57,59,61,63,-1,-1,-1,65,67,69,71,73,75,77,79,81,-1,83,85,87,89,91,93,-1,95,97,99,101,-1,103,-1,-1,-1,-1,-1,-1,-1,-1,-1,-1,-1,-1,-1,-1,-1,-1,-1,-1,-1,-1,-1,-1,-1,-1,-1,-1,-1,-1,-1,-1,-1,-1,-1,-1,-1,-1,-1,-1,-1,-1,-1,-1,-1,-1,-1,-1],"loss_changes":[1.8543948E9,2.1292342E8,4.1430912E8,3.0031968E7,2.5137174E7,3.8238304E7,6.647885E7,3.5167584E7,2.409808E7,2.589647E7,2.5361352E7,1.698466E6,1.611256E7,2.5622272E7,2.7375232E7,8.73088E6,6.6999948E7,2.7036304E7,4.7055276E7,5.348393E7,5.295104E7,2.956308E7,4.8152696E7,1.425045E6,0E0,5.097809E7,8.79068E6,1.2840128E7,1.8105888E7,2.8685024E7,1.0803776E7,4.729504E6,2.3639264E7,0E0,0E0,0E0,5.0262296E7,1.860324E7,1.7837517E8,8.6590776E7,1.0958492E7,7.412645E7,8.436126E7,1.9236096E7,1.6668253E8,0E0,1.1218657E7,1.9763038E6,1.113655E6,2.2206425E6,5.847507E7,2.639506E6,0E0,1.4660508E6,2.611744E7,3.09344E6,2.471744E6,0E0,1.020256E6,0E0,0E0,0E0,0E0,0E0,0E0,0E0,0E0,0E0,0E0,0E0,0E0,0E0,0E0,0E0,0E0,0E0,0E0,0E0,0E0,0E0,0E0,0E0,0E0,0E0,0E0,0E0,0E0,0E0,0E0,0E0,0E0,0E0,0E0,0E0,0E0,0E0,0E0,0E0,0E0,0E0,0E0,0E0,0E0,0E0,0E0],"parents":[2147483647,0,0,1,1,2,2,3,3,4,4,5,5,6,6,7,7,8,8,9,9,10,10,11,11,12,12,13,13,14,14,15,15,16,16,17,17,18,18,19,19,20,20,21,21,22,22,23,23,25,25,26,26,27,27,28,28,29,29,30,30,31,31,32,32,36,36,37,37,38,38,39,39,40,40,41,41,42,42,43,43,44,44,46,46,47,47,48,48,49,49,50,50,51,51,53,53,54,54,55,55,56,56,58,58],"right_children":[2,4,6,8,10,12,14,16,18,20,22,24,26,28,30,32,34,36,38,40,42,44,46,48,-1,50,52,54,56,58,60,62,64,-1,-1,-1,66,68,70,72,74,76,78,80,82,-1,84,86,88,90,92,94,-1,96,98,100,102,-1,104,-1,-1,-1,-1,-1,-1,-1,-1,-1,-1,-1,-1,-1,-1,-1,-1,-1,-1,-1,-1,-1,-1,-1,-1,-1,-1,-1,-1,-1,-1,-1,-1,-1,-1,-1,-1,-1,-1,-1,-1,-1,-1,-1,-1,-1,-1],"split_conditions":[1E0,4.7E1,2.983E1,1E0,1E0,4E1,5.2E1,4.6E1,2E0,3.19E1,6.2E1,3E0,4.6E1,3.7905E1,5.5E1,2.3E1,2.2515E1,2E1,2.75E1,2.684E1,3E0,3.667E1,2.4795E1,2.527E1,1.0984857E2,1E0,6E1,3.002E1,3E0,3.432E1,5.7E1,3.819E1,2.6E1,-1.701154E2,5.894619E2,-2.5786328E2,2.1E1,2.3E1,3.0685E1,2E0,3E0,2E0,5.4E1,2E0,3.685E1,5.484841E2,2.76E1,1E0,1E0,1E0,2E0,2E0,2.3447147E2,4E1,3.04E1,4.047E1,3.2E1,1.5021817E2,3E0,2.2980415E2,5.157613E2,-1.7604681E2,-9.660166E1,-3.7570797E1,-1.4617691E2,1.8864342E2,-1.1007487E2,-2.4550334E2,-9.191892E1,1.7342561E2,-1.2467959E2,1.8989848E2,-1.3824559E2,-1.0077015E2,4.943356E1,-8.2741295E1,1.5639551E2,5.388637E2,4.8624355E1,-9.455744E1,1.4501212E1,7.547918E2,-4.542225E1,-1.2353489E2,6.6900444E1,8.2867714E1,7.3181267E0,2.6862822E1,8.200361E1,-5.043994E1,8.010012E1,7.327042E2,1.0592871E2,6.099412E1,1.4762666E2,9.5674515E1,-3.1028126E1,5.5182544E2,2.8983414E2,2.7594644E2,4.763624E2,9.495596E2,2.4320059E2,1.0235656E3,2.8188828E2],"split_indices":[4,0,2,3,1,0,0,0,5,2,0,3,0,2,0,0,2,0,2,2,5,2,2,2,0,1,0,2,5,2,0,2,0,0,0,0,0,0,2,3,3,3,0,3,2,0,2,5,5,5,3,3,0,0,2,2,0,0,5,0,0,0,0,0,0,0,0,0,0,0,0,0,0,0,0,0,0,0,0,0,0,0,0,0,0,0,0,0,0,0,0,0,0,0,0,0,0,0,0,0,0,0,0,0,0],"split_type":[0,0,0,0,0,0,0,0,0,0,0,0,0,0,0,0,0,0,0,0,0,0,0,0,0,0,0,0,0,0,0,0,0,0,0,0,0,0,0,0,0,0,0,0,0,0,0,0,0,0,0,0,0,0,0,0,0,0,0,0,0,0,0,0,0,0,0,0,0,0,0,0,0,0,0,0,0,0,0,0,0,0,0,0,0,0,0,0,0,0,0,0,0,0,0,0,0,0,0,0,0,0,0,0,0],"sum_hessian":[9.36E2,7.5E2,1.86E2,4.86E2,2.64E2,8.7E1,9.9E1,1.95E2,2.91E2,1.39E2,1.25E2,5E1,3.7E1,7.1E1,2.8E1,1.92E2,3E0,1.47E2,1.44E2,7.5E1,6.4E1,1.08E2,1.7E1,4.2E1,8E0,1.1E1,2.6E1,5.3E1,1.8E1,5E0,2.3E1,8.6E1,1.06E2,2E0,1E0,1.1E1,1.36E2,6.3E1,8.1E1,3.5E1,4E1,5E1,1.4E1,8.7E1,2.1E1,1E0,1.6E1,1.6E1,2.6E1,5E0,6E0,1.8E1,8E0,2E0,5.1E1,1.6E1,2E0,1E0,4E0,4E0,1.9E1,7.3E1,1.3E1,2.8E1,7.8E1,5E0,1.31E2,9E0,5.4E1,3.3E1,4.8E1,2.4E1,1.1E1,3.5E1,5E0,2.6E1,2.4E1,5E0,9E0,6.6E1,2.1E1,2E0,1.9E1,3E0,1.3E1,4E0,1.2E1,6E0,2E1,1E0,4E0,3E0,3E0,1.1E1,7E0,1E0,1E0,5E0,4.6E1,8E0,8E0,1E0,1E0,3E0,1E0],"tree_param":{"num_deleted":"0","num_feature":"6","num_nodes":"105","size_leaf_vector":"1"}},{"base_weights":[5.8375404E1,-5.7991797E2,2.6214768E3,-1.0254894E3,-3.828463E1,1.2406978E3,3.9743677E3,-1.11274E3,-4.8460422E2,-9.477355E2,6.918591E1,6.767544E2,1.9228002E3,3.7538809E3,7.996849E2,-1.066611E3,-2.020554E3,-5.2881794E1,-1.0305256E3,-1.2987316E3,-7.181236E2,2.0426422E2,-8.308145E2,5.861413E2,1.640229E2,1.260325E3,2.244163E3,2.337972E3,4.145254E3,-1.0991522E3,2.9444019E3,-2.2266084E2,-1.1219128E2,1.3297288E3,-6.038107E2,-1.2394812E3,4.2859973E2,-1.6819344E2,-5.713392E2,-9.992542E2,-4.0337814E2,2.283646E1,2.0327092E3,-1.3401256E3,3.300722E2,4.397673E2,8.2193024E2,2.0452213E3,5.8486505E2,3.5770076E3,1.6930168E3,5.584108E2,2.4880077E2,8.2962665E2,3.9011616E3,-1.2845348E2,-8.885197E1,5.010201E2,-5.935984E1,-5.1395508E1,5.802976E2,-1.0863342E2,9.450969E-1,-1.27164024E2,-2.6599049E1,1.8013301E2,-6.2942043E1,-6.6333244E1,-5.5686526E0,-1.14379616E2,-4.2422146E1,-4.5283558E1,-8.757487E0,9.5172806E1,-1.5399089E1,1.3261515E1,5.816321E2,-1.4282793E2,-4.541348E1,4.7717975E2,-4.3772137E1,1.0293471E1,5.108066E1,5.4200714E1,1.1843798E2,3.976255E2,1.0606732E2,7.372852E0,1.3331377E2,2.0711004E1,4.8835446E2,7.596131E1,2.6437997E2,1.5634766E1,6.8126854E1,2.8311957E2,4.4204343E2],"categories":[],"categories_nodes":[],"categories_segments":[],"categories_sizes":[],"default_left":[0,0,0,0,0,0,0,0,0,0,0,0,0,0,0,0,0,0,0,0,0,0,0,0,0,0,0,0,0,0,0,0,0,0,0,0,0,0,0,0,0,0,0,0,0,0,0,0,0,0,0,0,0,0,0,0,0,0,0,0,0,0,0,0,0,0,0,0,0,0,0,0,0,0,0,0,0,0,0,0,0,0,0,0,0,0,0,0,0,0,0,0,0,0,0,0,0],"id":20,"left_children":[1,3,5,7,9,11,13,15,17,19,21,23,25,27,-1,29,31,33,35,37,39,41,43,45,-1,47,49,51,53,55,57,-1,-1,59,61,63,65,-1,67,69,71,73,75,77,79,81,83,85,87,89,91,93,-1,-1,95,-1,-1,-1,-1,-1,-1,-1,-1,-1,-1,-1,-1,-1,-1,-1,-1,-1,-1,-1,-1,-1,-1,-1,-1,-1,-1,-1,-1,-1,-1,-1,-1,-1,-1,-1,-1,-1,-1,-1,-1,-1,-1],"loss_changes":[1.5344623E9,1.812043E8,3.4439296E8,1.8904128E7,3.329689E7,3.485744E7,5.334989E7,1.2669184E7,1.3851011E7,1.968692E6,3.7248716E7,3.665674E6,6.113216E6,4.0736E7,0E0,4.748387E7,4.64644E5,2.6701388E7,8.45844E6,2.662648E6,1.720552E6,8.8193944E7,2.4092444E7,1.36421E6,0E0,7.286478E6,1.3778064E7,4.4846E6,3.856115E7,1.2017696E7,2.4900446E7,0E0,0E0,8.5455E7,7.408097E6,3.81804E5,6.943299E6,0E0,2.4768062E5,5.12173E5,1.633875E5,4.006014E7,1.7176992E8,1.538256E6,4.642298E7,7.37056E5,1.184302E6,9.090862E6,3.7264048E6,2.9808832E7,1.6628476E7,4.1674938E4,0E0,0E0,2.5265984E7,0E0,0E0,0E0,0E0,0E0,0E0,0E0,0E0,0E0,0E0,0E0,0E0,0E0,0E0,0E0,0E0,0E0,0E0,0E0,0E0,0E0,0E0,0E0,0E0,0E0,0E0,0E0,0E0,0E0,0E0,0E0,0E0,0E0,0E0,0E0,0E0,0E0,0E0,0E0,0E0,0E0,0E0],"parents":[2147483647,0,0,1,1,2,2,3,3,4,4,5,5,6,6,7,7,8,8,9,9,10,10,11,11,12,12,13,13,15,15,16,16,17,17,18,18,19,19,20,20,21,21,22,22,23,23,25,25,26,26,27,27,28,28,29,29,30,30,33,33,34,34,35,35,36,36,38,38,39,39,40,40,41,41,42,42,43,43,44,44,45,45,46,46,47,47,48,48,49,49,50,50,51,51,54,54],"right_children":[2,4,6,8,10,12,14,16,18,20,22,24,26,28,-1,30,32,34,36,38,40,42,44,46,-1,48,50,52,54,56,58,-1,-1,60,62,64,66,-1,68,70,72,74,76,78,80,82,84,86,88,90,92,94,-1,-1,96,-1,-1,-1,-1,-1,-1,-1,-1,-1,-1,-1,-1,-1,-1,-1,-1,-1,-1,-1,-1,-1,-1,-1,-1,-1,-1,-1,-1,-1,-1,-1,-1,-1,-1,-1,-1,-1,-1,-1,-1,-1,-1],"split_conditions":[1E0,4.2E1,3.021E1,3E0,2.376E1,4E1,4.653E1,4.147E1,1E0,4.9E1,3.8095E1,2.926E1,2.585E1,2.8E1,7.996849E2,4.123E1,3.3E1,2.8E1,3.751E1,2E0,2E0,3.667E1,5.8E1,3E1,1.640229E2,1E0,4.4E1,3.078E1,3.04E1,2.8E1,2.6E1,-2.2266084E2,-1.1219128E2,2.6E1,3.9E1,4E1,3.982E1,-1.6819344E2,4.6E1,2.2895E1,6.2E1,2.585E1,2E0,5.7E1,5.9E1,2.1755E1,2E0,4.6E1,4.8E1,1E0,5.7E1,2E1,2.4880077E2,8.2962665E2,3.443E1,-1.2845348E2,-8.885197E1,5.010201E2,-5.935984E1,-5.1395508E1,5.802976E2,-1.0863342E2,9.450969E-1,-1.27164024E2,-2.6599049E1,1.8013301E2,-6.2942043E1,-6.6333244E1,-5.5686526E0,-1.14379616E2,-4.2422146E1,-4.5283558E1,-8.757487E0,9.5172806E1,-1.5399089E1,1.3261515E1,5.816321E2,-1.4282793E2,-4.541348E1,4.7717975E2,-4.3772137E1,1.0293471E1,5.108066E1,5.4200714E1,1.1843798E2,3.976255E2,1.0606732E2,7.372852E0,1.3331377E2,2.0711004E1,4.8835446E2,7.596131E1,2.6437997E2,1.5634766E1,6.8126854E1,2.8311957E2,4.4204343E2],"split_indices":[4,0,2,3,2,0,2,2,1,0,2,2,2,0,0,2,0,0,2,3,5,2,0,0,0,3,0,2,2,0,0,0,0,0,0,0,2,0,0,2,0,2,5,0,0,2,5,0,0,1,0,0,0,0,2,0,0,0,0,0,0,0,0,0,0,0,0,0,0,0,0,0,0,0,0,0,0,0,0,0,0,0,0,0,0,0,0,0,0,0,0,0,0,0,0,0,0],"split_type":[0,0,0,0,0,0,0,0,0,0,0,0,0,0,0,0,0,0,0,0,0,0,0,0,0,0,0,0,0,0,0,0,0,0,0,0,0,0,0,0,0,0,0,0,0,0,0,0,0,0,0,0,0,0,0,0,0,0,0,0,0,0,0,0,0,0,0,0,0,0,0,0,0,0,0,0,0,0,0,0,0,0,0,0,0,0,0,0,0,0,0,0,0,0,0,0,0],"sum_hessian":[9.36E2,7.5E2,1.86E2,4.11E2,3.39E2,9.3E1,9.3E1,3.53E2,5.8E1,3.5E1,3.04E2,5.2E1,4.1E1,9E1,3E0,3.38E2,1.5E1,3.3E1,2.5E1,1.2E1,2.3E1,2.65E2,3.9E1,4.9E1,3E0,1.5E1,2.6E1,2.1E1,6.9E1,3.36E2,2E0,1.1E1,4E0,9E0,2.4E1,2.2E1,3E0,7E0,5E0,1.1E1,1.2E1,2.42E2,2.3E1,2.7E1,1.2E1,3.2E1,1.7E1,6E0,9E0,6E0,2E1,2E0,1.9E1,2E0,6.7E1,1.76E2,1.6E2,1E0,1E0,7E0,2E0,1.3E1,1.1E1,2.1E1,1E0,1E0,2E0,4E0,1E0,8E0,3E0,1E1,2E0,3.8E1,2.04E2,1.6E1,7E0,2.4E1,3E0,1E0,1.1E1,6E0,2.6E1,1.1E1,6E0,1E0,5E0,6E0,3E0,2E0,4E0,1.1E1,9E0,1E0,1E0,2.4E1,4.3E1],"tree_param":{"num_deleted":"0","num_feature":"6","num_nodes":"97","size_leaf_vector":"1"}},{"base_weights":[5.8217636E1,-5.209367E2,2.383815E3,-9.22275E2,-3.3076912E1,1.1081079E3,3.581536E3,-1.00177814E3,-4.296245E2,-8.654881E2,6.528335E1,5.726157E2,1.7602418E3,3.0420186E3,4.8476353E3,-9.59288E2,-1.8394269E3,-1.0161889E3,-7.872868E1,-1.2412944E3,-6.732051E2,1.8637431E2,-7.416037E2,4.2043427E2,7.950843E2,1.8311951E3,-5.3894436E1,2.6284973E3,4.013655E3,7.278836E3,3.9642334E3,-9.8988184E2,2.797182E3,-2.0225029E2,-1.0321596E2,-1.3264402E3,-4.2066602E2,4.7104102E2,-3.3547324E2,-1.3257196E3,-1.98521E1,-4.3402316E2,-8.790006E2,2.0881317E1,1.8542253E3,-1.2128358E3,3.304043E2,3.3103525E2,8.548617E1,6.7137274E2,1.2723256E2,2.6512239E3,1.4287281E3,4.7392554E3,2.3031133E3,3.2047698E3,7.259453E3,1.2855118E2,8.220398E3,1.8559164E2,4.329642E2,-1.156807E2,-8.002195E1,4.7596915E2,-5.6391846E1,-1.8295619E2,-8.436434E1,-5.3975994E1,-2.1743887E1,-1.599958E2,6.8521113E0,-1.3974048E2,-3.4027687E1,-1.2798096E1,-5.058546E1,-1.0003411E2,-1.41085615E1,8.589956E1,-1.3866666E1,1.2013353E1,5.3073926E2,-1.2911642E2,-4.2007496E1,4.5332077E2,-3.975966E1,1.6452644E1,4.5604076E1,2.7590673E1,7.3207214E1,4.4378452E1,4.1645688E2,7.664068E1,2.1849385E2,2.1046666E2,8.9561E2,1.4749986E2,2.6829468E2,1.9368622E2,3.7202774E2,8.799795E2,2.0893848E2,9.047039E2,2.456918E2],"categories":[],"categories_nodes":[],"categories_segments":[],"categories_sizes":[],"default_left":[0,0,0,0,0,0,0,0,0,0,0,0,0,0,0,0,0,0,0,0,0,0,0,0,0,0,0,0,0,0,0,0,0,0,0,0,0,0,0,0,0,0,0,0,0,0,0,0,0,0,0,0,0,0,0,0,0,0,0,0,0,0,0,0,0,0,0,0,0,0,0,0,0,0,0,0,0,0,0,0,0,0,0,0,0,0,0,0,0,0,0,0,0,0,0,0,0,0,0,0,0,0,0],"id":21,"left_children":[1,3,5,7,9,11,13,15,17,19,21,23,25,27,29,31,33,35,37,39,41,43,45,47,49,51,-1,53,55,57,59,61,63,-1,-1,65,67,-1,69,71,-1,73,75,77,79,81,83,85,-1,87,-1,89,91,93,95,97,99,-1,101,-1,-1,-1,-1,-1,-1,-1,-1,-1,-1,-1,-1,-1,-1,-1,-1,-1,-1,-1,-1,-1,-1,-1,-1,-1,-1,-1,-1,-1,-1,-1,-1,-1,-1,-1,-1,-1,-1,-1,-1,-1,-1,-1,-1],"loss_changes":[1.2632681E9,1.4701293E8,2.8175616E8,1.5706528E7,2.7894402E7,3.1119632E7,5.082931E7,1.0834944E7,1.2063554E7,1.765758E6,2.9938772E7,1.42621E6,7.675448E6,1.7575552E7,2.9133696E7,4.1728384E7,2.77112E5,3.50677E6,4.830446E7,7.05216E5,8.98281E5,7.3381976E7,2.0607308E7,9.98645E5,3.266E5,9.413488E6,0E0,2.4798944E7,2.66192E7,2.3291104E7,8.91328E6,9.743552E6,2.2472652E7,0E0,0E0,1.857182E6,1.0046325E5,0E0,1.9010886E7,2.30912E5,0E0,2.430285E5,1.022871E6,3.2612932E7,1.4307702E8,1.196296E6,4.1577764E7,5.2859025E5,0E0,2.30098E5,0E0,3.823923E7,1.2850224E7,4.7808304E7,1.0826304E7,3.905824E6,5.504864E6,0E0,1.593792E6,0E0,0E0,0E0,0E0,0E0,0E0,0E0,0E0,0E0,0E0,0E0,0E0,0E0,0E0,0E0,0E0,0E0,0E0,0E0,0E0,0E0,0E0,0E0,0E0,0E0,0E0,0E0,0E0,0E0,0E0,0E0,0E0,0E0,0E0,0E0,0E0,0E0,0E0,0E0,0E0,0E0,0E0,0E0,0E0],"parents":[2147483647,0,0,1,1,2,2,3,3,4,4,5,5,6,6,7,7,8,8,9,9,10,10,11,11,12,12,13,13,14,14,15,15,16,16,17,17,18,18,19,19,20,20,21,21,22,22,23,23,24,24,25,25,27,27,28,28,29,29,30,30,31,31,32,32,35,35,36,36,38,38,39,39,41,41,42,42,43,43,44,44,45,45,46,46,47,47,49,49,51,51,52,52,53,53,54,54,55,55,56,56,58,58],"right_children":[2,4,6,8,10,12,14,16,18,20,22,24,26,28,30,32,34,36,38,40,42,44,46,48,50,52,-1,54,56,58,60,62,64,-1,-1,66,68,-1,70,72,-1,74,76,78,80,82,84,86,-1,88,-1,90,92,94,96,98,100,-1,102,-1,-1,-1,-1,-1,-1,-1,-1,-1,-1,-1,-1,-1,-1,-1,-1,-1,-1,-1,-1,-1,-1,-1,-1,-1,-1,-1,-1,-1,-1,-1,-1,-1,-1,-1,-1,-1,-1,-1,-1,-1,-1,-1,-1],"split_conditions":[1E0,4.2E1,3.002E1,3E0,2.376E1,4E1,5.2E1,4.147E1,2.772E1,1E0,3.8095E1,2.772E1,2.9925E1,3.7905E1,5.5E1,4.123E1,3.3E1,3.1E1,2.794E1,2E0,1E0,3.667E1,5.8E1,3.5E1,2E0,4.6E1,-5.3894436E1,3.04E1,3E0,3.432E1,5.7E1,2.8E1,2.6E1,-2.0225029E2,-1.0321596E2,1E0,3.8E1,4.7104102E2,2.6E1,2.321E1,-1.98521E1,5E1,5.5E1,2.585E1,2E0,5.7E1,5.9E1,1E0,8.548617E1,1E0,1.2723256E2,1E0,5.7E1,4.5E1,1E0,3.91E1,3.2E1,1.2855118E2,3E0,1.8559164E2,4.329642E2,-1.156807E2,-8.002195E1,4.7596915E2,-5.6391846E1,-1.8295619E2,-8.436434E1,-5.3975994E1,-2.1743887E1,-1.599958E2,6.8521113E0,-1.3974048E2,-3.4027687E1,-1.2798096E1,-5.058546E1,-1.0003411E2,-1.41085615E1,8.589956E1,-1.3866666E1,1.2013353E1,5.3073926E2,-1.2911642E2,-4.2007496E1,4.5332077E2,-3.975966E1,1.6452644E1,4.5604076E1,2.7590673E1,7.3207214E1,4.4378452E1,4.1645688E2,7.664068E1,2.1849385E2,2.1046666E2,8.9561E2,1.4749986E2,2.6829468E2,1.9368622E2,3.7202774E2,8.799795E2,2.0893848E2,9.047039E2,2.456918E2],"split_indices":[4,0,2,3,2,0,0,2,2,5,2,2,2,2,0,2,0,0,2,3,1,2,0,0,3,0,0,2,5,2,0,0,0,0,0,1,0,0,0,2,0,0,0,2,5,0,0,3,0,5,0,1,0,0,3,2,0,0,5,0,0,0,0,0,0,0,0,0,0,0,0,0,0,0,0,0,0,0,0,0,0,0,0,0,0,0,0,0,0,0,0,0,0,0,0,0,0,0,0,0,0,0,0],"split_type":[0,0,0,0,0,0,0,0,0,0,0,0,0,0,0,0,0,0,0,0,0,0,0,0,0,0,0,0,0,0,0,0,0,0,0,0,0,0,0,0,0,0,0,0,0,0,0,0,0,0,0,0,0,0,0,0,0,0,0,0,0,0,0,0,0,0,0,0,0,0,0,0,0,0,0,0,0,0,0,0,0,0,0,0,0,0,0,0,0,0,0,0,0,0,0,0,0,0,0,0,0,0,0],